tree
version=v4
num_class=1
num_tree_per_iteration=1
label_index=0
max_feature_idx=11
objective=binary sigmoid:1
feature_names=lag_4 lag_5 games_since_1000x rol_mean_25 lag_6 rol_std_25 rel_str_200 lag_10 lag_2 time_since_instakill vol_squeeze virtual_pool_score
feature_infos=[1:10938.01] [1:10938.01] [1:2363] [1.5984000000000091:443.56520000000006] [1:10938.01] [0.74396281266569808:2186.7905755625065] [-0.56820756200136546:13.995915200629064] [1:10938.01] [1:10938.01] [1:87] [0.00088508726387528448:3.1633443117497615] [-13.207059811445138:0.97637095255175732]
tree_sizes=9999

Tree=0
num_leaves=95
num_cat=0
split_feature=8 10 1 5 10 8 8 8 0 0 5 0 0 0 1 0 6 11 5 11 2 2 10 0 8 10 1 10 1 11 5 0 10 0 0 1 5 0 0 0 10 11 1 1 2 0 1 6 0 5 5 1 5 0 2 11 1 1 8 6 6 1 1 6 10 10 2 8 10 5 11 10 1 2 5 1 10 1 6 2 6 2 11 0 6 5 2 5 6 8 0 1 8 2
split_gain=8.49112 7.33566 7.30358 10.5825 9.26734 8.28944 10.3754 8.39494 9.20537 6.8097 6.65199 6.53315 15.5456 6.95259 6.39233 14.8014 10.0097 8.26868 7.47031 12.3977 7.50007 7.14348 11.0224 9.30047 7.40697 9.12678 6.89046 6.48397 6.27392 6.18486 8.14437 7.15363 6.16405 6.15255 6.10473 5.98389 5.92844 8.22196 5.84194 7.39115 5.74956 5.91435 5.74515 5.62386 5.53928 8.45841 6.56837 10.0207 6.4121 5.32998 5.12787 5.66438 16.3731 5.70219 5.10223 6.50919 7.14417 10.4299 6.09505 8.57627 8.33208 6.0073 5.03911 5.01793 4.95637 4.94497 4.89629 6.27385 4.88885 7.69968 12.1957 8.57844 7.81669 8.26322 6.74579 6.63614 7.23908 6.27923 9.61683 5.76714 4.85866 4.80711 4.73117 4.59642 8.80335 5.32324 4.55919 10.4526 7.86158 6.0367 5.75876 4.92184 6.70605 4.49715
threshold=1.0150000000000003 0.09866073490417375 1.8250000000000004 3.5686213070822217 0.16413965627267632 1.7050000000000003 1.8550000000000002 1.3500000000000003 1.5600000000000003 2.3000000000000003 159.28721456456819 41.910000000000004 11.750000000000002 1.0050000000000001 1.2250000000000003 1.175 2.6269053095689396 -1.9694920236522975 17.109973785968297 -2.0425895837264756 1690.5000000000002 1149.5000000000002 0.18043411479492791 1.2350000000000001 4.5100000000000007 0.60005760945793873 1.3700000000000003 0.31121588116846305 1.5800000000000003 -1.6084942185554885 6.0570305389368402 2.1750000000000003 0.71951814676545334 3.4850000000000003 2.4050000000000007 2.1150000000000007 5.005359127651146 1.2550000000000001 1.0450000000000002 1.1250000000000002 0.23412868319596578 -1.1995090275707263 3.3700000000000006 1.1250000000000002 951.50000000000011 3.7450000000000006 1.6300000000000001 -0.15763396661883766 1.5600000000000003 360.92236384844767 3.9798578729177625 26.155000000000005 10.361953644474438 1.1400000000000001 104.50000000000001 -1.6762005074264572 5.3500000000000005 3.1550000000000007 3.4350000000000005 -0.1810929346737819 -0.17606068478774242 3.7950000000000004 3.1100000000000003 -0.15326789585554695 0.45291239081339985 0.0094840322655258043 546.50000000000011 13.175000000000002 0.83852287202396025 11.799480200267888 -1.3933996395650252 0.34940040237018222 1.1600000000000001 1677.5000000000002 8.3632736811425961 1.0300000000000002 0.10252043862894324 1.0300000000000002 -0.17355402961728192 120.50000000000001 -0.1543037511720648 227.50000000000003 -1.6934345740362511 2.8500000000000005 -0.10638020560420129 10.854763055206861 1205.5000000000002 2.3468629255509437 -0.24815675591827938 4.5100000000000007 4.0200000000000005 3.0200000000000005 3.0650000000000004 437.50000000000006
decision_type=2 2 2 2 2 2 2 2 2 2 2 2 2 2 2 2 2 2 2 2 2 2 2 2 2 2 2 2 2 2 2 2 2 2 2 2 2 2 2 2 2 2 2 2 2 2 2 2 2 2 2 2 2 2 2 2 2 2 2 2 2 2 2 2 2 2 2 2 2 2 2 2 2 2 2 2 2 2 2 2 2 2 2 2 2 2 2 2 2 2 2 2 2 2
left_child=1 34 10 5 36 7 -7 8 -4 -9 14 12 13 62 15 17 18 -2 19 -16 44 22 29 26 25 -25 -23 33 -26 30 -21 -31 -29 -24 -1 -14 37 42 -38 93 41 63 -5 -42 46 -46 48 -48 -20 64 -15 66 -53 -54 61 56 57 -56 60 -60 -57 -41 -6 -19 -12 -17 81 -68 69 70 72 75 73 -67 79 -71 -77 78 -70 -72 -13 -52 -37 84 -79 -85 87 88 -8 -88 91 -89 -93 -40
right_child=2 -3 3 4 11 6 86 9 -10 -11 49 80 35 50 16 65 -18 40 20 21 -22 23 27 24 28 -27 -28 32 -30 31 -32 -33 -34 -35 -36 82 38 -39 39 54 43 -43 -44 -45 45 -47 47 -49 -50 -51 51 52 53 -55 55 58 -58 -59 59 -61 -62 -63 -64 -65 -66 68 67 -69 77 71 74 -73 -74 -75 -76 76 -78 83 -80 -81 -82 -83 -84 85 -86 -87 89 90 -90 -91 -92 92 -94 -95
leaf_value=-0.21876745215023755 0.11696725978487607 0.0065627127143741137 -0.22896698770269669 -0.10387613213403106 -0.31872290056433727 0.10013802612331849 0.11493474364217576 -0.19122241014899755 -0.073397783064930625 -0.37801020084917081 -0.26091136641213464 -0.084251838342443 -0.32955551073729383 -0.0063951783206772916 -0.22709707285141253 0.048970356101815077 -0.27826474287291592 -0.070024225343541649 -0.074908331298388378 -0.038356312539535427 -0.17910259166845199 -0.2782647428729158 -0.12456340850599681 -0.0063951783206772916 -0.18551896615815261 0.14628372143636528 -0.055796612344640298 -0.044104613543562952 0.023471517220667204 -0.021018002791770324 0.15387347395495851 -0.12057273656728057 -0.13046892515416075 -0.26955782227935321 -0.0045772055485954477 -0.22378529594612609 0.070219388502771651 -0.16274083671971543 -0.083113629302530884 -0.14761605293548818 0.064719638940171076 0.030663497417914048 0.11493474364217585 -0.099772870704880834 0.13722467067378794 -0.099772870704880834 0.039054140981368682 -0.23859988239113036 0.052333246447009929 -0.015485042181086484 -0.11499966548698809 0.116050634857776 0.031531495027926598 -0.13001732682224232 -0.095196156033905577 -0.033664769901904854 -0.17116961957209487 0.097229269687987535 0.048970356101815049 -0.23364177483090717 0.10013802612331843 -0.031318998583089584 -0.11677209662564607 -0.24947573123291023 -0.10807481824758014 -0.042887656160271272 -0.10603574341253119 -0.18429679958868583 -0.2881809579933623 -0.23698090849391459 -0.30030077647390796 -0.28612287560987343 -0.14419751444448067 0.16796493754717182 0.0089635571676003195 -0.17910259166845197 -0.018893741128739927 -0.013926779805016332 -0.026392878813577499 -0.14249911303593174 0.072616715235187257 -0.051023477661137906 -0.11339273243657828 0.13053922241516433 -0.21876745215023749 -0.04719386960111855 -0.12875873028772411 -0.31934620551476522 -0.11677209662564608 0.070219388502771651 -0.070024225343541649 -0.058740256413378517 -0.27000123027254397 -0.28343842032706185
leaf_weight=8.2355630546808225 10.481625705957411 46.917753159999847 17.469376176595688 7.2373129874467832 6.2390629202127439 6.2390629202127448 5.7399378865957287 13.476375907659532 24.207564130425453 8.4851255714893323 11.979000806808477 11.479875773191454 7.2373129874467841 17.968501210212708 12.47812584042549 5.4903753697872153 5.4903753697872153 8.9842506051063573 16.720688626170158 15.472876042127611 6.7381879538297644 5.4903753697872189 32.942252218723297 35.937002420425415 8.4851255714893323 14.724188491702078 11.47987577319145 50.411628395318985 6.9877504706382743 51.659440979361534 9.4833756387233716 30.696189567446709 39.181315138936043 10.232063189148901 6.2390629202127448 20.713688895106316 10.481625705957411 29.947502017021179 6.2390629202127439 24.207564130425453 16.970251142978672 6.4886254370212546 5.739937886595726 8.2355630546808225 14.973751008510591 5.4903753697872153 5.989500403404235 8.2355630546808225 28.69968943297863 5.989500403404235 52.657691046595573 12.727688357233999 7.2373129874467841 29.947502017021179 22.710189029574394 24.706689164042466 13.725938424468039 11.23031325638294 5.4903753697872162 5.9895004034042341 24.95625168085099 23.209314063191414 6.9877504706382751 7.7364380210638055 10.731188222765921 51.160315945744514 208.63426405191422 31.444877117872238 7.4868755042552948 12.22856332361698 6.7381879538297644 13.226813390851019 18.717188760638237 5.4903753697872153 7.2373129874467841 14.225063458085062 15.972001075744627 17.469376176595688 7.486875504255293 74.369630008935928 9.7329381555318815 77.364380210638046 20.713688895106316 7.7364380210638073 8.2355630546808261 10.731188222765921 9.732938155531885 10.481625705957414 12.22856332361698 6.9877504706382743 7.4868755042552939 7.2373129874467876 8.984250605106352 5.739937886595726
leaf_count=33 42 188 70 29 25 25 23 54 97 34 48 46 29 72 50 22 22 36 67 62 27 22 132 144 34 59 46 202 28 207 38 123 157 41 25 83 42 120 25 97 68 26 23 33 60 22 24 33 115 24 211 51 29 120 91 99 55 45 22 24 100 93 28 31 43 205 836 126 30 49 27 53 75 22 29 57 64 70 30 298 39 310 83 31 33 43 39 42 49 28 30 29 36 23
internal_value=-0.0844597 -0.0247966 -0.0866386 -0.0968923 -0.0891569 -0.138296 -0.101552 -0.181669 -0.138606 -0.26339 -0.0753352 -0.101055 -0.104823 -0.0953632 -0.0724607 -0.0890772 -0.0591482 -0.0145606 -0.0563008 -0.067348 -0.0136044 -0.06118 -0.0754668 -0.0199071 0.00777129 0.0379795 -0.127772 -0.10693 -0.0911362 -0.0365397 0.034691 -0.0581248 -0.081874 -0.158926 -0.126444 -0.192528 -0.06118 -0.115685 -0.0480867 -0.0554589 -0.0430358 -0.101692 -0.0070944 0.0109746 0.00031603 0.07364 -0.0248411 -0.121693 0.00549157 -0.152544 -0.0918399 -0.0954953 -0.0438454 -0.0985749 -0.0459782 -0.026493 -0.0717375 -0.031526 0.00877933 -0.0984795 0.0335728 -0.0906917 -0.212032 -0.153054 -0.188692 -0.104531 -0.102461 -0.116286 -0.107557 -0.118793 -0.100952 -0.171276 -0.0526873 -0.0224526 -0.142127 -0.135471 -0.094364 -0.065882 -0.157287 -0.155609 -0.0122769 -0.0769332 -0.168589 -0.0348973 -0.0795553 0.0272619 -0.119821 -0.143613 -0.0427546 -0.0456037 -0.196619 -0.232113 -0.175746 -0.179103
internal_weight=1742.45 61.3924 1681.05 881.455 742.698 138.757 75.1183 63.6384 41.6769 21.9615 799.598 521.087 499.874 451.209 770.899 342.899 428 58.8968 422.509 335.662 86.8478 323.183 240.079 83.1043 66.1341 50.6612 16.9703 132.767 15.4729 107.312 24.9563 82.3556 89.5929 43.1743 14.4746 48.6647 221.612 42.9248 178.687 168.205 48.4151 23.2093 12.9773 25.2058 80.1096 20.4641 59.6454 14.2251 45.4204 28.6997 437.982 420.014 49.9125 37.1848 156.226 108.809 47.6664 33.9405 61.1428 11.4799 49.6629 47.4169 13.2268 16.7207 22.7102 284.002 370.101 240.079 278.512 219.365 163.713 55.6524 75.3679 56.6507 88.3451 42.4256 30.1971 59.1463 14.9738 81.1078 21.2128 130.022 41.4274 44.1726 25.7049 18.4676 68.8793 52.1586 17.9685 16.7207 34.1901 26.7032 16.2216 11.979
internal_count=6982 246 6736 3532 2976 556 301 255 167 88 3204 2088 2003 1808 3089 1374 1715 236 1693 1345 348 1295 962 333 265 203 68 532 62 430 100 330 359 173 58 195 888 172 716 674 194 93 52 101 321 82 239 57 182 115 1755 1683 200 149 626 436 191 136 245 46 199 190 53 67 91 1138 1483 962 1116 879 656 223 302 227 354 170 121 237 60 325 85 521 166 177 103 74 276 209 72 67 137 107 65 48
is_linear=0
shrinkage=1


end of trees

feature_importances:
lag_4=18
lag_5=17
rol_std_25=12
vol_squeeze=12
games_since_1000x=10
rel_str_200=9
lag_2=9
virtual_pool_score=7

parameters:
[boosting: gbdt]
[objective: binary]
[metric: binary_logloss]
[tree_learner: serial]
[device_type: cpu]
[data_sample_strategy: bagging]
[data: ]
[valid: ]
[num_iterations: 100]
[learning_rate: 0.163331]
[num_leaves: 95]
[num_threads: 0]
[seed: 42]
[deterministic: 1]
[force_col_wise: 0]
[force_row_wise: 0]
[histogram_pool_size: -1]
[max_depth: 11]
[min_data_in_leaf: 22]
[min_sum_hessian_in_leaf: 0.001]
[bagging_fraction: 0.589091]
[pos_bagging_fraction: 1]
[neg_bagging_fraction: 1]
[bagging_freq: 5]
[bagging_seed: 42]
[bagging_by_query: 0]
[feature_fraction: 0.693612]
[feature_fraction_bynode: 1]
[feature_fraction_seed: 42]
[extra_trees: 0]
[extra_seed: 12879]
[early_stopping_round: 0]
[early_stopping_min_delta: 0]
[first_metric_only: 0]
[max_delta_step: 0]
[lambda_l1: 0]
[lambda_l2: 0]
[linear_lambda: 0]
[min_gain_to_split: 0]
[drop_rate: 0.1]
[max_drop: 50]
[skip_drop: 0.5]
[xgboost_dart_mode: 0]
[uniform_drop: 0]
[drop_seed: 17869]
[top_rate: 0.2]
[other_rate: 0.1]
[min_data_per_group: 100]
[max_cat_threshold: 32]
[cat_l2: 10]
[cat_smooth: 10]
[max_cat_to_onehot: 4]
[top_k: 20]
[monotone_constraints: ]
[monotone_constraints_method: basic]
[monotone_penalty: 0]
[feature_contri: ]
[forcedsplits_filename: ]
[refit_decay_rate: 0.9]
[cegb_tradeoff: 1]
[cegb_penalty_split: 0]
[cegb_penalty_feature_lazy: ]
[cegb_penalty_feature_coupled: ]
[path_smooth: 0]
[interaction_constraints: ]
[verbosity: -1]
[saved_feature_importance_type: 0]
[use_quantized_grad: 0]
[num_grad_quant_bins: 4]
[quant_train_renew_leaf: 0]
[stochastic_rounding: 1]
[linear_tree: 0]
[max_bin: 255]
[max_bin_by_feature: ]
[min_data_in_bin: 3]
[bin_construct_sample_cnt: 200000]
[data_random_seed: 175]
[is_enable_sparse: 1]
[enable_bundle: 1]
[use_missing: 1]
[zero_as_missing: 0]
[feature_pre_filter: 1]
[pre_partition: 0]
[two_round: 0]
[header: 0]
[label_column: ]
[weight_column: ]
[group_column: ]
[ignore_column: ]
[categorical_feature: ]
[forcedbins_filename: ]
[precise_float_parser: 0]
[parser_config_file: ]
[objective_seed: 16083]
[num_class: 1]
[is_unbalance: 0]
[scale_pos_weight: 1]
[sigmoid: 1]
[boost_from_average: 1]
[reg_sqrt: 0]
[alpha: 0.9]
[fair_c: 1]
[poisson_max_delta_step: 0.7]
[tweedie_variance_power: 1.5]
[lambdarank_truncation_level: 30]
[lambdarank_norm: 1]
[label_gain: ]
[lambdarank_position_bias_regularization: 0]
[eval_at: ]
[multi_error_top_k: 1]
[auc_mu_weights: ]
[num_machines: 1]
[local_listen_port: 12400]
[time_out: 120]
[machine_list_filename: ]
[machines: ]
[gpu_platform_id: -1]
[gpu_device_id: -1]
[gpu_use_dp: 0]
[num_gpu: 1]

end of parameters

pandas_categorical:[]
