tree
version=v4
num_class=1
num_tree_per_iteration=1
label_index=0
max_feature_idx=50
objective=binary sigmoid:1
feature_names=lag_1 lag_2 lag_3 lag_4 lag_5 lag_6 lag_7 lag_8 lag_9 lag_10 rol_mean_25 rol_std_25 rol_max_25 rel_str_25 rol_mean_50 rol_std_50 rol_max_50 rel_str_50 rol_mean_100 rol_std_100 rol_max_100 rel_str_100 rol_mean_150 rol_std_150 rol_max_150 rel_str_150 rol_mean_200 rol_std_200 rol_max_200 rel_str_200 rol_mean_300 rol_std_300 rol_max_300 rel_str_300 streak_under_2 streak_over_2 vol_squeeze rtp_gap games_since_10x games_since_20x games_since_50x games_since_100x games_since_1000x trend_acceleration bait_density_150 high_x_density_150 session_sentiment last_recovery_score fib_dist_10x pain_density_20 zigzag_density_5
feature_infos=[1:10938.01] [1:10938.01] [1:10938.01] [1:10938.01] [1:10938.01] [1:10938.01] [1:10938.01] [1:10938.01] [1:10938.01] [1:10938.01] [1.5984000000000091:443.56520000000006] [0.74396281266569808:2186.7905755625065] [3.8199999999999998:10938.01] [-1.3757314319576246:4.7999756681451462] [2.3118000000000363:224.94220000000004] [1.4801857156269751:1546.3594854432808] [6.7800000000000002:10938.01] [-0.90458258801565372:6.9295992379773219] [2.5838000000000001:114.31819999999999] [1.9084986853945802:1093.4715913266998] [9.9700000000000006:10938.01] [-0.79404709085181091:9.8999070638365527] [2.8124666666666696:77.830933333333334] [2.7573501372292721:892.78975942060606] [20.66:10938.01] [-0.62830854980906881:12.165099284023022] [2.9528999999999912:67.159199999999998] [3.3859685012558023:778.63624699820355] [27.890000000000001:10938.01] [-0.56820756200136546:13.995915200629064] [3.9855666666666667:46.569833333333335] [6.2829296786114206:635.93360449909449] [55.380000000000003:10938.01] [-0.47832371961772202:17.127447443759507] [0:13] [0:9] [0.00088508726387528448:3.1633443117497615] [-104.67267888641945:6.827720550361617] [1:116] [1:124] [1:227] [1:418] [1:2363] [-1093.681:1093.876] [0.0066666666666666671:0.11333333333333333] [0.10666666666666667:0.30666666666666664] [0.29883233546780857:8.0622798640834912] [1.0233333333333334:3647.3933333333334] [0:27] [0:10] [0:5]
tree_sizes=7903

Tree=0
num_leaves=76
num_cat=0
split_feature=36 7 23 30 43 17 15 23 4 13 6 36 38 18 5 39 20 9 16 47 42 43 36 9 10 17 1 6 8 0 7 8 43 4 18 7 5 5 13 5 41 30 2 13 6 1 1 23 15 17 19 47 26 40 47 25 3 30 43 3 31 8 17 17 43 20 40 13 27 15 14 9 2 2 40
split_gain=12.5485 12.8703 12.1299 11.8552 10.8925 11.1697 10.8047 16.4433 12.1049 10.2991 13.2498 9.55053 10.0365 16.8319 18.5549 21.3603 13.705 12.2868 10.281 9.72126 10.5609 10.1386 14.9034 9.53387 9.35241 9.30833 9.24365 12.6739 8.90286 8.56802 8.33455 12.6474 9.98229 8.81611 10.4503 14.4826 8.32056 10.6589 11.7655 8.26146 11.6906 8.86036 8.05637 8.05411 7.94021 12.2562 10.612 8.62686 7.86576 7.84888 7.65737 8.05658 9.50511 8.7972 7.18032 10.6064 13.351 7.16553 7.14837 7.13593 10.6287 8.19958 7.11309 6.9156 6.90568 7.23254 6.87211 6.72995 8.61293 6.68456 9.70228 11.1907 7.39618 12.1081 6.65868
threshold=0.36395684755321839 2.6450000000000005 6.7578204735814777 11.573416666666668 2.7674999999999987 -0.12050715684624945 16.376910118032139 14.695761829923393 1.3200000000000003 -0.20849833433138151 2.7700000000000005 0.29353566069303794 19.500000000000004 8.0227000000000022 1.0750000000000004 27.500000000000004 133.33000000000001 7.2300000000000013 30.610000000000003 2.8100000000000054 753.50000000000011 -2.6359999999999997 0.046619751661129895 1.0750000000000004 6.0720000000000098 -0.17391702170044746 2.8750000000000004 1.8550000000000002 1.3500000000000003 1.1400000000000001 2.3000000000000003 1.8800000000000001 -0.17499999999999846 1.1250000000000002 7.7585500000000005 1.2250000000000003 2.1150000000000007 1.9100000000000001 0.62701605583156872 1.3500000000000003 68.500000000000014 6.5328666666666679 2.9350000000000005 -0.034816114649555842 1.5200000000000002 3.2000000000000006 4.9850000000000003 8.7336947057208238 14.903323788980352 -0.52638711502594482 18.763716169085551 2.2666666666666706 7.2817750000000006 41.500000000000007 3.5483333333333333 -0.27198389803766115 2.3000000000000003 5.5935166666666669 0.11600000000000034 1.4800000000000002 31.352378348345923 3.6900000000000008 1.0000000180025095e-35 -0.2115603783763805 0.34599999999999792 62.090000000000011 37.500000000000007 0.62701605583156872 13.088990391440086 11.957825629851792 4.7830000000000199 3.2950000000000004 1.3200000000000003 1.7800000000000002 85.500000000000014
decision_type=2 2 2 2 2 2 2 2 2 2 2 2 2 2 2 2 2 2 2 2 2 2 2 2 2 2 2 2 2 2 2 2 2 2 2 2 2 2 2 2 2 2 2 2 2 2 2 2 2 2 2 2 2 2 2 2 2 2 2 2 2 2 2 2 2 2 2 2 2 2 2 2 2 2 2
left_child=2 4 -1 6 5 9 24 -8 -9 30 25 12 16 14 -14 26 17 44 74 21 63 22 -18 42 49 -11 27 -16 66 -15 32 -32 -2 -34 48 -36 37 38 43 40 -7 -42 58 -25 47 -46 -47 -4 64 -3 -38 52 -52 -53 55 -30 -57 -22 -23 60 -49 -61 -41 -21 65 -35 -13 68 -64 70 72 -72 -51 -74 -17
right_child=1 3 11 -5 -6 39 7 8 -10 10 -12 28 13 29 15 18 19 -19 -20 20 57 23 -24 36 -26 -27 -28 -29 54 -31 31 -33 33 34 35 -37 50 -39 -40 62 41 -43 -44 -45 45 46 -48 59 -50 69 51 53 -54 -55 -56 56 -58 -59 -60 61 -62 -63 67 -65 -66 -67 -68 -69 -70 -71 71 -73 73 -75 -76
leaf_value=-1.1560468871451588 -1.4746353269763164 -1.6227190133585943 -1.2006697988838906 -1.5707909821224408 -1.2793004803618317 -1.1292731401019198 -1.073175765344657 -1.23157744337825 -1.4777156572321211 -1.560161172142057 -1.0715619168188439 -1.2842724438276503 -0.96958686309402986 -1.2398987322805777 -0.91663245834078833 -1.0986745720525037 -0.94568173180542381 -1.1915630822025167 -1.4920847326878526 -1.4221451485749017 -1.5341157327557318 -1.3146644641660288 -1.3645906991486192 -1.3515811038895138 -1.5857538185534119 -1.2365836111484634 -1.3806613756451613 -1.2803535698459114 -1.404660252546664 -1.481390606676698 -1.0511940354240996 -1.4237843575775491 -1.2059272848030342 -1.4349831578208601 -1.0023457467117498 -1.4223985528651661 -1.5649384661388432 -1.1348664267346087 -1.1469881005515816 -1.6681479218610797 -1.6112999328803825 -1.3115341758745283 -1.6863613552238275 -1.5371488977090839 -1.5691496646042182 -1.2255466834769118 -1.560161172142057 -1.4820359418670264 -1.5622200432488809 -1.5675591040327637 -1.2628620103664434 -1.0836260959626272 -1.4496418135630469 -1.4219801967255787 -1.3817828184910259 -0.94568173180542381 -1.3105108123946148 -1.3321480209712249 -1.5973179032281724 -1.5688476908606037 -1.149672185468197 -1.2987421323756085 -1.2249543767008875 -1.5406538883218464 -1.5357969727584471 -1.2723421204410812 -1.5557164745627685 -1.5723473203880964 -1.5085799176201524 -1.5875482454857024 -1.3919108491927406 -1.0374774359536718 -1.1942950972069288 -1.463157514994077 -1.4106599717720396
leaf_weight=12.613837718963621 116.52032592892647 13.717548519372938 8.9873593747615796 56.919942706823349 35.79176452755928 7.8836485743522671 9.4603782892227155 15.609624177217482 45.567488759756088 9.6180512607097608 12.456164747476576 9.6180512607097643 10.091070175170897 10.248743146657942 12.456164747476583 7.8836485743522635 7.8836485743522671 8.8296864032745344 33.11132401227951 55.185540020465851 12.298491775989531 13.402202576398855 13.244529604911802 123.61560964584351 38.629878014326096 11.194780975580217 8.0413215458393079 10.091070175170897 9.4603782892227155 51.559061676263809 9.1450323462486285 12.613837718963621 15.294278234243391 35.003399670124054 8.5143404603004473 10.879435032606123 16.555662006139755 14.66358634829521 14.978932291269301 17.028680920600891 12.140818804502489 10.879435032606123 9.9333972036838514 15.294278234243391 81.832272201776505 12.929183661937715 9.6180512607097608 13.717548519372942 21.128178179264069 21.916543036699295 19.39377549290657 9.6180512607097643 86.877807289361954 8.3566674888133985 16.871007949113846 13.559875547885897 10.248743146657942 60.546421051025391 8.5143404603004438 32.322959154844284 9.4603782892227155 8.1989945173263532 9.9333972036838549 59.600383222103119 16.555662006139755 29.169499725103378 12.456164747476576 27.908115953207016 16.713334977626801 13.717548519372938 15.136605262756349 7.8836485743522635 12.613837718963621 42.887048244476318 8.0413215458393079
leaf_count=80 739 87 57 361 227 50 60 99 289 61 79 61 64 65 79 50 50 56 210 350 78 85 84 784 245 71 51 64 60 327 58 80 97 222 54 69 105 93 95 108 77 69 63 97 519 82 61 87 134 139 123 61 551 53 107 86 65 384 54 205 60 52 63 378 105 185 79 177 106 87 96 50 80 272 51
internal_value=-1.40908 -1.43274 -1.39106 -1.47193 -1.40693 -1.41806 -1.4482 -1.36914 -1.41491 -1.39511 -1.26834 -1.39415 -1.40102 -1.34448 -1.27775 -1.3168 -1.41266 -1.46928 -1.41548 -1.39352 -1.43809 -1.37044 -1.20828 -1.38048 -1.48174 -1.38612 -1.15861 -1.07942 -1.30979 -1.44135 -1.41045 -1.26719 -1.42277 -1.37851 -1.40028 -1.23799 -1.36754 -1.33138 -1.35011 -1.48704 -1.3828 -1.46963 -1.50615 -1.37201 -1.48313 -1.52576 -1.36828 -1.42192 -1.43119 -1.45031 -1.41083 -1.39029 -1.41556 -1.24093 -1.25359 -1.18859 -1.10273 -1.36625 -1.42447 -1.45313 -1.34638 -1.5142 -1.53204 -1.48368 -1.39689 -1.36106 -1.43744 -1.48956 -1.40285 -1.4296 -1.40802 -1.27053 -1.44891 -1.40205 -1.25621
internal_weight=1712.64 740.432 972.212 294.06 446.372 410.58 237.14 70.6375 61.1771 308.093 33.269 959.598 887.383 151.524 89.7159 79.6249 735.86 185.896 49.0363 549.963 187.631 362.332 21.1282 341.204 166.503 20.8128 30.5886 22.5472 72.2142 61.8078 274.824 21.7589 253.065 136.545 121.251 19.3938 309.354 168.552 153.889 102.487 30.9039 23.0203 31.8499 138.91 177.067 104.38 22.5472 72.6872 101.857 127.873 140.802 124.246 106.272 17.9747 50.14 33.269 23.8086 72.8449 21.9165 63.6999 23.1779 40.522 71.5835 114.786 80.7286 64.1729 22.0742 54.5548 26.6467 114.155 100.438 23.0203 77.4174 55.5009 15.925
internal_count=10862 4696 6166 1865 2831 2604 1504 448 388 1954 211 6086 5628 961 569 505 4667 1179 311 3488 1190 2298 134 2164 1056 132 194 143 458 392 1743 138 1605 866 769 123 1962 1069 976 650 196 146 202 881 1123 662 143 461 646 811 893 788 674 114 318 211 151 462 139 404 147 257 454 728 512 407 140 346 169 724 637 146 491 352 101
is_linear=0
shrinkage=1


end of trees

feature_importances:
rel_str_50=5
trend_acceleration=5
lag_6=4
rel_str_25=4
lag_2=3
lag_3=3
lag_7=3
lag_8=3
lag_9=3
lag_10=3
rol_std_50=3
rol_std_150=3
rol_mean_300=3
vol_squeeze=3
games_since_50x=3
last_recovery_score=3
lag_4=2
lag_5=2
rol_mean_100=2
rol_max_100=2
lag_1=1
rol_mean_25=1
rol_mean_50=1
rol_max_50=1
rol_std_100=1
rel_str_150=1
rol_mean_200=1
rol_std_200=1
rol_std_300=1
games_since_10x=1
games_since_20x=1
games_since_100x=1
games_since_1000x=1

parameters:
[boosting: gbdt]
[objective: binary]
[metric: binary_logloss]
[tree_learner: serial]
[device_type: cpu]
[data_sample_strategy: bagging]
[data: ]
[valid: ]
[num_iterations: 100]
[learning_rate: 0.241228]
[num_leaves: 76]
[num_threads: 0]
[seed: 0]
[deterministic: 0]
[force_col_wise: 0]
[force_row_wise: 0]
[histogram_pool_size: -1]
[max_depth: 12]
[min_data_in_leaf: 50]
[min_sum_hessian_in_leaf: 0.001]
[bagging_fraction: 0.915278]
[pos_bagging_fraction: 1]
[neg_bagging_fraction: 1]
[bagging_freq: 1]
[bagging_seed: 3]
[bagging_by_query: 0]
[feature_fraction: 0.885861]
[feature_fraction_bynode: 1]
[feature_fraction_seed: 2]
[extra_trees: 0]
[extra_seed: 6]
[early_stopping_round: 0]
[early_stopping_min_delta: 0]
[first_metric_only: 0]
[max_delta_step: 0]
[lambda_l1: 0]
[lambda_l2: 0]
[linear_lambda: 0]
[min_gain_to_split: 0]
[drop_rate: 0.1]
[max_drop: 50]
[skip_drop: 0.5]
[xgboost_dart_mode: 0]
[uniform_drop: 0]
[drop_seed: 4]
[top_rate: 0.2]
[other_rate: 0.1]
[min_data_per_group: 100]
[max_cat_threshold: 32]
[cat_l2: 10]
[cat_smooth: 10]
[max_cat_to_onehot: 4]
[top_k: 20]
[monotone_constraints: ]
[monotone_constraints_method: basic]
[monotone_penalty: 0]
[feature_contri: ]
[forcedsplits_filename: ]
[refit_decay_rate: 0.9]
[cegb_tradeoff: 1]
[cegb_penalty_split: 0]
[cegb_penalty_feature_lazy: ]
[cegb_penalty_feature_coupled: ]
[path_smooth: 0]
[interaction_constraints: ]
[verbosity: -1]
[saved_feature_importance_type: 0]
[use_quantized_grad: 0]
[num_grad_quant_bins: 4]
[quant_train_renew_leaf: 0]
[stochastic_rounding: 1]
[linear_tree: 0]
[max_bin: 255]
[max_bin_by_feature: ]
[min_data_in_bin: 3]
[bin_construct_sample_cnt: 200000]
[data_random_seed: 1]
[is_enable_sparse: 1]
[enable_bundle: 1]
[use_missing: 1]
[zero_as_missing: 0]
[feature_pre_filter: 1]
[pre_partition: 0]
[two_round: 0]
[header: 0]
[label_column: ]
[weight_column: ]
[group_column: ]
[ignore_column: ]
[categorical_feature: ]
[forcedbins_filename: ]
[precise_float_parser: 0]
[parser_config_file: ]
[objective_seed: 5]
[num_class: 1]
[is_unbalance: 0]
[scale_pos_weight: 1]
[sigmoid: 1]
[boost_from_average: 1]
[reg_sqrt: 0]
[alpha: 0.9]
[fair_c: 1]
[poisson_max_delta_step: 0.7]
[tweedie_variance_power: 1.5]
[lambdarank_truncation_level: 30]
[lambdarank_norm: 1]
[label_gain: ]
[lambdarank_position_bias_regularization: 0]
[eval_at: ]
[multi_error_top_k: 1]
[auc_mu_weights: ]
[num_machines: 1]
[local_listen_port: 12400]
[time_out: 120]
[machine_list_filename: ]
[machines: ]
[gpu_platform_id: -1]
[gpu_device_id: -1]
[gpu_use_dp: 0]
[num_gpu: 1]

end of parameters

pandas_categorical:[]
