tree
version=v4
num_class=1
num_tree_per_iteration=1
label_index=0
max_feature_idx=9
objective=binary sigmoid:1
feature_names=macro_cycle_10x lag_5 gap_std_2x rol_mean_50 rol_mean_25 games_since_10x last_recovery_score rel_str_15 lag_7 virtual_pool_score
feature_infos=[0.0019999999999960002:10.439999999060401] [1:10938.01] [0:5.7183913821983188] [2.3118000000000363:224.94220000000004] [1.5984000000000091:443.56520000000006] [1:116] [1.0233333333333334:3647.3933333333334] [-1.4013686474840699:3.6147772123584705] [1:10938.01] [-13.207059811445138:0.97637095255175732]
tree_sizes=14148 14410 14476 11332

Tree=0
num_leaves=137
num_cat=0
split_feature=2 6 4 8 6 1 4 2 9 1 5 1 3 2 4 7 2 8 2 8 4 3 4 2 4 8 1 8 1 6 8 7 1 9 3 7 9 8 8 2 9 9 5 1 7 8 8 9 2 1 7 9 9 3 1 7 1 8 3 3 6 5 4 4 4 8 2 8 5 4 8 6 6 1 9 9 4 7 4 1 2 8 2 8 4 3 7 2 9 6 9 3 5 4 8 9 6 7 5 1 4 6 9 7 4 9 1 9 9 2 7 7 6 6 4 4 6 5 8 4 1 2 3 3 5 9 9 6 9 9 9 9 1 1 1 1
split_gain=9.42733 23.5703 22.7712 51.8533 12.5002 7.48077 9.20714 19.2004 9.08113 17.7607 13.1601 12.5791 10.2455 6.89447 8.00451 7.75194 7.45731 14.7739 35.4906 42.7573 10.4333 23.3249 19.1126 6.86153 5.99141 5.44632 14.6278 11.1473 9.8508 16.7097 24.5719 16.8179 12.5826 13.8652 8.61535 15.756 11.3129 15.4321 6.83837 7.27024 17.9482 20.2454 10.3379 6.83716 9.44722 5.27619 5.24169 5.18727 6.93341 8.94422 5.17882 5.00339 6.47124 15.4289 4.95199 13.8672 7.19236 15.1166 15.8587 22.2312 5.34803 10.6605 16.4616 8.75374 6.84362 4.70597 7.27287 4.42539 8.35279 4.32008 4.05723 3.94779 22.246 4.76111 7.02402 28.0231 4.47595 4.06511 14.424 3.40112 3.39752 3.38102 3.32631 3.13014 3.00006 2.89623 2.81705 2.56486 2.50652 2.50619 2.38596 2.37765 2.16567 8.05458 13.3396 2.08115 4.41827 1.95875 4.66676 1.9528 2.27233 3.24509 1.72379 7.63651 1.65444 1.53841 2.60114 1.48268 3.67529 2.58796 1.34925 1.05577 1.02275 1.01227 0.999133 0.980918 1.09995 0.979448 0.928048 0.885756 3.29017 0.959448 0.841941 0.746681 0.566631 0.528825 0.516036 0.583345 0.357367 0.723019 0.156631 0.963459 3.55271e-15 3.55271e-15 1.77636e-15 1.77636e-15
threshold=1.0000000180025095e-35 3.2516666666667429 6.9330000000000469 3.9650000000000003 1.7866666666667426 2.4700000000000006 88.434600000000032 1.3416407864998783 -1.6887329720281283 1.0300000000000002 12.500000000000002 2.4350000000000005 19.08410000000001 0.8944271909999193 4.0410000000000279 3.3994456410555438 1.3038404810405353 3.9100000000000006 1.1824601482453649 6.0850000000000009 8.9190000000000733 12.193400000000002 11.302800000000033 0.4472135954999667 4.1736000000000368 1.2800000000000002 1.1250000000000002 1.2550000000000001 1.4100000000000001 3.7866666666666671 1.1400000000000001 -0.35809018908230833 1.7050000000000003 -0.82228264232376647 3.1183000000000241 0.91107181441197216 -1.056798376777649 1.8050000000000004 1.4100000000000001 0.83666002653407523 -1.0707765279744152 -0.92923346952219388 5.5000000000000009 1.8250000000000004 -0.66994365452297511 1.2250000000000003 1.9650000000000001 -1.479009934702517 1.047722557505167 4.9850000000000003 -0.46328892551302431 -0.97483613878915698 -2.0424433362563619 9.9818000000000087 1.2050000000000003 3.0033879242309482 1.2950000000000002 2.0450000000000004 15.468900000000039 7.4573000000000214 1.781666666666665 10.500000000000002 15.922200000000034 4.5980000000000372 4.0252000000000647 1.5600000000000003 1.2247448713915918 4.6400000000000015 16.500000000000004 2.9828000000000139 16.325000000000006 2.2833333333333385 2.3600000000000798 4.5750000000000011 -1.3033047607684149 -1.2041985587774036 3.5514000000000299 -0.19464533895353303 6.7302000000000035 1.4950000000000003 1.000000000000002 1.4450000000000001 0.54772255750516419 2.3350000000000004 3.1254000000000368 6.4847000000000365 -0.29465398321132807 3.0331501776206218 -0.93959229089685536 1.6816666666667428 -1.5685024385725439 6.7235000000000076 20.500000000000004 2.8860000000000348 1.5400000000000003 -2.1731181486920081 5.7050000000000018 -0.28503773866167337 10.500000000000002 1.8050000000000004 4.0786000000000291 1.4000000000000001 -2.6394245399280938 -0.26814707558089729 5.8962000000000332 -1.9721869880005911 4.9850000000000003 -1.2380982269964698 -1.166271251534839 2.3021728866442714 -0.33741642897732954 -0.64983438810569816 1.1766666666667427 4.9116666666667408 2.9828000000000139 52.747800000000019 22.783333333333335 16.500000000000004 2.0250000000000004 3.7518000000000304 8.3400000000000016 0.44721359549996603 7.7270000000000101 7.0892000000000204 2.5000000000000004 -1.1206940069342053 -2.7132773865686532 9.2533333333333321 -1.7614088107420727 -1.8441320384457278 -1.370125747244485 -1.3399212564374456 2.0250000000000004 1.1900000000000002 65.27000000000001 24.705000000000002
decision_type=2 2 2 2 2 2 2 2 2 2 2 2 2 2 2 2 2 2 2 2 2 2 2 2 2 2 2 2 2 2 2 2 2 2 2 2 2 2 2 2 2 2 2 2 2 2 2 2 2 2 2 2 2 2 2 2 2 2 2 2 2 2 2 2 2 2 2 2 2 2 2 2 2 2 2 2 2 2 2 2 2 2 2 2 2 2 2 2 2 2 2 2 2 2 2 2 2 2 2 2 2 2 2 2 2 2 2 2 2 2 2 2 2 2 2 2 2 2 2 2 2 2 2 2 2 2 2 2 2 2 2 2 2 2 2 2
left_child=1 2 3 4 -1 6 8 -8 9 10 12 23 45 15 67 71 17 20 123 -20 47 22 -22 114 -18 26 104 28 29 31 -31 -28 91 -34 35 36 37 -27 90 40 42 -42 -40 44 -41 -2 51 105 49 -49 70 52 53 -26 55 115 57 58 59 -56 99 64 63 -63 -62 -50 -67 92 84 -39 132 88 -73 74 76 -76 -74 117 -79 -66 -38 -55 -77 -4 -69 -47 -23 97 102 -45 -36 -30 107 118 -95 96 -78 -54 -99 112 -101 -102 103 -7 113 106 -16 128 -109 -110 -90 -92 -58 -25 -10 116 133 126 -94 120 121 -104 -59 -19 -97 130 127 -75 129 -15 -121 -132 -11 -52 135 -128
right_child=5 -3 83 -5 -6 13 7 -9 11 50 -12 -13 -14 14 16 -17 24 18 19 -21 21 86 -24 25 46 34 27 -29 32 30 -32 -33 33 -35 38 -37 80 69 39 43 41 -43 -44 89 -46 85 -48 48 65 -51 54 -53 87 81 56 -57 60 122 -60 -61 61 62 -64 -65 79 66 -68 68 -70 -71 -72 72 73 77 75 82 95 78 -80 -81 -82 -83 -84 -85 -86 -87 -88 -89 110 -91 111 -93 93 94 -96 124 -98 98 -100 100 101 -103 119 -105 -106 -107 -108 108 109 -111 -112 -113 -114 -115 -116 -117 -118 -119 -120 125 -122 -123 -124 -125 -126 -127 134 -129 -130 -131 131 -133 -134 -135 -136 -137
leaf_value=-2.6190203742905642 -2.899226854414207 -3.6197578033035738 -3.086031174496636 -1.5182092023762559 -3.6197578033035738 -3.6197578033035738 -3.4482028154727722 -2.0757629128263608 -3.3528944889001044 -3.6197578033035738 -2.446800444646466 -2.6590498714510851 -2.6190203742905651 -3.6197578033035738 -3.6197578033035729 -2.9335378519803674 -2.9494964554995131 -3.6197578033035738 -1.142932666496379 -3.0433330441920807 -3.0433330441920807 -3.1548991266007569 -1.7603230964923064 -3.6197578033035738 -2.5904278763187678 -2.3933221456195457 -2.8254717179137208 -2.5904278763187643 -3.6197578033035738 -1.7124699974199562 -3.3528944889001049 -3.4461358879085457 -3.2428646915768282 -2.2854412312862213 -3.2594923288588906 -2.3097015325956347 -3.1228399075178039 -3.0021598471126887 -3.6197578033035738 -3.0394644216477071 -1.7517146024792927 -3.105092839811169 -3.1514126865254855 -3.3959904278720936 -3.3752510125882003 -3.1694259602477199 -3.6197578033035738 -3.3945918817756469 -3.6197578033035738 -2.4188728884879636 -3.6197578033035738 -2.8477603580649666 -3.6197578033035738 -3.6197578033035738 -3.2502547525910783 -2.7190941171918657 -3.3624253215573714 -3.3528944889001049 -3.6197578033035738 -1.904207924995559 -2.949496455499514 -2.8191678600931667 -2.2251817731951231 -3.5285513540770714 -3.310958825208131 -2.7463869561649483 -3.6197578033035738 -3.1050928398111695 -2.659049871451086 -3.6197578033035738 -3.1228399075178044 -2.285441231286228 -3.0509175804961792 -3.6197578033035747 -2.0913588208109788 -3.0860311744966356 -3.0021598471126878 -3.6197578033035733 -2.6716907652912498 -3.5447024961275981 -3.6197578033035738 -3.086031174496636 -3.6197578033035738 -3.6197578033035738 -3.6197578033035738 -3.6197578033035738 -3.6197578033035738 -3.1394038373773299 -3.4521924663525581 -3.5952499478991737 -3.3528944889001044 -3.2846271294015428 -3.6197578033035738 -3.6197578033035738 -2.3774630638391496 -3.4560007694650814 -3.6197578033035738 -3.5530419747027069 -3.0193153458957687 -3.0860311744966356 -3.2405309880986439 -3.6197578033035738 -3.3528944889001049 -2.8191678600931689 -3.3195365745996712 -3.6197578033035738 -3.086031174496636 -3.1394038373773294 -3.6197578033035738 -3.2502547525910783 -3.0860311744966356 -3.6197578033035738 -3.6197578033035738 -3.3528944889001049 -3.6197578033035738 -3.3528944889001049 -3.3528944889001049 -3.3528944889001049 -3.3528944889001049 -3.6197578033035738 -3.086031174496636 -3.6197578033035738 -3.6197578033035738 -3.3528944889001049 -3.6197578033035738 -3.4696471889516225 -3.6197578033035738 -3.3528944889001049 -3.6197578033035738 -3.3528944889001049 -3.3528944889001049 -3.6197578033035738 -3.6197578033035738 -3.6197578033035738 -3.6197578033035733 -3.6197578033035733
leaf_weight=1.1428352147340759 0.95236267894506355 3.8729415610432625 0.85712641105055842 1.523780286312103 1.523780286312103 2.2856704294681554 1.3333077505230897 0.88887183368206013 0.85712641105055709 11.015661653131241 1.3650531731545923 1.4285440184175957 1.1428352147340772 1.3967985957860949 1.0793443694710765 1.3333077505230893 1.365053173154595 1.5237802863121026 1.0158535242080691 1.5872711315751074 1.5872711315751069 0.98410810157656703 0.98410810157656659 5.6189398057758799 1.5555257089436114 1.4920348636806005 4.0316686742007724 1.5555257089436043 5.8729031868279007 1.079344369471072 0.85712641105055798 5.2697401568293634 10.317262355238203 0.85712641105055176 1.2698169052600849 1.0475989468395699 0.92061725631356139 1.1110897921025755 4.0316686742007715 4.7300679720938055 0.85712641105055842 1.7777436673641194 6.3490845263004303 5.1110130436718455 59.871867083013072 1.0158535242080691 6.3490845263004294 1.0158535242080704 2.8570880368351936 0.95236267894506443 12.348969403654333 0.88887183368205924 5.8094123415648982 2.2539250068366532 1.2380714826285837 1.0158535242080677 0.88887183368205924 0.85712641105055842 1.0158535242080686 1.3333077505230901 1.3650531731545985 1.4285440184175962 0.98410810157656659 2.50788838788867 4.4443591684103039 1.0475989468395708 0.95236267894506443 0.88887183368206013 0.95236267894506443 1.2698169052600858 0.92061725631356317 0.85712641105055709 1.2063260599970806 0.85712641105055343 1.0475989468395708 0.85712641105055754 1.1110897921025729 2.7618517689406921 1.2063260599970815 12.190242290496824 3.3015239536762238 0.85712641105055798 2.1269433163106441 1.7459982447326181 1.7777436673641203 2.8253426142036915 2.2221795842051506 0.95236267894506532 1.3650531731545927 9.3331542536616308 0.85712641105055709 1.3650531731545923 3.333269376307725 0.88887183368206002 0.92061725631356239 1.3967985957860953 1.3333077505230901 3.4285056442022244 1.1428352147340772 0.85712641105055709 1.8094890899956224 3.3967602215707302 0.85712641105056064 0.85712641105056064 1.523780286312103 5.650685228407383 0.85712641105055798 1.4285440184175966 4.9840313531458404 1.2380714826285837 0.85712641105055709 8.1585736162960512 8.8887183368206006 0.85712641105055798 5.1110130436718464 0.85712641105055887 0.85712641105055887 0.85712641105055887 0.85712641105055798 16.539365191012628 0.85712641105055798 3.9681778289377689 2.2221795842051506 0.85712641105055798 5.3014855794608593 1.5237802863120986 11.015661653131241 0.85712641105055809 9.3331542536616308 0.8571264110505642 0.85712641105055798 4.0634140968322781 1.9682162031531341 1.7777436673641211 0.85712641105055887 1.2698169052600867
leaf_count=36 30 122 27 48 48 72 42 28 27 347 43 45 36 44 34 42 43 48 32 50 50 31 31 177 49 47 127 49 185 34 27 166 325 27 40 33 29 35 127 149 27 56 200 161 1886 32 200 32 90 30 389 28 183 71 39 32 28 27 32 42 43 45 31 79 140 33 30 28 30 40 29 27 38 27 33 27 35 87 38 384 104 27 67 55 56 89 70 30 43 294 27 43 105 28 29 44 42 108 36 27 57 107 27 27 48 178 27 45 157 39 27 257 280 27 161 27 27 27 27 521 27 125 70 27 167 48 347 27 294 27 27 128 62 56 27 40
internal_value=-3.3816 -3.16943 -2.91269 -2.58263 -3.19087 -3.38737 -3.36269 -2.89923 -3.36696 -3.42798 -3.08719 -3.33473 -3.23445 -3.42776 -3.38123 -3.47982 -3.32566 -3.23814 -2.88546 -2.30171 -3.3252 -3.0655 -2.5523 -3.34089 -3.41522 -3.33136 -3.25803 -3.18729 -3.21861 -3.04985 -2.43856 -3.17711 -3.32161 -3.16943 -3.35715 -3.14441 -3.25243 -2.9701 -3.37615 -3.35639 -3.19798 -2.66484 -3.33331 -3.38247 -3.35067 -3.38117 -3.44258 -3.42931 -3.28463 -2.92247 -3.46064 -3.37597 -3.40531 -3.17862 -3.43246 -3.53834 -3.39318 -3.17371 -2.85459 -2.5523 -3.43092 -3.36029 -3.06193 -3.27111 -3.44185 -3.43138 -3.16228 -3.47708 -3.24053 -3.33155 -3.58686 -3.49038 -3.43635 -3.46531 -3.36527 -3.10915 -3.46504 -3.53841 -3.33155 -3.48225 -3.51141 -3.47271 -3.46645 -3.44402 -3.4482 -3.50066 -3.47708 -3.49866 -3.54582 -3.52474 -3.55304 -3.55655 -3.511 -3.39102 -2.98771 -3.51968 -3.33903 -3.53162 -3.41961 -3.53312 -3.43114 -3.48795 -3.56223 -3.40142 -3.53398 -3.55946 -3.38352 -3.54842 -3.47027 -3.54623 -3.31096 -3.59439 -3.59636 -3.58444 -3.58143 -3.59088 -3.60449 -3.59065 -3.56517 -3.57986 -3.499 -3.57235 -3.54548 -3.52369 -3.58561 -3.59985 -3.60436 -3.48633 -3.60002 -3.51827 -3.6091 -3.57327 -3.61976 -3.61976 -3.61976 -3.61976
internal_weight=403.389 10.6665 6.79352 4.1904 2.66662 392.723 243.805 2.22218 241.583 83.4905 7.30145 158.092 5.93639 148.918 78.6334 70.2844 49.7768 25.1741 4.98403 2.60312 20.1901 5.77767 2.57138 156.664 24.6027 150.696 39.2056 31.2058 29.6502 11.2379 1.93647 9.30141 18.4123 11.1744 111.49 9.14268 8.09508 3.87294 102.347 92.0617 13.0156 2.63487 10.3808 79.0461 64.6019 4.79356 23.2376 14.4124 6.82527 1.96822 76.189 16.8886 15.9997 4.66658 62.2845 16.8568 45.4277 6.66654 3.58723 2.57138 38.7612 22.9202 4.92054 3.93643 17.9997 4.85705 1.99996 28.8566 3.61898 2.38091 13.9045 68.9511 34.92 34.0628 14.3807 4.03167 10.349 19.6822 3.96818 16.6346 4.22214 3.11105 2.98407 2.60312 2.66662 3.8412 3.20629 11.3331 34.0311 14.4442 10.2855 7.23796 25.2376 5.99988 1.80949 9.14268 2.4444 10.3808 4.57134 15.841 6.06338 5.20625 31.8089 3.1428 7.99985 7.58716 1.93647 19.2377 7.65065 6.2221 2.22218 9.0157 9.77759 6.47607 5.96814 15.841 14.9838 15.714 4.1904 28.6661 5.68243 4.8253 3.07931 2.38091 6.69828 22.9837 14.8569 1.71425 11.5871 2.25393 21.4599 4.92054 12.9839 14.1267 13.1426 12.2855
internal_count=12707 336 214 132 84 12371 7680 70 7610 2630 230 4980 187 4691 2477 2214 1568 793 157 82 636 182 81 4935 775 4747 1235 983 934 354 61 293 580 352 3512 288 255 122 3224 2900 410 83 327 2490 2035 151 732 454 215 62 2400 532 504 147 1962 531 1431 210 113 81 1221 722 155 124 567 153 63 909 114 75 438 2172 1100 1073 453 127 326 620 125 524 133 98 94 82 84 121 101 357 1072 455 324 228 795 189 57 288 77 327 144 499 191 164 1002 99 252 239 61 606 241 196 70 284 308 204 188 499 472 495 132 903 179 152 97 75 211 724 468 54 365 71 676 155 409 445 414 387
is_linear=0
shrinkage=1


Tree=1
num_leaves=137
num_cat=0
split_feature=0 0 7 4 6 7 8 9 6 0 1 6 3 8 4 3 9 0 7 1 4 4 1 3 9 6 1 7 0 6 1 4 4 4 1 1 8 5 7 9 4 7 7 8 7 1 6 6 0 9 1 6 3 8 1 0 9 3 8 0 4 1 9 4 3 9 9 7 6 6 6 1 9 0 5 4 6 6 8 4 3 3 7 3 3 0 7 6 0 0 7 7 0 9 4 9 0 8 9 4 7 1 9 9 4 1 3 1 7 1 0 7 3 6 8 8 4 3 6 8 4 8 9 1 4 4 3 9 8 8 7 3 8 0 3 7
split_gain=5.55549 4.932 5.148 9.32591 12.7801 12.306 10.0692 14.9981 12.0665 6.70262 18.2601 17.4033 7.40696 6.96757 18.0482 8.09904 13.5834 16.0016 12.3551 21.5746 8.80992 20.7178 6.98349 8.03811 6.8832 7.03014 6.51259 7.78384 10.2841 7.44701 20.9196 8.50577 8.83996 17.8723 8.05881 7.16184 6.19426 5.91195 5.68425 22.6968 16.6446 9.49222 9.85074 6.1339 4.73813 5.23504 5.7928 8.26175 4.71356 4.69451 7.75294 5.35414 16.9814 5.08249 4.46349 4.45379 5.1316 12.9941 4.31393 11.3855 16.294 6.29306 8.74392 4.06221 18.2806 4.05341 3.90797 3.76877 3.51898 8.93813 2.65029 2.65012 2.57255 2.44102 7.19958 2.27377 2.24537 6.09695 6.3533 2.36602 6.55195 2.0762 2.04826 2.22463 4.801 1.81483 2.67679 3.81579 1.54098 10.9294 1.42974 3.73611 1.26 2.43308 10.4804 1.11624 1.07711 1.02829 0.980279 0.957605 2.02365 0.957535 0.93631 3.50914 0.933315 0.925806 0.873967 0.780496 0.749114 0.740804 0.73603 0.70674 0.0116877 0.0116331 0.00554142 0.00463208 0.00462021 0.00390651 0.00243446 0.00241869 0.00203659 0.00191454 0.00155208 0.00134914 0.00127898 0.00103439 0.000861272 0.000776544 0.00274667 0.000744868 0.0013352 0.000566987 0.000513743 0.000509269 0.000460411 0.000419587
threshold=0.028999999999942006 4.0679999995442886 -0.20153156008309681 11.302800000000033 1.7950000000000019 -0.13814988776256545 2.5450000000000004 -2.2459523896410021 1.974999999999999 2.0199999998222244 1.1900000000000002 1.9583333333333359 3.0679000000000234 20.470000000000002 4.7440000000000415 5.1775000000000233 -1.7297863688050061 1.1679999998621522 -0.11964016313090435 1.5600000000000003 3.3330000000000006 2.999400000000064 2.4700000000000006 11.162700000000003 -1.9010332373630112 9.8400000000000016 7.0200000000000005 -0.30133447511404138 0.16999999998554802 1.251666666666744 1.0600000000000003 5.5608000000000342 3.3330000000000006 3.6482000000000325 3.3700000000000006 1.4800000000000002 552.62500000000011 33.500000000000007 -0.33983228199514942 -2.6394245399280938 3.6482000000000325 -0.31656071175023537 -0.33110341500913504 1.0600000000000003 -0.26814707558089729 1.3500000000000003 9.0266666666666691 12.188333333333338 1.8029999998305302 -1.4207852007793014 6.4450000000000012 5.3283333333334104 3.5155000000000096 1.1600000000000001 1.4100000000000001 2.4389999997219465 -1.2890653039913573 5.4774000000000029 6.4450000000000012 0.76899999992078605 4.86100000000003 1.0050000000000001 -1.7482979712827251 5.4346000000000316 4.4139000000000363 -0.84955300758004149 -1.7297863688050061 0.35943942794590961 1.9333333333333333 1.781666666666665 7.0133333333333345 2.5450000000000004 -1.517998868703345 1.6849999998229501 17.500000000000004 18.259400000000003 2.5566666666667426 2.2833333333333385 3.1100000000000003 19.927400000000066 15.740900000000037 2.8848000000000069 -0.66994365452297511 3.8110000000000235 3.5673000000000217 0.10699999998855002 1.8725862546821472 3.5933333333333302 0.72999999991749209 0.59999999993400011 -0.29247272254893691 -0.28076527504113774 0.97399999988797614 -1.4341690543355663 5.5904000000000638 -1.7819346693404927 0.13099999998283804 3.7950000000000004 -1.0621608423083659 5.3984000000000032 0.096844771244773989 2.7700000000000005 -1.1776242461658728 -1.1206940069342053 42.510200000000061 3.9650000000000003 18.094400000000039 3.2450000000000006 -0.60969619156998511 2.6900000000000004 2.1999999997932007 1.219014929985353 5.5815000000000081 2.6650000000000764 5.9150000000000009 4.1400000000000015 88.434600000000032 4.7794000000000203 3.3950000000000009 4.7750000000000012 11.082800000000057 1.8250000000000004 -1.2380982269964698 1.2550000000000001 35.552200000000035 6.7302000000000035 9.423400000000008 -1.4255089969985246 4.9850000000000003 1.8250000000000004 -0.27621166083309573 3.4912000000000214 1.5400000000000003 1.5959999998723202 3.7689000000000372 0.80690248779900364
decision_type=2 2 2 2 2 2 2 2 2 2 2 2 2 2 2 2 2 2 2 2 2 2 2 2 2 2 2 2 2 2 2 2 2 2 2 2 2 2 2 2 2 2 2 2 2 2 2 2 2 2 2 2 2 2 2 2 2 2 2 2 2 2 2 2 2 2 2 2 2 2 2 2 2 2 2 2 2 2 2 2 2 2 2 2 2 2 2 2 2 2 2 2 2 2 2 2 2 2 2 2 2 2 2 2 2 2 2 2 2 2 2 2 2 2 2 2 2 2 2 2 2 2 2 2 2 2 2 2 2 2 2 2 2 2 2 2
left_child=112 2 26 9 66 -6 8 -8 -7 13 11 -11 -12 15 -15 24 20 18 19 -18 21 -17 23 -20 -4 63 27 28 35 30 -30 32 71 -34 -35 -2 44 55 49 -40 41 42 -41 -42 92 88 48 -48 68 58 51 53 -53 -51 -45 56 57 -14 61 72 -61 62 -31 73 -65 76 119 -24 69 -47 -63 110 -60 81 -75 126 77 82 -79 102 -81 -26 -28 84 -84 86 135 -88 89 116 98 -92 104 107 117 -70 -77 -19 108 100 -87 122 113 -104 127 -66 -93 120 -85 -16 -32 -59 -1 -78 134 -101 -46 -95 -115 -5 -94 -82 125 124 133 -33 -10 129 -129 130 -29 132 -3 -90 -57 -22
right_child=1 131 3 4 5 6 7 -9 75 10 12 -13 37 14 109 16 17 97 22 -21 85 -23 67 -25 25 -27 65 36 29 38 31 101 33 34 -36 -37 -38 -39 39 40 43 -43 -44 54 45 46 47 -49 -50 50 -52 52 -54 -55 -56 114 -58 111 59 60 -62 70 -64 64 105 -67 -68 -69 95 -71 -72 -73 -74 74 -76 96 79 78 -80 80 121 -83 83 90 -86 99 87 -89 123 -91 91 106 93 94 -96 -97 -98 -99 -100 115 -102 -103 103 -105 -106 -107 -108 -109 -110 -111 -112 -113 -114 118 -116 -117 -118 -119 -120 -121 -122 -123 -124 -125 -126 -127 -128 128 -130 -131 -132 -133 -134 -135 -136 -137
leaf_value=-0.25781280968809944 0.13676746806387721 -0.23928080589539419 0.39913686239571089 -0.23913352509008282 0.89953056080796367 0.60328819324747118 0.10824117716194791 1.0531219582857463 -0.25143875356235573 1.0602219049839305 0.48012725089265973 -0.048873258455553681 0.93072372196220177 0.96155138913397142 -0.23988955610267609 -0.24078078536369174 -0.041081902530220128 -0.23720167220809055 0.22112542971221222 1.265128067944145 -0.23689773887594986 1.0961233214849957 -0.23839220978288386 0.8979280310297949 0.12347719419858892 0.38389630854594553 0.1988623391918854 -0.23724855936945421 0.87489076181445768 0.69112458087715556 -0.23887365212932801 -0.24539126442959219 1.1916948811138255 -0.017162272582353835 0.76383321015875871 0.97757777470689877 0.49380411497259202 0.50335534316602315 0.94201988034232786 0.79197949811978574 0.37968019525471958 1.0860626177687767 -0.23805948868074481 0.050941094961157125 -0.23765785851434304 -0.056866597097874831 0.8404017427443693 0.025320907139465179 0.46991354357026788 0.1225298939725447 0.62887233692942146 0.74034026897597016 0.0090164192751603211 -0.05065200385797914 -0.21249030646151695 -0.24210099757837628 -0.2390316488519143 -0.23605504956718246 -0.11755787013010052 0.96635904318385235 -0.017338268118790329 -0.090393390452972427 -0.23679427264798822 0.80379909137804684 -0.23713965660527742 0.2852104022795719 0.30416632777680602 0.11493802264104419 -0.071424107409236701 0.58513766845827919 -0.23837197643751498 0.28209287276317374 0.19809726299193031 0.47218871804080775 -0.17011527452122877 -0.072912805290886493 -0.26162611059889251 -0.051284538762056062 0.74598097201577074 0.52020972975327562 -0.23574386106273254 -0.17650933030039739 -0.23778379050248294 -0.018287974301901076 0.47225290246660812 0.035146857725310197 -0.061477737558995889 0.47303633306001458 -0.23637524664211185 0.54778948707829878 0.2981407555285826 -0.24610047592978368 -0.23850134318910304 -0.23670941880347021 0.64421097345891321 -0.24337706526745265 0.24701413022715257 0.038794307628172708 0.058326810235570216 -0.23854675123165556 -0.24337206651618803 0.023045611071301805 0.29358579635642235 -0.23817627245580306 -0.012074500129356505 0.040973646896487782 0.021278300563519412 -0.01920428447435555 -0.22283107751887088 0.042606872147974602 0.00176628308043492 0.054779646581929221 -0.23653188802674432 -0.24612107362464863 -0.25823283407071973 -0.25171353446826522 -0.25462571247889043 -0.25670216956313657 -0.23659516280413356 -0.25235839918159381 -0.24825977974634644 -0.25116053409548494 -0.25071556238771248 -0.24871228878908738 -0.24717580391140476 -0.23654753222535041 -0.24358184948840664 -0.237851481325634 -0.25117736915237859 -0.23590582042644334 -0.24653160945198999 -0.23652005984405933 -0.24461662532703451 -0.24212115143189381 -0.23713579050317346 -0.24330288692900132
leaf_weight=2.3109372835606328 1.2146929167211049 1.5717874485999339 1.4358129929751147 2.7102247122675185 1.6010620296001459 1.606518661603326 1.9684025514870884 1.5879680402576921 1.4072657749056818 1.932200433686375 1.5786787681281556 1.1998999044299123 0.97738961130380664 1.3242852520197623 1.1990015786141159 1.4788510873913794 1.1724770441651409 4.7852800674736491 10.358659150078894 1.5183060243725774 1.19062923267484 1.0280890688300131 2.4509687218815079 1.007404351606964 1.2482434883713711 1.4688901994377364 1.0494909826666141 2.6266077812761073 1.84696272201836 1.2255321294069292 2.2061769124120461 1.0912508945912125 1.1200202088803051 3.0920037087053065 0.89029842615127552 0.94033398665487755 0.93115756846964259 0.9233271852135666 1.5505781508982206 0.88948629423975933 1.4795278906822193 1.0338651165366197 1.0702622067183258 5.5148988012224427 3.1875185035169142 6.2762811928987539 1.0544915106147521 1.698849271982908 0.96414085477590639 10.690995400771497 1.0539826285094012 2.0821749288588753 8.2163714617490751 51.94554591178894 8.6329693123698217 1.4410615451633928 1.7606570404022894 0.99250884912908055 9.3849456515163165 1.5192239265888923 2.0970953088253736 52.329377576708794 0.9379594698548307 1.3152822926640499 3.1385852936655287 1.310076443478464 0.83892607316375034 4.4418682847172022 3.9063564985990524 1.3849507980048654 7.2040777374058953 0.88210345618426789 1.5779737271368492 1.2731787487864483 3.2279076389968395 1.352460550144315 1.1846057586371941 1.2092930506914847 0.92140654660761345 0.90242860838770811 0.89658255688846089 36.59624064899981 1.0473567303270161 1.0180202443152726 0.95031273365020741 2.4726624451577655 2.5810911692678933 0.95817259699106205 3.3376675695180893 1.162657907232642 1.2248586621135471 2.3031900580972375 2.5805166326463223 1.1998147815465916 1.0368177704513071 3.9953278414905071 0.92863312363624562 0.82857457362115372 0.77568545565009017 6.5912334378808719 3.0465077962726355 0.87243312969803799 0.86218672618269954 2.6293522622436294 1.0235100239515293 0.78234667517244805 0.88550724089145649 0.99593635089695443 11.741543406620622 0.81634899415075768 0.951958892866969 0.78126519359648228 3.2480728682130575 1.6212287060916413 0.91919242963194836 1.7742150556296108 1.1398452334105966 0.89112470485270012 10.458704914897679 0.98705530166625965 1.9755902811884878 0.79529615491628647 0.87996282987296526 0.95630681701004494 0.91204457916319359 1.8910974878817794 1.5167114716023204 2.9756554607301977 1.1115376930683849 5.2330035027116537 1.1725230440497378 1.0574869010597465 2.3640150912106037 1.0644214656203983 3.0348567757755518 0.97187829762697209
leaf_count=48 34 50 43 82 39 31 53 37 24 47 34 34 29 33 36 39 39 149 286 44 39 28 76 31 30 42 34 87 49 29 61 28 33 93 18 28 24 25 48 29 45 29 33 166 102 189 25 48 23 283 30 46 230 1480 280 38 51 34 296 44 77 1668 29 40 100 39 24 118 100 39 237 30 51 36 90 34 26 34 23 29 32 1116 32 31 26 68 78 22 112 34 26 61 75 39 29 109 21 26 26 200 84 26 29 84 37 22 29 28 361 25 27 23 111 49 16 43 15 18 366 21 42 22 18 21 17 63 38 93 27 183 27 35 53 29 97 26
internal_value=-0.0181916 -0.0152299 -0.0125522 0.0243666 0.185411 0.309321 0.218179 0.530143 0.0553003 0.00184512 0.141822 0.63533 0.0172573 -0.0193817 0.305579 -0.030328 0.0362659 0.146484 0.238384 0.695962 -0.0962532 0.30748 0.170952 0.281112 -0.0945085 -0.108958 -0.0298637 -0.015238 0.0068397 0.00108856 0.151706 0.0554562 0.184326 0.384471 0.15744 0.50365 -0.0911138 -0.0502132 -0.0128072 0.101204 0.031189 0.525289 0.229452 -0.0634616 -0.101225 -0.0430545 0.0303092 0.337486 -0.0208652 -0.0281121 0.0129376 0.00403675 0.156877 -0.0210928 -0.109804 -0.101806 0.0659019 0.26105 -0.067931 0.0439717 0.395915 -0.094374 0.288835 -0.124173 0.0658864 -0.111067 -0.141533 -0.0106998 -0.0512695 0.059191 -0.1083 -0.0684318 -0.0721233 -0.147675 0.011567 -0.113833 -0.123289 -0.0751845 0.293488 -0.180782 0.0224882 -0.166615 -0.112598 -0.128985 0.0999883 -0.147929 -0.0392768 0.0832294 -0.163329 -0.0748414 -0.15447 -0.0414164 -0.180343 -0.111739 0.0496101 -0.158369 0.0573294 -0.196466 -0.191334 -0.192547 -0.118592 -0.193386 -0.212254 -0.106865 -0.222447 -0.181647 -0.171849 -0.202636 -0.206512 -0.12546 -0.166337 -0.107956 -0.245379 -0.239995 -0.242056 -0.241339 -0.242127 -0.24523 -0.237874 -0.242664 -0.242733 -0.242991 -0.242274 -0.240803 -0.23938 -0.239783 -0.247363 -0.23886 -0.241476 -0.237676 -0.240114 -0.241222 -0.242486 -0.237765 -0.238734 -0.239776
internal_weight=431.979 426.42 421.427 134.529 16.5052 11.969 10.368 3.55637 6.81159 118.024 15.541 3.1321 12.4089 102.483 3.33964 99.1434 48.6569 26.5635 20.9497 2.69078 22.0933 2.50694 18.2589 11.3661 50.4865 49.0507 286.898 243.111 188.316 186.161 15.7243 13.8773 9.14256 5.10232 3.9823 2.15503 54.7947 10.8303 170.437 20.1716 18.621 2.99361 1.95975 15.6274 53.8635 31.0409 19.2804 2.75334 16.5271 150.265 73.9891 72.9351 10.2985 62.6365 14.1479 9.90693 4.51182 2.75116 76.2762 14.5792 3.61632 61.6969 2.16349 47.5818 5.23621 43.7871 4.53621 6.89284 15.5629 7.66123 59.5335 4.04024 10.9629 42.3456 4.50109 5.20507 42.4771 23.1267 2.1307 19.3504 2.59431 37.8445 20.996 19.9465 1.99767 19.5864 5.70177 3.53926 11.7605 5.49002 17.9488 4.41356 22.8226 8.6798 3.12776 7.90168 2.28109 5.61385 13.5352 13.8846 5.51917 4.73474 16.7561 3.49154 14.1428 3.92093 3.1887 5.55204 12.7596 2.01535 3.15814 1.77377 5.55901 13.2645 5.39511 8.36545 4.32736 2.09094 12.0799 3.69728 4.55611 1.69188 3.86231 6.27044 5.31413 2.98235 2.92398 13.1193 4.08719 9.03213 3.79913 4.99329 3.9358 4.40209 4.47592 2.16251
internal_count=12707 12548 12410 3841 404 277 238 90 148 3437 428 81 347 3009 94 2915 1396 769 594 83 627 67 511 317 1519 1476 8569 7210 5638 5576 446 397 262 144 111 62 1572 313 5130 630 582 91 62 491 1548 863 533 73 460 4500 2069 2039 276 1763 446 288 137 86 2431 468 121 1963 58 1434 162 1359 127 194 437 228 1905 118 347 1272 126 117 1320 683 57 637 83 1146 626 592 58 560 165 100 330 151 534 116 685 231 86 209 55 175 418 395 152 135 554 113 454 122 90 145 392 61 88 57 159 441 151 243 117 57 415 103 117 54 109 179 158 91 62 417 120 297 114 138 103 141 135 65
is_linear=0
shrinkage=0.228736


Tree=2
num_leaves=137
num_cat=0
split_feature=5 9 5 9 9 8 8 7 8 8 8 8 6 4 8 7 9 6 3 2 3 8 7 4 5 2 8 1 3 6 8 9 2 1 7 7 3 7 8 1 3 3 9 3 1 3 7 4 4 8 3 2 7 3 7 1 3 7 1 7 5 8 4 7 5 9 9 1 8 8 6 4 1 6 7 8 1 3 7 7 7 6 2 7 6 6 6 9 3 2 1 2 1 1 7 8 4 2 4 6 8 2 2 2 2 2 9 2 3 5 1 3 8 8 9 3 8 9 4 4 2 7 5 8 1 7 8 3 1 8 6 2 7 9 7 9
split_gain=3.50693 4.06181 6.70009 6.47095 6.10459 8.05747 8.55202 10.1183 5.25278 5.02358 4.98641 8.8875 5.41422 11.7404 6.90025 9.6582 5.33471 5.50839 4.96102 4.9594 4.70403 6.02976 4.65795 12.5133 4.29696 8.93244 16.3524 5.35227 5.14576 8.17104 10.7034 14.6146 4.35487 6.45277 4.18273 8.56921 14.4581 8.52671 3.67264 3.9663 3.64828 5.31241 3.7172 3.5009 4.68898 9.73333 8.00217 13.4312 5.99754 4.69145 7.3466 3.49275 7.87557 13.864 3.41917 11.2887 10.8529 3.59407 5.14991 4.61223 3.28641 3.26763 3.22977 3.17206 3.14165 3.59526 3.93343 2.86689 6.81505 4.32029 2.84119 2.62963 2.5267 4.93279 2.50369 2.20912 3.93161 2.19361 2.17638 2.06421 9.70024 2.02595 2.01031 1.97113 1.60992 1.20798 1.69248 1.85065 1.1605 2.14575 1.08136 1.80821 0.846572 2.38709 0.585761 0.459198 0.640586 0.0100204 0.00968172 0.0072845 0.00725175 0.00399018 0.00838515 0.00300101 0.00269828 0.00199031 0.00196054 0.00149423 0.00147829 0.00139506 0.0012269 0.00117015 0.00148559 0.000582526 0.00052392 0.000490631 0.000476417 0.000387819 0.000365622 0.000338715 0.000323742 0.000282178 0.000280757 0.000244314 0.000209581 0.000208182 0.000207577 0.000198973 0.000192535 0.000187785 0.000187605 0.000138272 0.00011353 0.000103191 9.31235e-05 7.30276e-05
threshold=40.500000000000007 -1.4110222513841044 3.5000000000000004 -1.1934051785278632 -1.3606311325854128 2.3000000000000003 2.9350000000000005 -0.10917048340206274 1238.2450000000001 1.2800000000000002 2.6450000000000005 2.5450000000000004 6.128333333333333 5.363600000000031 1.2550000000000001 -0.32369742895081233 -0.79305448521212496 1.7866666666667426 2.8848000000000069 1.0000000180025095e-35 6.2663000000000357 1.0750000000000004 2.6715149127915532 5.8962000000000332 19.500000000000004 2.2134791037602288 1.4800000000000002 1.7550000000000001 3.6660000000000208 1.4450000000000016 1.0450000000000002 -1.1495474166601893 1.0954451150103315 4.5100000000000007 -0.71488429634393669 -0.67868355974972283 5.9794000000000214 -0.699817327548793 23.670000000000005 16.685000000000006 4.672100000000019 4.3527000000000013 -0.89200573162611907 3.6048000000000044 1.7300000000000002 3.8604000000000211 -0.17649232733664796 4.3840000000000368 3.8188000000000275 10.335000000000003 5.1477000000000075 1.2247448713915881 -0.42646228489078469 4.5787000000000218 -0.15412484965939441 9.4850000000000012 8.4600000000000204 0.1325657293101096 1.1400000000000001 -0.028702920935709895 14.500000000000002 1.9100000000000001 3.7178000000000049 0.80690248779900364 10.500000000000002 -1.2890653039913573 -0.82228264232376647 4.2000000000000011 1.7550000000000001 6.4450000000000012 1.7016666666666673 26.936600000000038 1.4950000000000003 1.8533333333334097 3.120588561329432 1.3200000000000003 2.0250000000000004 3.7237000000000231 -0.93551026138104887 -0.30133447511404138 -0.28076527504113774 2.8450000000000037 0.8944271909999193 -0.47533684087550621 1.571666666666667 2.3000000000000003 2.5933333333334088 -1.6571290891613837 3.0105000000000213 1.3038404810405306 3.4850000000000003 0.54772255750516952 2.2700000000000005 2.7300000000000004 -0.54987611523251634 1.3200000000000003 11.486200000000039 0.44721359549995149 7.5676000000000059 5.5483333333334084 4.2000000000000011 1.2247448713915943 1.3038404810405353 0.8366600265340759 0.44721359549995748 2.0000000000000022 -1.0316662174742397 0.8366600265340739 3.2846000000000375 28.500000000000004 2.1750000000000003 4.5116000000000058 2.6450000000000005 1.2800000000000002 -0.93959229089685536 5.1209000000000078 1.5600000000000003 -2.7132773865686532 3.63080000000001 4.6264000000000118 0.8944271909999193 -0.33741642897732954 17.500000000000004 3.3400000000000003 1.7300000000000002 -0.078752846841588217 3.2450000000000006 3.1183000000000241 2.2350000000000008 40.730000000000011 1.7333333333334096 0.89442719099990919 -0.28076527504113774 -2.0061065286142949 -0.57766303617298964 -1.6208740963355119
decision_type=2 2 2 2 2 2 2 2 2 2 2 2 2 2 2 2 2 2 2 2 2 2 2 2 2 2 2 2 2 2 2 2 2 2 2 2 2 2 2 2 2 2 2 2 2 2 2 2 2 2 2 2 2 2 2 2 2 2 2 2 2 2 2 2 2 2 2 2 2 2 2 2 2 2 2 2 2 2 2 2 2 2 2 2 2 2 2 2 2 2 2 2 2 2 2 2 2 2 2 2 2 2 2 2 2 2 2 2 2 2 2 2 2 2 2 2 2 2 2 2 2 2 2 2 2 2 2 2 2 2 2 2 2 2 2 2
left_child=1 8 3 22 5 9 -7 82 18 20 11 12 24 14 -14 -16 19 -18 -1 -12 21 -4 51 74 28 40 27 -27 64 30 -30 -32 33 -31 78 36 -36 -38 39 54 41 42 -26 88 49 48 62 -48 -46 98 121 63 53 -53 60 57 -57 59 -59 -56 67 -34 -47 90 65 -6 -67 69 -69 -37 75 84 126 -74 -24 76 -5 -77 -20 101 -81 122 -8 -19 -62 104 -87 117 89 -21 110 -92 118 -94 -72 96 -82 -80 107 109 -97 115 -103 106 -40 123 -96 -45 -105 127 116 112 -99 114 -110 -41 -3 -88 -66 -115 -117 -51 -11 128 129 -121 -54 -90 -2 -106 -131 -79 -119 -104 -42 -113
right_child=105 2 4 70 10 6 7 -9 -10 81 16 -13 13 -15 15 -17 17 83 34 43 -22 -23 23 -25 25 26 -28 -29 29 32 31 -33 61 -35 35 38 37 -39 85 79 134 -43 -44 44 45 46 47 -49 -50 50 -52 52 72 -55 55 56 -58 58 -60 -61 71 -63 -64 -65 92 66 -68 68 -70 -71 94 -73 73 -75 -76 77 -78 131 97 80 95 -83 -84 -85 -86 86 87 -89 99 -91 91 -93 93 -95 103 100 -98 111 -100 -101 -102 102 133 108 124 -107 -108 -109 113 -111 -112 135 -114 119 -116 120 -118 132 -120 125 -122 -123 -124 -125 -126 -127 -128 -129 -130 130 -132 -133 -134 -135 -136 -137
leaf_value=0.48287556425775552 -0.23913022112934385 -0.24302925050056348 -0.054895626400750304 -0.096276960092226221 0.37247427033141139 0.7831237550941833 0.12654186634561215 0.70007283889695737 0.51220276219637295 -0.23662897586754691 0.26679880989202359 0.50307921736074535 0.13647928580313046 -0.24376735211198755 1.00649414550812 0.043075571859449997 0.49443299221904347 0.18601707913467072 0.052830471989154325 -0.24048473646537757 -0.23709995622025815 0.59516756951122507 0.22850509200577965 0.82500520509709463 0.085676306977292754 -0.24324497319028046 0.80435347079348229 0.40109768053370343 0.92938417440081578 0.14610929951941831 -0.18332109913950326 0.41190830423240699 -0.16536003638543822 -0.23858809141598519 -0.23810567441981079 -0.040745071811172928 0.25328807826472943 1.2339492108225292 -0.25090387145034343 -0.24092082688668764 -0.23950925079403942 0.52992459173730055 -0.2422259673342376 -0.24561465803190619 0.78343792196298512 0.14424715057191789 -0.24856126533409589 0.73053076829826868 0.005416502423400707 -0.23637280624407428 0.39813180092219375 0.88190811500501987 -0.23646842020231049 -0.23622959223188025 -0.035860071560448792 0.012271379852379454 0.83014016528154178 0.11870680699316061 -0.082405597394081348 0.17854430307270311 -0.062850250004521283 0.1193063104200186 -0.19415827286706552 0.15781116363369113 -0.24098919412073183 -0.1574625210455714 0.28590253082430128 0.027098894544770036 -0.22490800208912917 0.095643343489335675 -0.094570640866636288 0.21711472010719726 0.47933985211621843 -0.23595921799353409 -0.24302891024882434 0.11008585981282287 0.49857700095890589 -0.24056613843910934 -0.2619548560864528 0.32876285037545383 -0.23791511389388653 0.092924686774883691 -0.23902610994646156 -0.23958520987234852 -0.2194962558171272 0.15453755135360631 -0.24113487837165509 0.061230470257332928 -0.24050214096972997 0.18071794798265253 0.14437999520466674 -0.24142470848643299 0.17909277995520842 -0.23814219200447079 -0.25370725275919614 -0.2411049025391227 0.05031930078112077 -0.23718673674922852 -0.2649709282055876 -0.26007302354549355 -0.2593590145327716 -0.26087786265775603 -0.23751781383769177 -0.24804544126902858 -0.24174534571400352 -0.25056127691982211 -0.24282734348407467 -0.23826073700445669 -0.23940469045176938 -0.24690367582137834 -0.24646504279795073 -0.23540065926723722 -0.24949429133497664 -0.23596452746385602 -0.24575328689322368 -0.23384256277712959 -0.23749416573267826 -0.23507417943770173 -0.23715105350775056 -0.23778494755093854 -0.23976449495769667 -0.24181458261627001 -0.24114792596320717 -0.24219770276225072 -0.23619589589499934 -0.24179565844070416 -0.24078656974530313 -0.23724606635467466 -0.23448087064572282 -0.23564202851105817 -0.24006758281327142 -0.23740177857916225 -0.23830692548076643 -0.23374037051807831 -0.23672438890112873 -0.23722031375857131
leaf_weight=0.93036858551204105 1.3161089979112151 1.2144064791500624 1.2258317545056328 1.5663947332650452 1.1179429981857536 1.7831128109246481 1.8140724152326582 1.4276884086430075 0.89051796495914359 2.2642879076302056 2.0987410321831694 2.1344144307076922 2.3000427894294253 1.9613502714782951 1.6450363304466007 0.8137158099561933 1.8191905561834563 1.0768576823174951 1.5734722930937994 1.5421718228608363 0.9625145848840474 1.9093806035816667 0.97283372655510891 1.2771966550499199 8.3029058221727592 1.8256282657384866 2.3774585630744696 1.0696820244193075 0.97575747780501743 10.467338582500817 4.0965759139508 4.5610225833952418 12.468029497191308 2.9169923197478047 1.3510479182004922 82.364115562289953 0.9241506215184927 0.9314204081892965 1.039040993899105 0.89569956250489013 1.17806394957006 1.1593321543186892 2.3126345910131958 1.877784628421068 1.3362638931721442 1.7864763587713195 1.3291993774473696 1.6344598252326248 0.84696269407868374 1.1182933598756792 1.7861344777047632 1.4097030181437733 1.730265919119119 0.98597402125596989 10.78622627258301 1.7111059781163924 1.6846271622925995 8.1300952881574613 36.886097030714154 10.226341841742395 5.0703214798122653 2.5394344963133326 8.4792304802685958 1.7033453956246365 5.8374698814004642 5.3572642132639876 1.3012123126536641 10.244774660095574 12.422461038455365 14.254345266148446 1.5708826817572124 0.98101622052490789 0.95794360525906119 1.0654100719839332 1.4937571994960306 1.3076858613640068 0.92438015155494202 1.0390718728303912 1.0442573241889457 2.3130560778081417 0.89367448911070624 1.3657267466187475 1.3901481572538612 1.2080483194440605 10.627991348505018 1.1452320981770752 1.3521448560059068 1.5160682275891306 1.1926280613988618 1.0731310136616228 1.1873426809906962 1.367778969928622 1.0714374110102656 2.1712875086814165 1.7924603931605818 3.4569189418107271 0.73537383228540421 1.1886747218668463 0.89846283197403032 0.96606839448213566 1.6979071237146852 1.2902684900909664 0.88090383633971214 1.1928852256387452 1.0437641665339472 1.0279563143849371 1.6775344237685175 6.2808226849883795 1.6257514692842963 1.0183319132775066 1.910958085209131 3.1986507251858698 0.90288062393665303 2.3868915271013975 1.1692398004233835 2.734474685043097 2.4650548845529556 1.5023023467510936 1.6700527649372814 1.4180610347539189 0.58660485036671151 0.89960736595094148 1.0542326495051382 0.80162426270544518 1.898743202909827 1.2959341146051881 0.87798745371401299 5.557609723880887 0.72146004624664772 0.95538208074867759 1.0541033763438461 2.3712999019771814 0.91427382640540633 0.6632421091198919 1.3460403606295575 1.8051258567720663
leaf_count=15 41 31 34 43 30 46 50 32 12 78 28 52 40 50 36 27 42 29 51 43 30 50 28 25 205 43 44 29 26 260 124 134 391 93 45 2612 30 28 26 31 31 21 63 44 32 51 35 41 25 36 48 31 59 34 294 48 32 195 1026 267 144 75 240 43 156 154 33 334 407 419 46 25 32 39 42 38 22 29 15 49 32 39 40 33 315 24 34 44 32 25 35 38 25 72 37 106 23 39 20 14 33 24 30 28 25 24 44 187 44 23 44 125 19 86 26 130 80 61 54 44 20 22 28 24 69 30 22 179 32 37 29 73 28 32 47 58
internal_value=-0.0250733 -0.0231527 0.00222347 -0.0783349 0.0253746 0.162594 0.357467 0.193605 -0.0423313 0.0202442 0.00943232 0.0422283 0.0303548 0.227163 0.421258 0.687654 -0.0513828 0.197449 -0.0443241 -0.0758596 0.20521 0.341 0.013044 0.243861 0.0129807 0.105358 0.359828 -0.00519043 -0.0189895 0.0291718 0.211202 0.130259 -0.0325914 0.062268 -0.0463109 -0.0402856 0.331099 0.74554 -0.0453758 -0.0385899 0.0115213 0.0650148 0.0142416 -0.0940092 -0.0509315 0.0341594 -0.0396831 0.291409 0.481612 -0.152903 0.0602635 -0.0381602 0.0850312 0.421723 -0.0300081 0.011293 0.418017 -0.00962403 -0.0460839 0.0684857 -0.0510967 -0.117191 -0.135268 -0.126059 -0.117838 -0.00709111 -0.0708193 -0.0377991 -0.11101 -0.0206234 -0.166637 -0.146198 -0.089121 0.102694 -0.0570539 -0.049785 0.124486 -0.141787 -0.19343 -0.147742 -0.0757416 -0.141562 -0.0320595 -0.0390023 -0.168902 -0.166407 -0.0975531 -0.152182 -0.201319 -0.0676536 -0.18542 -0.0621446 -0.19795 -0.100282 -0.226254 -0.213663 -0.107802 -0.241035 -0.242435 -0.241341 -0.247117 -0.240631 -0.247268 -0.242725 -0.240306 -0.241937 -0.248447 -0.239953 -0.24054 -0.239012 -0.241763 -0.237956 -0.2425 -0.239406 -0.242061 -0.23617 -0.239321 -0.238033 -0.240135 -0.237952 -0.234889 -0.238799 -0.238065 -0.238815 -0.238083 -0.2397 -0.237922 -0.237821 -0.237484 -0.239256 -0.237964 -0.238366 -0.236297 -0.235895 -0.238024 -0.236057
internal_weight=440.526 436.659 187.96 41.9584 146.002 15.197 6.41502 4.63191 248.699 8.78197 130.805 84.9781 82.8437 6.72015 4.75879 2.45875 45.8265 4.1041 247.809 41.7224 4.09773 3.13521 20.62 3.74379 76.1236 19.5717 5.27277 2.89531 56.5518 38.0252 9.63336 8.6576 28.3918 13.3843 246.878 237.165 3.20662 1.85557 233.959 221.538 14.299 11.7749 10.6155 39.6236 28.2737 15.4126 13.2294 2.96366 2.18323 12.8611 3.80404 16.8762 7.02728 2.39568 205.39 69.4245 3.39573 66.0288 45.0162 21.0126 135.965 15.0075 10.2657 9.84889 18.5267 7.77642 6.65848 119.286 22.6672 96.6185 21.3385 16.6793 4.63161 2.02335 2.46659 7.20883 2.49077 4.71806 9.71306 16.1481 9.09693 4.68425 3.20422 2.28491 15.6983 12.4211 6.43002 5.28479 11.3499 2.6153 8.14554 2.55512 10.7502 3.24272 14.1296 6.78387 1.62905 8.13959 9.05707 8.73464 5.15483 7.05119 2.83441 12.5588 5.99103 3.86715 3.46999 8.15861 9.08876 7.76857 5.59042 7.09533 2.09156 7.89588 2.79499 4.21678 3.67946 3.76872 7.50752 5.10089 3.32108 2.0179 3.31852 2.83919 4.95199 2.714 2.60825 6.75024 2.03757 3.05325 2.00949 3.41037 2.41658 1.54415 2.5241 5.00378
internal_count=12707 12586 5144 1173 3971 427 168 122 7442 259 3544 2315 2263 153 103 63 1229 104 7430 1125 114 84 583 95 2110 483 116 72 1627 1103 284 258 819 353 7415 7108 103 58 7005 6628 367 289 268 1097 781 424 367 76 57 357 106 488 217 65 6118 1862 80 1782 1221 561 4256 466 291 271 524 217 187 3772 741 3031 590 484 152 71 70 205 65 140 307 510 243 145 90 62 459 377 191 167 316 68 228 73 307 97 385 194 55 256 251 248 139 267 86 339 186 121 81 231 258 234 155 241 58 230 70 181 111 123 210 160 150 58 106 97 160 74 81 211 73 91 66 102 89 62 78 183
is_linear=0
shrinkage=0.228736


Tree=3
num_leaves=107
num_cat=0
split_feature=0 7 2 7 4 0 2 2 2 8 8 4 9 6 2 6 8 0 0 2 4 9 2 0 7 2 7 5 3 9 6 4 7 9 7 3 6 3 4 3 2 7 6 6 3 3 6 3 2 2 4 3 3 3 2 2 8 0 6 6 9 0 9 6 8 7 5 2 7 7 3 9 8 0 9 9 9 7 4 2 0 7 6 6 4 4 7 2 4 4 7 2 6 6 7 2 8 6 6 6 9 9 0 7 0 2
split_gain=3.69345 2.51216 5.59144 2.84712 9.89527 11.2331 6.45884 5.93661 5.256 5.12209 3.69781 13.0843 11.0605 4.2433 8.64475 5.18578 3.8455 3.41439 3.51902 3.909 3.89421 5.21547 5.97847 3.94229 3.20028 3.2498 3.10945 4.28347 6.22497 7.33913 10.7147 4.96789 3.96653 7.42704 5.34915 3.78133 4.17395 3.0726 3.02906 2.98074 2.95326 2.95097 2.94946 2.70149 2.68286 4.51099 3.08697 2.63397 2.37865 3.99439 2.13299 2.04121 4.55796 4.31686 1.9517 1.55386 3.17278 1.14414 0.885468 0.841964 0.789814 0.773312 0.696304 0.606004 0.572869 0.289634 0.00661908 0.00460877 0.00405278 0.00870968 0.00257126 0.00227844 0.00218089 0.00183238 0.00158688 0.000952259 0.000950423 0.00080659 0.000943948 0.000764745 0.000679231 0.000678394 0.000585953 0.000551812 0.000506837 0.000393592 0.000369444 0.00032156 0.000416867 0.000338228 0.000306122 0.0002334 0.000210073 0.000206203 0.000134318 0.000124626 0.000112942 9.79574e-05 5.8158e-05 6.38286e-05 5.00075e-05 2.99685e-05 1.9539e-05 8.26863e-06 6.19465e-06 6.00765e-06
threshold=0.028999999999942006 -0.71488429634393669 2.5884358211089586 -0.5612906736158062 2.999400000000064 0.9599999999155201 1.2247448713915881 2.1794192844442764 2.5099800796022307 3.4850000000000003 1.0300000000000002 12.128600000000068 -2.6758384398111561 1.435000000000074 2.3874672772626666 1.326666666666662 1.0750000000000004 1.8029999998305302 1.6599999998173283 1.7320508075688783 6.405200000000046 -1.8920580553005806 0.89442719099991486 0.18999999998194803 -0.54158636476377542 3.1144823004794913 -0.49245868323522285 24.500000000000004 4.4327000000000245 -1.3152950374077845 2.785000000000001 19.927400000000066 -0.46752539285333933 -0.82228264232376647 -0.46536607227764798 2.702700000000037 1.3833333333333351 3.2660000000000187 4.9934000000000571 3.3877000000000366 3.8663878202298751 0.27730374387329909 2.6500000000000736 1.9483333333334094 4.8135000000000199 4.4139000000000363 2.995000000000076 3.6456000000000235 2.1446343412137661 2.4999799995999878 3.4040000000000004 5.5270000000000046 6.9213000000000209 6.1038000000000077 1.7888543819998326 0.89442719099991486 3.6350000000000002 1.8609999997934421 15.774999999999995 5.9866666666666672 -1.4705238804671461 2.732999999737578 -2.1731181486920081 1.7016666666666673 1.655 -0.4859101841922388 18.500000000000004 0.4472135954999506 -0.18902486732719903 0.031269622275891987 4.4512000000000187 -1.5528436475793683 2.5750000000000006 1.8029999998305302 -1.275198667923142 -1.4065613299232214 -1.4065613299232214 -0.67868355974972283 6.6560000000000388 1.2247448713915918 0.40899999996238207 -0.80874201519621769 1.9250000000000755 2.5933333333334088 3.1098000000000563 3.5200000000000027 -0.26071949539544798 0.83666002653407179 3.6482000000000325 15.375400000000033 -0.24210838583115049 0.44721359549996159 2.4166666666666692 2.8100000000000054 -0.22431057508218974 0.89442719099991741 1.3350000000000002 1.9466666666666661 2.2083333333333335 21.641666666666744 -1.7482979712827251 -1.5237544403243235 1.8329999997892263 -0.015115712194409847 0.76799999991398404 1.2247448713915943
decision_type=2 2 2 2 2 2 2 2 2 2 2 2 2 2 2 2 2 2 2 2 2 2 2 2 2 2 2 2 2 2 2 2 2 2 2 2 2 2 2 2 2 2 2 2 2 2 2 2 2 2 2 2 2 2 2 2 2 2 2 2 2 2 2 2 2 2 2 2 2 2 2 2 2 2 2 2 2 2 2 2 2 2 2 2 2 2 2 2 2 2 2 2 2 2 2 2 2 2 2 2 2 2 2 2 2 2
left_child=67 2 44 4 5 6 -3 9 17 37 11 13 -13 14 15 -5 39 18 19 20 21 22 -6 -23 54 26 27 28 38 31 -31 -30 33 62 -34 -36 -37 -7 60 -12 61 64 -25 -21 45 55 -47 50 58 -50 -15 63 53 -53 75 72 57 -57 68 71 -26 66 -28 -49 -42 -64 82 -1 87 -70 -19 86 96 -74 93 97 91 -22 -79 -39 -71 -78 90 -77 -59 -84 -54 -41 -89 -90 -27 -46 -72 101 -95 -80 -2 -18 103 -100 105 -65 -102 -69 -99 -93
right_child=1 3 -4 10 8 7 -8 -9 -10 -11 16 12 -14 47 -16 -17 24 70 -20 43 77 23 -24 42 25 40 32 -29 29 30 -32 -33 34 -35 35 36 -38 79 -40 48 41 -43 -44 -45 76 46 -48 51 49 -51 -52 52 59 -55 -56 56 -58 84 -60 -61 -62 -63 65 74 -66 -67 -68 98 69 80 92 -73 73 -75 -76 83 81 78 95 -81 -82 -83 85 -85 -86 -87 -88 88 89 -91 -92 100 -94 94 -96 -97 -98 104 99 -101 102 -103 -104 -105 -106 -107
leaf_value=-0.25197901486656632 -0.23986977065318843 0.28493045719164356 0.42662180421522838 0.14095884854583229 0.78028825257133338 0.1262617858249542 1.0128568860729847 0.49734065064639155 0.51683309717471559 0.37961919855230991 0.13046191577696173 0.057594049656047565 0.9347608890282294 -0.045170069565165394 -0.24286847975458589 0.73808729091359238 -0.23785564306620816 -0.25119244067249474 0.38660526553341462 0.027993902172310656 -0.24536925337056517 0.36314578902791617 -0.023794141737570003 -0.16849387469578678 -0.018777054151647425 -0.23509468979280235 -0.033321924923313061 0.47301634852461971 -0.019035375438987284 0.045709966485830103 0.92052578420396491 0.56302664871986674 0.42997695595102547 0.44997914624260388 0.326431808817507 -0.093313866383640962 -0.014152246770678362 -0.23711984819945431 0.24347816181042684 -0.24440565907374973 -0.24229026938299689 0.23304097844483002 0.016413750232372022 0.4735595770263063 -0.2391924051283307 -0.021167447195189912 0.44938016664976205 -0.064122021329841988 0.31855234210053918 -0.24098889969600348 0.41477048857515941 -0.064504003253827574 -0.23546830294123122 0.55103139582920568 0.047238552523644187 -0.018922294926735146 0.23568830890555084 -0.23978253349784492 -0.020091587760112044 0.0097444997948455958 -0.24058004670172312 -0.029842179827220261 -0.15151052098774301 -0.234594375583006 -0.0090548083865720844 -0.24252689058548066 -0.25497956758347656 -0.23363957365310412 -0.265492860246 -0.24523559753522345 -0.24046790835624343 -0.25291055091361758 -0.24245450594260512 -0.2548422317791057 -0.24610337510681168 -0.23888174544218699 -0.24427913227825743 -0.24442896266309816 -0.23451349737654878 -0.24409431429465395 -0.23710545594979607 -0.23733010447675978 -0.24524048587581329 -0.24464948988888752 -0.24599040503293956 -0.23878988948993027 -0.24197537814753214 -0.24433164592160955 -0.23824741375684416 -0.24292262640764695 -0.23926077165378409 -0.2342742757508807 -0.23590759597864772 -0.23752686592020489 -0.24174684196933677 -0.23729306810700615 -0.23614036748612907 -0.23519985201016971 -0.23747614133801248 -0.23449405034292473 -0.23479285065990088 -0.23668854467321188 -0.23624351278933553 -0.23467551922641386 -0.23425301107210866 -0.23341010172535959
leaf_weight=1.1364656947553147 0.89638619124889884 1.2977846078574651 0.9999721571803083 1.718468520790345 0.88429060019553318 1.8705372754484395 1.2539482135325668 1.5386722534894941 0.90410837158560653 1.4422653000801799 1.8285255227237964 1.4753724224865439 1.5341804083436716 1.1588654536753886 1.6533977873623369 1.3656266890466211 0.8697756603360175 1.4468722026795142 1.0949530564248551 1.6444377843290561 0.84533795155584801 1.1264071427285767 1.0681865904480217 9.2134699821472186 1.0215774774551389 1.7437753025442349 1.1313868854194868 1.2647972907870997 8.2911275550723076 1.585254982113834 1.3617377057671545 0.8454126641154297 1.3640475925058115 0.98585230484604736 1.6004488542675961 41.102412866428494 229.03661527112126 1.5753127895295622 0.93162511847913254 1.4172138217836607 1.4476660862565034 1.8519067671149967 8.8474032711237651 1.2555109467357395 0.7684482242912053 1.6850913483649486 1.2862297091633079 1.281730355694888 1.2255741842091077 1.4659008737653492 0.96834336966276158 1.2529409639537337 0.92443450726568743 1.1371254101395605 1.5785996988415716 2.0240270160138607 1.4238284863531587 1.8735106885433199 1.0065973512828339 0.92406490817666043 4.7246198654174867 1.0130816400051115 2.3566529359668467 0.73448315076530202 0.889528153464198 8.1742394994944334 1.780447009950876 0.97695814631879307 1.3384764343500131 1.553478052839637 1.6739389225840571 0.86892759241163742 1.2363430187106135 1.262906616553664 1.8544942121952748 1.6631851661950348 1.4932774323970082 0.85284115932881732 1.6773680541664364 1.721355654299259 0.8221818022429942 1.4475281853228796 1.0398615188896654 1.8148423749953506 1.0875197872519491 0.94432330317795266 0.90185945853590965 1.180030971765518 3.1061260066926479 1.0950230155140159 1.9600453954190011 1.0175515748560426 0.77235584333538998 0.89242634363472462 0.70745477825403191 1.6985895149409769 0.80767306871712208 0.84829199500381924 0.77438136376440503 0.72909117862582207 0.87193138897418987 0.69662451930344127 1.0968815907835958 0.68629106320440814 0.63001222535967827 0.71779219806194317
leaf_count=24 26 35 20 39 18 50 22 37 24 31 49 36 38 34 41 21 29 29 32 37 16 29 38 265 27 71 47 32 288 47 31 26 42 23 42 1170 6712 53 23 33 42 38 270 27 31 36 26 33 36 42 24 36 36 29 45 51 39 53 26 30 143 15 71 31 24 249 31 49 23 35 49 19 32 24 51 50 34 27 74 43 28 46 24 47 23 30 24 33 102 29 64 48 30 33 21 57 30 34 28 33 38 24 39 29 28 37
internal_value=-0.0286202 -0.0265181 -0.101822 -0.0224745 0.0313353 0.223841 0.642641 0.0926864 -0.0275056 -0.00151632 -0.0292322 0.0615544 0.504748 -0.00849415 0.17913 0.405365 -0.0350876 -0.041937 -0.0159543 -0.0310943 -0.0589713 -0.0157788 0.34038 -0.0520211 -0.0297056 -0.026249 -0.0215453 0.0655848 0.0381177 0.136065 0.449942 0.0348234 -0.0276516 -0.152878 -0.021852 -0.0241201 -0.0261969 -0.107898 -0.139117 -0.144429 -0.139762 0.0173689 -0.077914 0.220898 -0.126989 -0.0665863 0.182524 -0.0706363 -0.179801 0.0138005 0.164203 -0.111662 -0.0167884 0.22835 -0.178362 -0.136335 -0.0654519 -0.151463 -0.225036 -0.17867 -0.201147 -0.217371 -0.203839 -0.204107 -0.153522 -0.222159 -0.242808 -0.239483 -0.24466 -0.250736 -0.243549 -0.243269 -0.244412 -0.248714 -0.240833 -0.239489 -0.237665 -0.238919 -0.23763 -0.240762 -0.242422 -0.240859 -0.238999 -0.241891 -0.242063 -0.24217 -0.238682 -0.24134 -0.240533 -0.239466 -0.237299 -0.235565 -0.239028 -0.237609 -0.239393 -0.235912 -0.238102 -0.23593 -0.234999 -0.23603 -0.234812 -0.235614 -0.235601 -0.234067 -0.234796 -0.233917
internal_weight=435.949 431.646 21.9969 409.649 45.7059 10.6999 2.55173 8.14814 35.0061 6.60947 363.943 22.0508 3.00955 19.0413 4.73749 3.0841 341.892 34.102 30.2088 29.1138 26.2139 21.1398 1.95248 19.1873 325.853 318.448 305.778 20.0262 18.7614 12.0835 2.94699 9.13654 285.752 12.6481 273.104 271.739 270.139 5.16721 6.67782 16.0391 12.6706 4.1891 18.0609 2.89995 20.9969 13.5835 2.97132 14.3038 14.2106 2.69148 2.12721 12.1766 6.00935 2.39007 7.40471 10.6122 6.40889 4.98506 11.5191 3.61929 5.7462 8.48153 11.6623 6.16721 2.33719 10.5309 7.46845 4.30319 10.5125 3.71414 3.89317 2.69522 4.20331 2.49925 4.88548 5.82611 7.41341 5.07414 4.2288 3.29667 2.37566 2.94081 5.68801 3.47803 2.96103 1.98418 1.82629 6.79839 5.38118 4.20115 3.70382 4.4726 2.44629 3.03099 1.59988 3.37596 1.70406 2.34808 3.16672 1.50347 3.70416 1.43111 1.96881 1.66325 1.4783 1.73534
internal_count=12670 12507 633 11874 1293 271 57 214 1022 177 10581 600 74 526 101 60 9981 998 890 858 794 620 56 564 9545 9312 8973 617 585 392 78 314 8356 390 7966 7924 7882 146 193 436 339 104 535 64 613 340 62 425 387 78 58 367 174 65 233 278 166 127 309 109 170 235 367 193 66 320 220 163 283 86 108 79 112 56 160 188 273 174 158 96 63 80 189 97 76 54 60 197 164 131 135 193 79 109 54 131 56 91 139 61 162 55 77 78 62 85
is_linear=0
shrinkage=0.228736


end of trees

feature_importances:
rel_str_15=68
virtual_pool_score=66
lag_7=64
rol_mean_25=59
last_recovery_score=57
rol_mean_50=54
lag_5=51
gap_std_2x=49
macro_cycle_10x=27
games_since_10x=19

parameters:
[boosting: gbdt]
[objective: binary]
[metric: binary_logloss]
[tree_learner: serial]
[device_type: cpu]
[data_sample_strategy: bagging]
[data: ]
[valid: ]
[num_iterations: 100]
[learning_rate: 0.228736]
[num_leaves: 137]
[num_threads: 0]
[seed: 42]
[deterministic: 1]
[force_col_wise: 0]
[force_row_wise: 0]
[histogram_pool_size: -1]
[max_depth: 12]
[min_data_in_leaf: 27]
[min_sum_hessian_in_leaf: 0.001]
[bagging_fraction: 0.958371]
[pos_bagging_fraction: 1]
[neg_bagging_fraction: 1]
[bagging_freq: 3]
[bagging_seed: 42]
[bagging_by_query: 0]
[feature_fraction: 0.857013]
[feature_fraction_bynode: 1]
[feature_fraction_seed: 42]
[extra_trees: 0]
[extra_seed: 12879]
[early_stopping_round: 0]
[early_stopping_min_delta: 0]
[first_metric_only: 0]
[max_delta_step: 0]
[lambda_l1: 0]
[lambda_l2: 0]
[linear_lambda: 0]
[min_gain_to_split: 0]
[drop_rate: 0.1]
[max_drop: 50]
[skip_drop: 0.5]
[xgboost_dart_mode: 0]
[uniform_drop: 0]
[drop_seed: 17869]
[top_rate: 0.2]
[other_rate: 0.1]
[min_data_per_group: 100]
[max_cat_threshold: 32]
[cat_l2: 10]
[cat_smooth: 10]
[max_cat_to_onehot: 4]
[top_k: 20]
[monotone_constraints: ]
[monotone_constraints_method: basic]
[monotone_penalty: 0]
[feature_contri: ]
[forcedsplits_filename: ]
[refit_decay_rate: 0.9]
[cegb_tradeoff: 1]
[cegb_penalty_split: 0]
[cegb_penalty_feature_lazy: ]
[cegb_penalty_feature_coupled: ]
[path_smooth: 0]
[interaction_constraints: ]
[verbosity: -1]
[saved_feature_importance_type: 0]
[use_quantized_grad: 0]
[num_grad_quant_bins: 4]
[quant_train_renew_leaf: 0]
[stochastic_rounding: 1]
[linear_tree: 0]
[max_bin: 255]
[max_bin_by_feature: ]
[min_data_in_bin: 3]
[bin_construct_sample_cnt: 200000]
[data_random_seed: 175]
[is_enable_sparse: 1]
[enable_bundle: 1]
[use_missing: 1]
[zero_as_missing: 0]
[feature_pre_filter: 1]
[pre_partition: 0]
[two_round: 0]
[header: 0]
[label_column: ]
[weight_column: ]
[group_column: ]
[ignore_column: ]
[categorical_feature: ]
[forcedbins_filename: ]
[precise_float_parser: 0]
[parser_config_file: ]
[objective_seed: 16083]
[num_class: 1]
[is_unbalance: 0]
[scale_pos_weight: 1]
[sigmoid: 1]
[boost_from_average: 1]
[reg_sqrt: 0]
[alpha: 0.9]
[fair_c: 1]
[poisson_max_delta_step: 0.7]
[tweedie_variance_power: 1.5]
[lambdarank_truncation_level: 30]
[lambdarank_norm: 1]
[label_gain: ]
[lambdarank_position_bias_regularization: 0]
[eval_at: ]
[multi_error_top_k: 1]
[auc_mu_weights: ]
[num_machines: 1]
[local_listen_port: 12400]
[time_out: 120]
[machine_list_filename: ]
[machines: ]
[gpu_platform_id: -1]
[gpu_device_id: -1]
[gpu_use_dp: 0]
[num_gpu: 1]

end of parameters

pandas_categorical:[]
