tree
version=v4
num_class=1
num_tree_per_iteration=1
label_index=0
max_feature_idx=50
objective=binary sigmoid:1
feature_names=lag_1 lag_2 lag_3 lag_4 lag_5 lag_6 lag_7 lag_8 lag_9 lag_10 rol_mean_25 rol_std_25 rol_max_25 rel_str_25 rol_mean_50 rol_std_50 rol_max_50 rel_str_50 rol_mean_100 rol_std_100 rol_max_100 rel_str_100 rol_mean_150 rol_std_150 rol_max_150 rel_str_150 rol_mean_200 rol_std_200 rol_max_200 rel_str_200 rol_mean_300 rol_std_300 rol_max_300 rel_str_300 streak_under_2 streak_over_2 vol_squeeze rtp_gap games_since_10x games_since_20x games_since_50x games_since_100x games_since_1000x trend_acceleration bait_density_150 high_x_density_150 session_sentiment last_recovery_score fib_dist_10x pain_density_20 zigzag_density_5
feature_infos=[1:10938.01] [1:10938.01] [1:10938.01] [1:10938.01] [1:10938.01] [1:10938.01] [1:10938.01] [1:10938.01] [1:10938.01] [1:10938.01] [1.5984000000000091:443.56520000000006] [0.74396281266569808:2186.7905755625065] [3.8199999999999998:10938.01] [-1.3757314319576246:4.7999756681451462] [2.3118000000000363:224.94220000000004] [1.4801857156269751:1546.3594854432808] [6.7800000000000002:10938.01] [-0.90458258801565372:6.9295992379773219] [2.5838000000000001:114.31819999999999] [1.9084986853945802:1093.4715913266998] [9.9700000000000006:10938.01] [-0.79404709085181091:9.8999070638365527] [2.8124666666666696:77.830933333333334] [2.7573501372292721:892.78975942060606] [20.66:10938.01] [-0.62830854980906881:12.165099284023022] [2.9528999999999912:67.159199999999998] [3.3859685012558023:778.63624699820355] [27.890000000000001:10938.01] [-0.56820756200136546:13.995915200629064] [3.9855666666666667:46.569833333333335] [6.2829296786114206:635.93360449909449] [55.380000000000003:10938.01] [-0.47832371961772202:17.127447443759507] [0:13] [0:9] [0.00088508726387528448:3.1633443117497615] [-104.67267888641945:6.827720550361617] [1:116] [1:124] [1:227] [1:418] [1:2363] [-1093.681:1093.876] [0.0066666666666666671:0.11333333333333333] [0.10666666666666667:0.30666666666666664] [0.29883233546780857:8.0622798640834912] [1.0233333333333334:3647.3933333333334] [0:27] [0:10] [0:5]
tree_sizes=4527

Tree=0
num_leaves=43
num_cat=0
split_feature=38 36 18 47 5 0 15 29 4 25 30 7 40 19 41 36 50 4 6 43 17 1 6 43 2 15 0 6 31 4 39 3 6 6 9 43 32 2 42 26 17 9
split_gain=14.2257 23.0866 37.4599 17.1336 16.0464 11.0682 12.1188 11.0279 10.704 14.926 17.0872 10.2966 9.74698 9.43862 14.4989 13.6834 13.5633 12.6495 15.5137 12.1084 9.16077 7.63704 7.56022 8.37466 7.2868 8.7399 7.25294 6.7584 6.70226 9.24544 8.3394 8.32547 9.19778 10.2469 6.90857 7.26961 6.66856 5.7344 5.11631 4.97226 4.48902 3.82191
threshold=19.500000000000004 0.21152675108110111 8.2656000000000009 1.3600000000000014 1.4800000000000002 1.6100000000000003 5.9558256817370063 -0.20363970543933682 1.175 -0.34152367484127333 5.6993500000000008 1.0150000000000003 15.500000000000002 8.9501386707045345 92.500000000000014 0.73533013344609177 3.5000000000000004 1.3900000000000001 3.0650000000000004 1.5194999999999994 -0.24063732985974187 1.9650000000000001 7.4350000000000014 0.45799999999999935 2.7700000000000005 3.9172792581363924 7.4350000000000014 2.6900000000000004 25.737144822240943 2.8100000000000005 32.500000000000007 4.8450000000000006 1.2950000000000002 1.6100000000000003 1.7800000000000002 0.17199999999999951 439.57000000000011 1.3500000000000003 417.50000000000006 5.5500500000000015 -0.15263039513747642 2.5450000000000004
decision_type=2 2 2 2 2 2 2 2 2 2 2 2 2 2 2 2 2 2 2 2 2 2 2 2 2 2 2 2 2 2 2 2 2 2 2 2 2 2 2 2 2 2
left_child=5 2 3 -2 -5 8 22 -6 9 -1 -11 -8 -12 15 17 16 -13 26 -19 39 -4 -14 23 24 25 -7 -15 -17 41 30 34 32 -31 -34 -30 -36 38 -27 -3 -16 -22 -10
right_child=1 36 20 4 7 6 11 -9 28 10 12 13 21 14 19 27 -18 18 -20 -21 40 -23 -24 -25 -26 37 -28 -29 29 31 -32 -33 33 -35 35 -37 -38 -39 -40 -41 -42 -43
leaf_value=-2.4333701376891606 -2.1614362643165128 -2.4896711466690049 -2.0132416000916669 -1.508931193041088 -2.1205222630485827 -1.9520218717263476 -1.9301798699318022 -1.7014570209511848 -2.3473950144403002 -1.7567702929313826 -1.9380158822110347 -2.0994618459702381 -2.3867761992230827 -2.281874943609691 -2.2332376448311204 -2.2696561438353275 -1.6825361900645159 -2.162743973011144 -1.9983015623089866 -2.024957080745208 -2.4248025928444017 -2.0838534739422871 -2.0664153344801046 -2.4231145635627205 -2.3743492732030438 -2.3718835094611728 -2.108263559519834 -2.0113274596875796 -2.3927445836456998 -2.287057021760059 -2.0827683999510391 -2.3169159454308512 -1.7682758008393515 -2.1038829664034226 -2.2877004965513539 -2.0135083579564919 -2.1077251017497414 -2.1367304129566476 -2.2352255014345146 -2.3916069479294637 -2.1862182508115389 -2.242154268481118
leaf_weight=9.6022904515266401 9.0587645769119245 11.414043366909029 10.77992984652519 12.954033344984056 8.7870016396045703 10.055228680372236 14.49402332305908 9.6022904515266401 70.296013116836548 10.326991617679594 10.77992984652519 11.776393949985504 13.135208636522295 65.041929662227631 23.190437316894531 19.657519131898884 11.05169278383255 136.42499452829361 60.512547373771667 11.051692783832548 12.501095116138456 11.323455721139906 12.772858053445814 24.368076711893082 18.751642674207687 13.76932215690613 24.096313774585724 11.866981595754622 39.043275326490402 14.675198614597319 13.950497448444365 17.21165269613266 8.2434757649898511 34.332717746496201 41.489141762256622 8.5152387022972089 11.323455721139906 16.849302113056183 11.685806304216383 38.590337097644806 10.689342200756075 39.31503826379776
leaf_count=106 100 126 119 143 97 111 160 106 776 114 119 130 145 718 256 217 122 1506 668 122 138 125 141 269 207 152 266 131 431 162 154 190 91 379 458 94 125 186 129 426 118 434
internal_value=-2.18676 -2.09463 -2.00991 -1.834 -1.73937 -2.19833 -2.17364 -1.9017 -2.23614 -2.12709 -2.06254 -2.15412 -2.15215 -2.16197 -2.17787 -2.057 -1.89762 -2.15046 -2.11222 -2.28554 -2.21913 -2.24653 -2.26014 -2.28967 -2.23494 -2.17067 -2.23494 -2.17241 -2.25709 -2.22463 -2.27709 -2.15207 -2.10251 -2.0389 -2.30754 -2.24101 -2.27765 -2.24248 -2.36095 -2.33216 -2.31483 -2.30965
internal_weight=975.357 108.796 74.3725 40.4021 31.3433 866.561 524.321 18.3893 342.24 55.1679 45.5656 427.755 35.2386 413.261 358.908 54.3526 22.8281 286.076 196.938 72.8325 33.9704 24.4587 96.5664 83.7936 59.4255 40.6739 89.1382 31.5245 287.072 177.461 102.998 74.463 57.2514 42.5762 89.0477 50.0044 34.4233 30.6186 23.0998 61.7808 23.1904 109.611
internal_count=10767 1201 821 446 346 9566 5788 203 3778 609 503 4722 389 4562 3962 600 252 3158 2174 804 375 270 1066 925 656 449 984 348 3169 1959 1137 822 632 470 983 552 380 338 255 682 256 1210
is_linear=0
shrinkage=1


end of trees

feature_importances:
lag_7=5
lag_5=3
trend_acceleration=3
lag_1=2
lag_3=2
lag_10=2
rol_std_50=2
rel_str_50=2
vol_squeeze=2
lag_2=1
lag_4=1
lag_6=1
lag_8=1
rol_mean_100=1
rol_std_100=1
rel_str_150=1
rol_mean_200=1
rel_str_200=1
rol_mean_300=1
rol_std_300=1
rol_max_300=1
games_since_10x=1
games_since_20x=1
games_since_50x=1
games_since_100x=1
games_since_1000x=1
last_recovery_score=1
zigzag_density_5=1

parameters:
[boosting: gbdt]
[objective: binary]
[metric: binary_logloss]
[tree_learner: serial]
[device_type: cpu]
[data_sample_strategy: bagging]
[data: ]
[valid: ]
[num_iterations: 100]
[learning_rate: 0.270309]
[num_leaves: 43]
[num_threads: 0]
[seed: 0]
[deterministic: 0]
[force_col_wise: 0]
[force_row_wise: 0]
[histogram_pool_size: -1]
[max_depth: 8]
[min_data_in_leaf: 91]
[min_sum_hessian_in_leaf: 0.001]
[bagging_fraction: 0.908502]
[pos_bagging_fraction: 1]
[neg_bagging_fraction: 1]
[bagging_freq: 2]
[bagging_seed: 3]
[bagging_by_query: 0]
[feature_fraction: 0.880525]
[feature_fraction_bynode: 1]
[feature_fraction_seed: 2]
[extra_trees: 0]
[extra_seed: 6]
[early_stopping_round: 0]
[early_stopping_min_delta: 0]
[first_metric_only: 0]
[max_delta_step: 0]
[lambda_l1: 0]
[lambda_l2: 0]
[linear_lambda: 0]
[min_gain_to_split: 0]
[drop_rate: 0.1]
[max_drop: 50]
[skip_drop: 0.5]
[xgboost_dart_mode: 0]
[uniform_drop: 0]
[drop_seed: 4]
[top_rate: 0.2]
[other_rate: 0.1]
[min_data_per_group: 100]
[max_cat_threshold: 32]
[cat_l2: 10]
[cat_smooth: 10]
[max_cat_to_onehot: 4]
[top_k: 20]
[monotone_constraints: ]
[monotone_constraints_method: basic]
[monotone_penalty: 0]
[feature_contri: ]
[forcedsplits_filename: ]
[refit_decay_rate: 0.9]
[cegb_tradeoff: 1]
[cegb_penalty_split: 0]
[cegb_penalty_feature_lazy: ]
[cegb_penalty_feature_coupled: ]
[path_smooth: 0]
[interaction_constraints: ]
[verbosity: -1]
[saved_feature_importance_type: 0]
[use_quantized_grad: 0]
[num_grad_quant_bins: 4]
[quant_train_renew_leaf: 0]
[stochastic_rounding: 1]
[linear_tree: 0]
[max_bin: 255]
[max_bin_by_feature: ]
[min_data_in_bin: 3]
[bin_construct_sample_cnt: 200000]
[data_random_seed: 1]
[is_enable_sparse: 1]
[enable_bundle: 1]
[use_missing: 1]
[zero_as_missing: 0]
[feature_pre_filter: 1]
[pre_partition: 0]
[two_round: 0]
[header: 0]
[label_column: ]
[weight_column: ]
[group_column: ]
[ignore_column: ]
[categorical_feature: ]
[forcedbins_filename: ]
[precise_float_parser: 0]
[parser_config_file: ]
[objective_seed: 5]
[num_class: 1]
[is_unbalance: 0]
[scale_pos_weight: 1]
[sigmoid: 1]
[boost_from_average: 1]
[reg_sqrt: 0]
[alpha: 0.9]
[fair_c: 1]
[poisson_max_delta_step: 0.7]
[tweedie_variance_power: 1.5]
[lambdarank_truncation_level: 30]
[lambdarank_norm: 1]
[label_gain: ]
[lambdarank_position_bias_regularization: 0]
[eval_at: ]
[multi_error_top_k: 1]
[auc_mu_weights: ]
[num_machines: 1]
[local_listen_port: 12400]
[time_out: 120]
[machine_list_filename: ]
[machines: ]
[gpu_platform_id: -1]
[gpu_device_id: -1]
[gpu_use_dp: 0]
[num_gpu: 1]

end of parameters

pandas_categorical:[]
