tree
version=v4
num_class=1
num_tree_per_iteration=1
label_index=0
max_feature_idx=9
objective=binary sigmoid:1
feature_names=lag_7 lag_3 lag_14 last_recovery_score rol_mean_15 rel_str_25 vol_squeeze macro_cycle_10x lag_5 lag_13
feature_infos=[1:10938.01] [1:10938.01] [1:10938.01] [1.0233333333333334:3647.3933333333334] [1.4060000000000152:735.71333333333337] [-1.3757314319576246:4.7999756681451462] [0.00088508726387528448:3.1633443117497615] [0.0019999999999960002:10.439999999060401] [1:10938.01] [1:10938.01]
tree_sizes=6830

Tree=0
num_leaves=66
num_cat=0
split_feature=8 2 6 1 7 9 9 9 7 7 2 2 4 4 4 6 0 0 7 0 6 4 8 0 7 1 6 9 2 8 2 3 3 1 9 6 6 2 9 4 0 8 4 3 0 5 7 5 2 2 0 6 7 1 8 8 7 0 4 8 1 8 4 0 3
split_gain=401.369 440.821 888.224 1232.89 333.699 828.578 860.83 2017.75 262.157 253.988 194.661 416.324 634.843 322.77 229.35 588.619 921.827 2014.87 206.811 544.229 180.237 406.42 545.622 230.887 344.456 659.382 197.016 462.588 187.015 166.451 430.145 165.948 335.725 347.947 895.278 134.915 127.129 333.068 126.954 130.987 229.028 428.789 820.315 1343.08 157.935 91.6171 91.2158 293.244 596.156 891.611 1244.81 87.4056 236.895 77.3006 77.1973 104.1 70.532 59.45 58.9682 52.3677 98.6907 278.995 34.3627 19.4382 1.77636e-15
threshold=6.1750000000000007 4.8450000000000006 0.95095042766444482 1.2550000000000001 0.49099999995581806 1.2350000000000001 2.4350000000000005 2.3350000000000004 0.43599999995247202 1.5679999998353602 4.0200000000000005 3.1100000000000003 6.6060000000000008 3.0686666666666671 4.1066666666666674 0.070277829296176306 3.2000000000000006 2.8750000000000004 0.096999999990590016 4.5750000000000011 0.25662220812009018 2.7763333333333438 1.1600000000000001 1.4100000000000001 0.98899999990800602 1.175 0.14784940505109304 1.5800000000000003 1.2950000000000002 19.605000000000004 1.6300000000000001 3.7333333333333347 8.0849999999999991 1.2350000000000001 1.3350000000000002 0.36395684755321839 1.0671294451325219 1.0300000000000002 1.4300000000000002 3.3833333333333346 2.3350000000000004 1.1900000000000002 2.1626666666666741 1.4083333333333272 1.2350000000000001 -0.29740984239579865 0.33899999996639402 0.10976498254693866 4.6400000000000015 46.320000000000007 1.3200000000000003 2.5176884940248647 0.72999999991749209 1.3700000000000003 1.4800000000000002 1.1600000000000001 2.1579999997647561 1.0750000000000004 6.1020000000000012 1.0600000000000003 1.7050000000000003 3.7950000000000004 6.7903333333333356 2.5750000000000006 3.0233333333334076
decision_type=2 2 2 2 2 2 2 2 2 2 2 2 2 2 2 2 2 2 2 2 2 2 2 2 2 2 2 2 2 2 2 2 2 2 2 2 2 2 2 2 2 2 2 2 2 2 2 2 2 2 2 2 2 2 2 2 2 2 2 2 2 2 2 2 2
left_child=9 4 3 -3 5 -2 7 64 -8 10 11 18 13 -13 15 -12 17 -17 19 53 21 22 -20 24 25 -23 28 -28 -25 30 -6 35 33 -33 -35 58 37 -37 57 40 44 -42 -43 -44 -40 -38 47 48 -16 50 -50 52 -34 -1 55 -48 -46 -11 -22 -59 -61 -62 63 -56 -7
right_child=1 2 -4 -5 29 6 8 -9 -10 38 14 12 -14 -15 46 16 -18 -19 20 -21 31 23 -24 26 -26 -27 27 -29 -30 -31 -32 32 51 34 -36 36 45 -39 39 -41 41 42 43 -45 56 -47 54 -49 49 -51 -52 -53 -54 -55 62 -57 -58 59 -60 60 61 -63 -64 -65 -66
leaf_value=-2.2143234551865936 -2.0310602251040679 -2.1869200642587328 -2.0688991594810711 -2.9937977260548423 -2.2230489130145341 -2.9937977260548423 -2.2639013217018267 -2.0240292787392447 -2.0548855456734767 -1.9777974147740451 -2.0174079609705324 -2.1437537719302262 -2.0666851594523559 -2.4734937331392564 -1.9910759840889498 -2.9937977260548423 -2.0619450353328244 -1.9959200501675936 -2.0612438670593778 -2.025166170166592 -2.0247292198345175 -2.0570145981097552 -2.4324915177710995 -2.1012515766385245 -2.0695888675438354 -2.4600491859754432 -2.0386038325526963 -2.2435773307835465 -2.0154553870960563 -2.0061442060401102 -2.0322372210834141 -2.0462716729784627 -2.1481040478174771 -2.0771083178770127 -2.4972576166800353 -1.9896135800862125 -2.0728265416991491 -2.0971254756082449 -2.1040891244864421 -1.9974011301120869 -2.0294621548613305 -2.0285609067193224 -2.147237558439743 -2.9937977260548423 -2.0575453533914096 -2.0117879400874399 -2.0140632795068778 -2.0091707232764273 -2.1900596658949922 -2.0330503800230941 -2.9937977260548423 -1.9938497646647371 -1.999921163290137 -2.3771986695728633 -2.007646852820586 -2.0911290582016462 -2.0038112462445916 -1.9812453794091192 -1.9766749751858779 -2.006215214269166 -2.1532659621592494 -1.9852006617592906 -2.0247875026544158 -1.9818654359194858 -2.9937977260548423
leaf_weight=12.614706765860321 91.920751128345728 12.186282783746721 31.893787212669849 7.3308103606104842 38.272544279694557 5.8075250908732414 26.943109460175037 10.139368202537298 31.417760565876961 125.81385088339448 90.635479182004929 11.567448142915966 53.029371581971645 18.898258503526449 39.224598199129105 9.7109435945749283 31.655773889273405 9.853752214461565 21.087981704622507 40.605075474828482 131.90699196234345 20.992776375263929 17.517781227827072 77.116321161389351 85.11356945335865 18.422231856733561 82.352614901959896 39.319802902638912 301.51529685407877 139.38061094284058 112.48510352149606 41.50952610373497 46.507805895060301 32.179403200745583 19.802709132432938 97.918687503784895 74.736187927424908 241.25031836330891 66.310515653342009 128.2891894467175 50.982457000762224 20.373941734433174 11.615050807595255 7.4260156899690619 84.018708165735006 290.37627269327641 120.43474914878607 139.80903492495418 12.23388544842601 20.469147063791752 7.5212210193276396 68.833457507193089 59.360526610165834 15.946893293410538 129.62206405773759 65.358462359756231 198.64593222364783 77.687553763389587 116.0077013336122 189.17300132662058 46.793421883136034 48.745131760835648 121.76762375980616 155.47031285613775 4.8078691326081753
leaf_count=66 140 57 73 154 207 122 168 14 63 56 113 44 119 198 28 204 68 8 45 57 184 43 169 227 196 188 138 229 364 142 174 76 181 79 217 67 177 690 199 108 76 30 45 156 173 329 142 151 58 32 158 53 53 136 136 179 193 40 49 193 187 29 170 82 101
internal_value=-2.05122 -2.0922 -2.22876 -2.48999 -2.07698 -2.13145 -2.24809 -2.52003 -2.15138 -2.04603 -2.05335 -2.06193 -2.16944 -2.3483 -2.03502 -2.09269 -2.22591 -2.49122 -2.05733 -2.14083 -2.05427 -2.07489 -2.2297 -2.06533 -2.12523 -2.24539 -2.05042 -2.10484 -2.03293 -2.04487 -2.08068 -2.04306 -2.07722 -2.15241 -2.23717 -2.03343 -2.04441 -2.06609 -2.0253 -2.04111 -2.05387 -2.12361 -2.24539 -2.4774 -2.0358 -2.02428 -2.02494 -2.05203 -2.12746 -2.26045 -2.49606 -2.03698 -2.06502 -2.30526 -2.01492 -2.04117 -2.01978 -2.00691 -2.00224 -2.01702 -2.02679 -2.06752 -2.00293 -1.99359 -2.9938
internal_weight=4558.72 512.586 51.4109 19.5171 461.175 171.036 79.1156 20.7548 58.3609 4046.13 2990.26 2036.49 83.4951 30.4657 953.767 141.856 51.2205 19.5647 1952.99 69.1667 1883.83 663.438 38.6058 624.833 124.529 39.415 500.304 121.672 378.632 290.138 150.758 1220.39 268.193 93.4916 51.9821 952.196 704.281 339.169 1055.87 567.662 439.373 90.3975 39.415 19.0411 348.975 365.112 811.911 219.258 79.4489 40.2243 19.7551 174.702 105.868 28.5616 592.653 185.793 282.665 488.213 247.915 362.399 284.712 95.5386 406.86 285.092 10.6154
internal_count=8803 1415 284 211 1131 608 468 237 231 7388 5903 4374 361 242 1529 393 280 212 4013 259 3754 1599 214 1385 427 231 958 367 591 523 381 2155 659 372 296 1496 1263 757 1485 980 872 307 231 201 565 506 1136 427 276 248 216 287 234 202 709 321 366 505 233 449 409 216 388 218 223
is_linear=0
shrinkage=1


end of trees

feature_importances:
lag_7=9
lag_14=8
rol_mean_15=8
macro_cycle_10x=8
lag_5=8
vol_squeeze=7
lag_13=6
lag_3=5
last_recovery_score=4
rel_str_25=2

parameters:
[boosting: gbdt]
[objective: binary]
[metric: binary_logloss]
[tree_learner: serial]
[device_type: cpu]
[data_sample_strategy: bagging]
[data: ]
[valid: ]
[num_iterations: 100]
[learning_rate: 0.0491642]
[num_leaves: 67]
[num_threads: 0]
[seed: 42]
[deterministic: 1]
[force_col_wise: 0]
[force_row_wise: 0]
[histogram_pool_size: -1]
[max_depth: 10]
[min_data_in_leaf: 100]
[min_sum_hessian_in_leaf: 0.001]
[bagging_fraction: 0.745065]
[pos_bagging_fraction: 1]
[neg_bagging_fraction: 1]
[bagging_freq: 7]
[bagging_seed: 42]
[bagging_by_query: 0]
[feature_fraction: 0.988989]
[feature_fraction_bynode: 1]
[feature_fraction_seed: 42]
[extra_trees: 0]
[extra_seed: 12879]
[early_stopping_round: 0]
[early_stopping_min_delta: 0]
[first_metric_only: 0]
[max_delta_step: 0]
[lambda_l1: 0]
[lambda_l2: 0]
[linear_lambda: 0]
[min_gain_to_split: 0]
[drop_rate: 0.1]
[max_drop: 50]
[skip_drop: 0.5]
[xgboost_dart_mode: 0]
[uniform_drop: 0]
[drop_seed: 17869]
[top_rate: 0.2]
[other_rate: 0.1]
[min_data_per_group: 100]
[max_cat_threshold: 32]
[cat_l2: 10]
[cat_smooth: 10]
[max_cat_to_onehot: 4]
[top_k: 20]
[monotone_constraints: ]
[monotone_constraints_method: basic]
[monotone_penalty: 0]
[feature_contri: ]
[forcedsplits_filename: ]
[refit_decay_rate: 0.9]
[cegb_tradeoff: 1]
[cegb_penalty_split: 0]
[cegb_penalty_feature_lazy: ]
[cegb_penalty_feature_coupled: ]
[path_smooth: 0]
[interaction_constraints: ]
[verbosity: -1]
[saved_feature_importance_type: 0]
[use_quantized_grad: 0]
[num_grad_quant_bins: 4]
[quant_train_renew_leaf: 0]
[stochastic_rounding: 1]
[linear_tree: 0]
[max_bin: 255]
[max_bin_by_feature: ]
[min_data_in_bin: 3]
[bin_construct_sample_cnt: 200000]
[data_random_seed: 175]
[is_enable_sparse: 1]
[enable_bundle: 1]
[use_missing: 1]
[zero_as_missing: 0]
[feature_pre_filter: 1]
[pre_partition: 0]
[two_round: 0]
[header: 0]
[label_column: ]
[weight_column: ]
[group_column: ]
[ignore_column: ]
[categorical_feature: ]
[forcedbins_filename: ]
[precise_float_parser: 0]
[parser_config_file: ]
[objective_seed: 16083]
[num_class: 1]
[is_unbalance: 0]
[scale_pos_weight: 200]
[sigmoid: 1]
[boost_from_average: 1]
[reg_sqrt: 0]
[alpha: 0.9]
[fair_c: 1]
[poisson_max_delta_step: 0.7]
[tweedie_variance_power: 1.5]
[lambdarank_truncation_level: 30]
[lambdarank_norm: 1]
[label_gain: ]
[lambdarank_position_bias_regularization: 0]
[eval_at: ]
[multi_error_top_k: 1]
[auc_mu_weights: ]
[num_machines: 1]
[local_listen_port: 12400]
[time_out: 120]
[machine_list_filename: ]
[machines: ]
[gpu_platform_id: -1]
[gpu_device_id: -1]
[gpu_use_dp: 0]
[num_gpu: 1]

end of parameters

pandas_categorical:[]
