tree
version=v4
num_class=1
num_tree_per_iteration=1
label_index=0
max_feature_idx=50
objective=binary sigmoid:1
feature_names=lag_1 lag_2 lag_3 lag_4 lag_5 lag_6 lag_7 lag_8 lag_9 lag_10 rol_mean_25 rol_std_25 rol_max_25 rel_str_25 rol_mean_50 rol_std_50 rol_max_50 rel_str_50 rol_mean_100 rol_std_100 rol_max_100 rel_str_100 rol_mean_150 rol_std_150 rol_max_150 rel_str_150 rol_mean_200 rol_std_200 rol_max_200 rel_str_200 rol_mean_300 rol_std_300 rol_max_300 rel_str_300 streak_under_2 streak_over_2 vol_squeeze rtp_gap games_since_10x games_since_20x games_since_50x games_since_100x games_since_1000x trend_acceleration bait_density_150 high_x_density_150 session_sentiment last_recovery_score fib_dist_10x pain_density_20 zigzag_density_5
feature_infos=[1:10938.01] [1:10938.01] [1:10938.01] [1:10938.01] [1:10938.01] [1:10938.01] [1:10938.01] [1:10938.01] [1:10938.01] [1:10938.01] [1.5984000000000091:443.56520000000006] [0.74396281266569808:2186.7905755625065] [3.8199999999999998:10938.01] [-1.3757314319576246:4.7999756681451462] [2.3118000000000363:224.94220000000004] [1.4801857156269751:1546.3594854432808] [6.7800000000000002:10938.01] [-0.90458258801565372:6.9295992379773219] [2.5838000000000001:114.31819999999999] [1.9084986853945802:1093.4715913266998] [9.9700000000000006:10938.01] [-0.79404709085181091:9.8999070638365527] [2.8124666666666696:77.830933333333334] [2.7573501372292721:892.78975942060606] [20.66:10938.01] [-0.62830854980906881:12.165099284023022] [2.9528999999999912:67.159199999999998] [3.3859685012558023:778.63624699820355] [27.890000000000001:10938.01] [-0.56820756200136546:13.995915200629064] [3.9855666666666667:46.569833333333335] [6.2829296786114206:635.93360449909449] [55.380000000000003:10938.01] [-0.47832371961772202:17.127447443759507] [0:13] [0:9] [0.00088508726387528448:3.1633443117497615] [-104.67267888641945:6.827720550361617] [1:116] [1:124] [1:227] [1:418] [1:2363] [-1093.681:1093.876] [0.0066666666666666671:0.11333333333333333] [0.10666666666666667:0.30666666666666664] [0.29883233546780857:8.0622798640834912] [1.0233333333333334:3647.3933333333334] [0:27] [0:10] [0:5]
tree_sizes=10676

Tree=0
num_leaves=102
num_cat=0
split_feature=7 17 3 1 36 36 26 6 6 26 3 7 8 36 3 8 11 7 13 31 41 30 9 4 17 7 7 8 28 4 4 4 30 7 7 1 42 7 7 1 33 2 14 48 41 26 17 47 39 2 41 14 33 3 20 14 33 5 4 2 5 1 8 1 9 8 42 48 6 11 3 2 39 41 13 4 17 13 19 14 17 28 3 1 7 47 11 30 17 6 6 18 6 48 2 13 41 2 32 8 26
split_gain=15.7919 11.2984 10.8308 13 9.23927 10.6483 8.94474 8.74584 12.4049 8.14079 7.29194 8.20664 9.16177 8.04859 8.30137 8.28499 8.68121 7.99279 7.79273 7.61949 7.53361 9.35962 9.77136 9.24642 9.50888 10.0287 9.05559 9.47398 9.02699 10.0693 10.4725 9.71317 8.98263 8.17445 11.46 9.44767 7.9913 7.88402 7.46004 7.29408 7.31288 7.14364 6.99449 7.90661 8.07034 6.9874 6.91821 6.98032 6.83329 15.5828 8.15075 7.60281 6.79793 6.53971 6.3491 6.27412 6.22799 8.62562 8.35206 6.9836 6.2573 5.78306 6.13803 10.5503 10.4368 9.88311 10.6685 7.80283 11.4649 10.426 11.4732 6.65918 6.06491 7.3184 6.93011 6.47929 5.60196 5.45975 10.4117 5.3911 7.34129 5.38072 5.98826 5.36855 5.19873 5.19163 5.08896 4.9949 4.94481 6.62553 4.62698 4.5017 4.46732 4.41169 4.10944 4.04587 3.49405 3.27011 2.67718 2.26705 2.24222
threshold=1.0900000000000003 -0.15164885792029462 1.3200000000000003 2.4350000000000005 0.25940992177657746 0.74768222285454022 3.7781749999999916 3.4350000000000005 1.2800000000000002 11.934549999999998 7.9900000000000011 3.2950000000000004 1.2250000000000003 1.3324768785043484 41.910000000000004 2.0850000000000004 5.8717728982015194 1.9950000000000001 -0.64227777038001233 92.22588721259477 110.50000000000001 6.0666500000000019 1.0600000000000003 1.0150000000000003 -0.1792206712582339 2.2700000000000005 3.6900000000000008 2.2700000000000005 400.56000000000006 4.705000000000001 4.1400000000000015 3.6350000000000002 10.852650000000002 5.2000000000000011 3.6900000000000008 2.1750000000000003 1755.5000000000002 3.0650000000000004 1.8550000000000002 1.2950000000000002 -0.10584866189819285 7.2300000000000013 4.8499000000000079 9.5000000000000018 134.50000000000003 5.6229750000000003 -0.47016161570288795 1.8366666666667453 23.500000000000004 3.0200000000000005 199.50000000000003 3.5750000000000357 -0.16690242117649373 1.7300000000000002 73.170000000000016 4.9721000000000215 -0.19884726066106673 3.0650000000000004 21.725000000000005 2.7300000000000004 2.6900000000000004 5.1250000000000009 1.4450000000000001 2.8500000000000005 2.5450000000000004 1.7300000000000002 80.500000000000014 4.5000000000000009 1.7300000000000002 6.0194471454261871 1.1250000000000002 1.9350000000000003 6.5000000000000009 75.500000000000014 -0.26443709574443186 4.3200000000000012 -0.1792206712582339 -0.4904412252198776 21.594642200455969 9.4371000000000098 -0.17570186788771172 133.33000000000001 1.4950000000000003 2.0450000000000004 1.3350000000000002 1.9250000000000755 6.0570305389368402 7.0285333333333337 -0.22401530281181395 1.5600000000000003 1.9650000000000001 4.3179000000000007 1.4300000000000002 4.5000000000000009 1.7050000000000003 -0.20323713891286985 159.50000000000003 1.9100000000000001 394.88000000000005 4.080000000000001 7.7104249999999999
decision_type=2 2 2 2 2 2 2 2 2 2 2 2 2 2 2 2 2 2 2 2 2 2 2 2 2 2 2 2 2 2 2 2 2 2 2 2 2 2 2 2 2 2 2 2 2 2 2 2 2 2 2 2 2 2 2 2 2 2 2 2 2 2 2 2 2 2 2 2 2 2 2 2 2 2 2 2 2 2 2 2 2 2 2 2 2 2 2 2 2 2 2 2 2 2 2 2 2 2 2 2 2
left_child=1 2 45 7 9 -6 83 8 -4 -3 18 13 -13 15 -15 16 87 84 19 42 23 26 96 24 25 -20 36 53 29 30 31 33 41 34 -25 -35 48 38 86 -17 99 46 43 44 -8 -1 91 54 50 51 81 -50 -47 -28 -48 -52 57 59 60 -31 98 62 67 65 71 76 -67 68 -30 92 -71 -65 75 74 -74 79 -64 -5 -79 -63 -81 -22 -83 -2 -18 -10 -34 -12 89 -38 94 -24 -69 -49 -14 -76 -23 -29 -58 -41 -92
right_child=6 4 3 77 5 -7 10 -9 85 -11 11 12 90 14 -16 39 17 -19 20 -21 21 22 32 28 -26 -27 27 97 61 56 -32 -33 37 35 -36 -37 88 -39 -40 40 -42 -43 -44 -45 -46 52 47 93 49 -51 55 -53 -54 -55 -56 -57 58 -59 -60 -61 -62 72 63 64 -66 66 -68 69 -70 70 -72 -73 73 -75 95 -77 -78 78 -80 80 -82 82 -84 -85 -86 -87 -88 -89 -90 -91 100 -93 -94 -95 -96 -97 -98 -99 -100 -101 -102
leaf_value=-0.53144094597522673 -0.73225402885206681 -0.50433438766357663 -0.63640893163234846 -0.73161245350741233 -0.80327879571029359 -0.59332192276609064 -0.56302829379502206 -0.61131330241208903 -0.75652831625930883 -0.69825053558538142 -0.51766102335525754 -0.71040784465866391 -0.90515858423643858 -0.93787025687672521 -0.75111634398490734 -0.69534949924433531 -0.70215458981029999 -0.62879708827497161 -0.85867167282748758 -0.95108154101410602 -0.6235337402391663 -0.75432695081602918 -0.84490396645097565 -0.71601656663415225 -0.54264846527715904 -0.61451866315361747 -0.5610959841281431 -0.84837916623452059 -0.50626213999633563 -0.8441119441747259 -0.57044495295760123 -0.88697432618353678 -0.66937964507593162 -0.83047305209557742 -0.59332192276609064 -0.69765050109038085 -0.68476380280839022 -0.84003868675401294 -0.57381058173620603 -0.95464305294913765 -0.72759666709087156 -0.73048789447633267 -0.88400639957101046 -0.83792844495773988 -0.77561567283560828 -0.80327879571029359 -0.76543773140058258 -0.78910852481984861 -0.71796439617567243 -0.8737213923483711 -0.92800294367510106 -0.54959996459101568 -0.62377357797070676 -0.7158712668822288 -0.92087718018047249 -0.75363131933595273 -0.78005578638049833 -0.93572252079428209 -0.59816478181928856 -0.67461917705727614 -0.67786269685525147 -0.87351181106911724 -0.93608872464244064 -0.54058856863126759 -0.80155874733257948 -0.84568868898274396 -0.74814060979092234 -0.92634451790013639 -0.76642488959996635 -0.57244830342105646 -0.74183092174512055 -0.7061841624083034 -0.9600853633217703 -0.73421885334507098 -0.73088719442215078 -0.64878286418374931 -0.78739795560654602 -0.97327249999391841 -0.76750178945383962 -0.63152669974131959 -0.83198581001421235 -0.67242195396832516 -0.81988867880552962 -0.55541982448168647 -0.86193244539034564 -0.90201486504763184 -0.83889391506060984 -0.69534949924433531 -0.92578924141298302 -0.87665197803285189 -0.8829676252566262 -0.68824196020877215 -0.78483987710119807 -0.91516132710991471 -0.76276659744930886 -0.8908068227223207 -0.60650526129979632 -0.71405354933792242 -0.8959894032690856 -0.84607834430886331 -0.98599707766289824
leaf_weight=10.663055822253225 11.31589597463608 19.149977803230289 17.844297498464584 10.663055822253225 17.626684114336971 13.492029815912245 10.227829053997995 18.497137650847435 17.191457346081737 10.663055822253225 10.010215669870378 12.839189663529394 11.31589597463608 16.103390425443653 14.144869968295096 15.015323504805563 10.227829053997995 11.968736127018927 10.227829053997995 11.098282590508459 10.445442438125609 10.227829053997995 10.445442438125612 224.14178565144539 13.927256584167479 11.098282590508459 19.585204571485519 10.663055822253229 11.533509358763697 18.714751034975055 14.797710120677946 11.098282590508459 11.31589597463608 38.517568990588188 26.984059631824493 30.248260393738747 10.227829053997995 18.279524266719818 10.880669206380842 11.75112274289131 11.751122742891313 19.367591187357903 17.626684114336967 18.061910882592201 12.621576279401777 11.75112274289131 31.336327314376831 10.227829053997992 16.7562305778265 11.315895974636076 16.32100380957127 17.191457346081734 15.4505502730608 15.450550273060797 11.315895974636076 10.880669206380842 15.885777041316034 15.668163657188414 10.663055822253225 13.056803047657011 13.709643200039862 16.321003809571266 20.23804472386837 13.492029815912248 19.149977803230286 47.222104355692863 142.53676660358906 10.010215669870375 10.010215669870375 15.668163657188414 65.719242006540298 17.844297498464584 19.367591187357899 13.927256584167479 10.010215669870375 12.621576279401777 13.274416431784628 16.97384396195412 14.362483352422712 10.663055822253225 12.621576279401781 13.492029815912245 24.590312406420708 10.445442438125609 17.409070730209351 14.144869968295096 11.098282590508459 10.010215669870375 13.927256584167479 12.839189663529394 14.79771012067795 13.056803047657011 23.937472254037857 62.237427860498428 14.797710120677946 10.010215669870382 10.010215669870375 12.403962895274161 10.445442438125609 12.621576279401777 12.186349511146544
leaf_count=49 52 88 82 49 81 62 47 85 79 49 46 59 52 74 65 69 47 55 47 51 48 47 48 1030 64 51 90 49 53 86 68 51 52 177 124 139 47 84 50 54 54 89 81 83 58 54 144 47 77 52 75 79 71 71 52 50 73 72 49 60 63 75 93 62 88 217 655 46 46 72 302 82 89 64 46 58 61 78 66 49 58 62 113 48 80 65 51 46 64 59 68 60 110 286 68 46 46 57 48 58 56
internal_value=-0.755151 -0.708889 -0.7355 -0.763816 -0.644454 -0.712249 -0.760695 -0.715575 -0.754789 -0.573691 -0.76213 -0.793443 -0.845241 -0.769222 -0.850539 -0.747015 -0.701964 -0.750218 -0.757841 -0.815956 -0.755033 -0.774247 -0.799237 -0.746426 -0.65696 -0.731612 -0.747672 -0.68763 -0.749711 -0.731114 -0.716842 -0.723387 -0.810635 -0.717712 -0.702833 -0.772048 -0.769753 -0.746182 -0.694653 -0.799543 -0.842852 -0.831675 -0.790337 -0.749979 -0.680458 -0.65348 -0.845813 -0.863767 -0.747633 -0.692958 -0.780313 -0.632703 -0.70132 -0.629351 -0.806677 -0.858254 -0.781396 -0.827719 -0.738056 -0.774457 -0.775309 -0.765706 -0.756161 -0.771538 -0.698107 -0.788142 -0.772416 -0.725407 -0.627146 -0.743761 -0.709223 -0.634886 -0.802842 -0.845043 -0.884229 -0.759762 -0.877192 -0.841551 -0.878961 -0.795128 -0.740187 -0.736624 -0.767643 -0.647374 -0.802802 -0.822199 -0.753314 -0.606505 -0.842099 -0.791569 -0.877844 -0.75787 -0.826566 -0.89737 -0.82447 -0.810847 -0.681211 -0.776147 -0.826046 -0.898422 -0.929497
internal_weight=1948.08 208.474 147.542 109.677 60.9317 31.1187 1739.6 67.6778 49.1806 29.813 1717.84 206.95 65.9369 141.013 30.2483 110.765 59.6261 39.6056 1510.89 69.6363 1441.25 445.89 229.8 995.364 35.2534 21.3261 216.09 58.1028 960.11 443.931 345.788 330.99 209.562 319.892 251.126 68.7658 157.987 51.5744 33.2948 51.1391 36.1238 157.987 58.538 40.9113 22.8494 37.8647 138.62 115.117 120.993 45.2636 75.7295 33.9477 27.2017 35.0358 42.6522 27.2017 98.1436 47.4397 50.7039 31.7716 40.0409 516.179 410.636 273.758 50.4863 223.271 189.759 136.879 21.5437 115.335 81.3874 31.3363 105.542 53.3153 39.388 52.2272 33.5125 41.9994 31.3363 39.6056 23.2846 48.5278 38.0823 21.7613 27.6369 31.3363 22.4142 20.0204 36.9943 23.067 53.0977 23.5022 33.9477 72.4653 26.1136 20.0204 20.238 23.067 26.3312 24.3727 26.9841
internal_count=8952 958 678 504 280 143 7994 311 226 137 7894 951 303 648 139 509 274 182 6943 320 6623 2049 1056 4574 162 98 993 267 4412 2040 1589 1521 963 1470 1154 316 726 237 153 235 166 726 269 188 105 174 637 529 556 208 348 156 125 161 196 125 451 218 233 146 184 2372 1887 1258 232 1026 872 629 99 530 374 144 485 245 181 240 154 193 144 182 107 223 175 100 127 144 103 92 170 106 244 108 156 333 120 92 93 106 121 112 124
is_linear=0
shrinkage=1


end of trees

feature_importances:
lag_8=10
lag_2=6
lag_3=6
lag_4=6
lag_5=6
lag_7=6
lag_9=6
rel_str_50=6
games_since_100x=5
rel_str_25=4
rol_mean_50=4
rol_mean_200=4
rol_std_25=3
rol_mean_300=3
rel_str_300=3
vol_squeeze=3
fib_dist_10x=3
lag_6=2
lag_10=2
rol_max_200=2
games_since_20x=2
games_since_1000x=2
last_recovery_score=2
rol_mean_100=1
rol_std_100=1
rol_max_100=1
rol_std_300=1
rol_max_300=1

parameters:
[boosting: gbdt]
[objective: binary]
[metric: binary_logloss]
[tree_learner: serial]
[device_type: cpu]
[data_sample_strategy: bagging]
[data: ]
[valid: ]
[num_iterations: 100]
[learning_rate: 0.17787]
[num_leaves: 117]
[num_threads: 0]
[seed: 0]
[deterministic: 0]
[force_col_wise: 0]
[force_row_wise: 0]
[histogram_pool_size: -1]
[max_depth: 12]
[min_data_in_leaf: 46]
[min_sum_hessian_in_leaf: 0.001]
[bagging_fraction: 0.756914]
[pos_bagging_fraction: 1]
[neg_bagging_fraction: 1]
[bagging_freq: 5]
[bagging_seed: 3]
[bagging_by_query: 0]
[feature_fraction: 0.734419]
[feature_fraction_bynode: 1]
[feature_fraction_seed: 2]
[extra_trees: 0]
[extra_seed: 6]
[early_stopping_round: 0]
[early_stopping_min_delta: 0]
[first_metric_only: 0]
[max_delta_step: 0]
[lambda_l1: 0]
[lambda_l2: 0]
[linear_lambda: 0]
[min_gain_to_split: 0]
[drop_rate: 0.1]
[max_drop: 50]
[skip_drop: 0.5]
[xgboost_dart_mode: 0]
[uniform_drop: 0]
[drop_seed: 4]
[top_rate: 0.2]
[other_rate: 0.1]
[min_data_per_group: 100]
[max_cat_threshold: 32]
[cat_l2: 10]
[cat_smooth: 10]
[max_cat_to_onehot: 4]
[top_k: 20]
[monotone_constraints: ]
[monotone_constraints_method: basic]
[monotone_penalty: 0]
[feature_contri: ]
[forcedsplits_filename: ]
[refit_decay_rate: 0.9]
[cegb_tradeoff: 1]
[cegb_penalty_split: 0]
[cegb_penalty_feature_lazy: ]
[cegb_penalty_feature_coupled: ]
[path_smooth: 0]
[interaction_constraints: ]
[verbosity: -1]
[saved_feature_importance_type: 0]
[use_quantized_grad: 0]
[num_grad_quant_bins: 4]
[quant_train_renew_leaf: 0]
[stochastic_rounding: 1]
[linear_tree: 0]
[max_bin: 255]
[max_bin_by_feature: ]
[min_data_in_bin: 3]
[bin_construct_sample_cnt: 200000]
[data_random_seed: 1]
[is_enable_sparse: 1]
[enable_bundle: 1]
[use_missing: 1]
[zero_as_missing: 0]
[feature_pre_filter: 1]
[pre_partition: 0]
[two_round: 0]
[header: 0]
[label_column: ]
[weight_column: ]
[group_column: ]
[ignore_column: ]
[categorical_feature: ]
[forcedbins_filename: ]
[precise_float_parser: 0]
[parser_config_file: ]
[objective_seed: 5]
[num_class: 1]
[is_unbalance: 0]
[scale_pos_weight: 1]
[sigmoid: 1]
[boost_from_average: 1]
[reg_sqrt: 0]
[alpha: 0.9]
[fair_c: 1]
[poisson_max_delta_step: 0.7]
[tweedie_variance_power: 1.5]
[lambdarank_truncation_level: 30]
[lambdarank_norm: 1]
[label_gain: ]
[lambdarank_position_bias_regularization: 0]
[eval_at: ]
[multi_error_top_k: 1]
[auc_mu_weights: ]
[num_machines: 1]
[local_listen_port: 12400]
[time_out: 120]
[machine_list_filename: ]
[machines: ]
[gpu_platform_id: -1]
[gpu_device_id: -1]
[gpu_use_dp: 0]
[num_gpu: 1]

end of parameters

pandas_categorical:[]
