tree
version=v4
num_class=1
num_tree_per_iteration=1
label_index=0
max_feature_idx=9
objective=binary sigmoid:1
feature_names=lag_4 rsi_7 lag_10 rol_std_50 last_recovery_score vol_expansion macro_cycle_10x rol_mean_15 rel_str_25 gap_std_2x
feature_infos=[1:10938.01] [0.0074244561583896029:99.8861451171109] [1:10938.01] [1.4801857156269751:1546.3594854432808] [1.0233333333333334:3647.3933333333334] [0.0021684412924872277:630.35422400426478] [0.0019999999999960002:10.439999999060401] [1.4060000000000152:735.71333333333337] [-1.3757314319576246:4.7999756681451462] [0:5.7183913821983188]
tree_sizes=12457

Tree=0
num_leaves=122
num_cat=0
split_feature=7 5 5 7 6 8 7 7 3 2 8 2 6 4 5 7 3 5 9 7 7 5 4 5 7 7 5 9 8 3 2 3 7 8 2 4 4 5 7 6 6 2 2 7 3 7 8 2 8 9 8 3 4 8 8 2 2 2 2 3 3 3 2 5 8 8 6 7 2 2 2 2 6 5 4 9 2 7 7 2 7 9 7 8 6 6 5 7 9 4 2 8 7 8 9 7 6 8 5 8 5 5 3 5 8 5 4 4 2 8 4 4 7 7 6 9 7 5 4 2 2
split_gain=8.98407 9.60605 8.72695 9.64106 7.96905 8.25363 8.17299 8.10457 13.1142 7.71456 7.59932 7.46548 7.91664 12.5449 10.7139 11.9121 9.51651 9.85719 8.32658 10.3287 6.98048 8.28848 6.78984 6.39422 8.95859 11.0703 10.1624 10.0594 15.0059 9.80973 9.21716 7.7145 7.65595 7.50781 7.28648 6.9093 6.37746 6.22369 6.84432 6.10714 7.1511 6.06997 6.0667 5.96917 5.92295 17.0536 17.4442 6.27752 5.90394 9.45452 5.88535 5.45625 8.39312 5.41593 7.94965 6.34224 5.41387 5.40809 11.1219 5.66254 5.37141 7.41947 5.29823 5.12574 9.24654 5.63259 4.98859 4.88632 4.87084 4.73234 5.98096 4.69116 7.38818 5.78885 5.5814 4.67654 4.50255 8.73257 5.06507 5.95416 4.56471 4.4707 4.16328 4.08949 4.04566 3.78083 4.57014 3.75631 4.89984 3.74189 3.23093 3.22394 3.13927 3.04078 5.37332 2.99754 2.7446 2.7298 2.67109 2.65418 2.57541 3.15991 3.60017 6.02258 6.26801 3.44974 2.23669 2.21648 2.16132 2.05073 1.74422 1.70917 1.51185 1.44393 3.71314 2.32153 1.43125 1.1416 0.612077 0.142422 0.126845
threshold=2.6713333333333349 0.3551832447624606 3.0799207235284567 3.7696666666666689 0.082999999993110016 -0.48326442821858689 2.7096666666666671 2.7416666666666667 6.1001166289880997 1.1900000000000002 4.059157523178583 8.7050000000000018 1.7619999998184681 1.3600000000000014 1.003362358251483 2.047000000000009 14.793458807813249 0.96088327073223778 2.1794192844442764 2.1916666666666749 2.0880000000000014 0.91099108539118412 1.5200000000000038 0.98763629295226041 4.3803333333333425 3.9703333333333339 0.99104437302606951 1.6431676725155047 -0.43712634959104951 5.084740864373086 1.3200000000000003 5.0364303405532258 3.8103333333333342 -0.22221382772644502 1.5600000000000003 3.205000000000076 4.6766666666666667 0.95715754431922873 2.9730000000000003 1.3229999998742941 1.3829999998492022 1.0600000000000003 10.935 1.9243333333333335 37.043136089111982 34.778000000000013 -0.22031608103469993 1.175 -0.20721116430009121 1.047722557505167 -0.11227230687018089 11.957825629851792 2.1300000000001513 -0.36355247637467825 -0.26832431340479485 2.4050000000000007 1.4800000000000002 1.5600000000000003 3.7950000000000004 14.903323788980352 6.1941925792470345 4.770485847721786 2.0250000000000004 0.91099108539118412 -0.27182848471983767 -0.42614407345646838 0.37699999995851402 2.8230000000000008 1.6300000000000001 2.7700000000000005 1.2050000000000003 2.5100000000000002 2.1639999997749242 0.99584911075455829 1.2616666666666667 2.7386127875258319 2.6900000000000004 6.2060000000000004 4.466000000000002 1.7550000000000001 11.648666666666676 1.2247448713915881 6.5290000000000008 -0.14030225239368302 1.3439999998602243 1.5149999998317543 1.0007623078605781 2.5760000000000001 1.6733200530681518 1.7700000000000002 3.5850000000000004 -0.20183221312416358 2.6193333333333411 -0.1871436834170063 2.1446343412137661 2.4676666666666676 0.25699999997252204 4.059157523178583 4.4965394859519598 -0.30776437530370798 1.0223870084267082 1.0126086390855382 5.6546521054741099 0.98594244587373503 -0.36576955078272905 0.98531675433205812 2.785000000000001 2.2216666666666685 3.2950000000000004 -0.28392111551755089 2.7483333333334072 1.5933333333333348 6.1590000000000016 3.0356666666666747 1.8029999998305302 1.2247448713915943 2.1916666666666749 1.0000121758322225 1.7950000000000019 2.1750000000000003 1.8550000000000002
decision_type=2 2 2 2 2 2 2 2 2 2 2 2 2 2 2 2 2 2 2 2 2 2 2 2 2 2 2 2 2 2 2 2 2 2 2 2 2 2 2 2 2 2 2 2 2 2 2 2 2 2 2 2 2 2 2 2 2 2 2 2 2 2 2 2 2 2 2 2 2 2 2 2 2 2 2 2 2 2 2 2 2 2 2 2 2 2 2 2 2 2 2 2 2 2 2 2 2 2 2 2 2 2 2 2 2 2 2 2 2 2 2 2 2 2 2 2 2 2 2 2 2
left_child=11 44 4 98 5 -3 106 8 -8 10 -5 12 16 41 18 43 92 -18 20 -20 111 95 -17 31 25 32 34 29 -29 66 -30 36 48 -31 -26 90 113 38 110 60 -41 -14 56 -16 47 46 -46 109 49 -25 87 69 -53 107 55 -55 96 117 -59 -60 61 -28 68 65 -65 -40 -27 -50 -34 70 -24 72 -43 -73 -74 -62 78 -78 -11 97 -79 -42 -56 -72 -19 -86 -87 88 89 -23 -36 -58 93 100 120 -22 -39 -80 -4 -10 101 102 105 -104 -105 -1 119 -49 -64 -2 -33 -15 -44 -9 115 -115 -76 -7 -107 -6 -95
right_child=1 2 3 9 6 57 7 23 99 76 -12 -13 13 14 15 22 17 84 19 -21 21 50 51 24 26 27 39 28 30 33 -32 37 62 -35 35 -37 -38 42 63 40 81 71 112 -45 45 -47 -48 53 67 -51 -52 52 -54 54 82 -57 91 58 59 -61 75 -63 108 64 -66 -67 -68 -69 -70 -71 83 73 74 -75 116 -77 77 80 79 -81 -82 -83 -84 -85 85 86 -88 -89 -90 -91 -92 -93 -94 94 -96 -97 -98 -99 -100 -101 -102 -103 103 104 -106 118 -108 -109 -110 -111 -112 -113 -114 114 -116 -117 -118 -119 -120 -121 -122
leaf_value=-1.4141064057516741 -1.4301367761160728 -1.5197018105357651 -1.4345737536276475 -0.92462733824563892 -1.6239439538216527 -1.0226447614530592 -0.99531297998175905 -1.678607516764252 -1.295962576166056 -1.1866354502808574 -1.3141837638135891 -1.0929264852364009 -1.678607516764252 -1.4599532649938542 -1.1962819613883746 -1.0829148436718223 -1.0206201850477776 -1.2437837206299385 -1.0128333527197717 -1.4052897020512549 -1.3016174275049455 -1.2393467431183636 -1.1402542453598641 -1.4329285821907713 -1.4706483099174064 -1.3369602483730054 -1.3715088485474012 -1.5321872588822891 -1.3369602483730056 -1.4508426711700877 -0.96277514489687843 -1.6435667712882267 -1.4833805062549683 -1.2830159428375456 -0.97327122073071082 -1.3909045539084655 -1.3016174275049455 -1.3632408074800244 -1.5041493371602113 -1.1245849193730417 -1.5300652261593621 -1.5362544882678992 -1.678607516764252 -0.87473159113778987 -1.2881534957456846 -1.5419486094077535 -0.69466338379746218 -1.5543721464401625 -1.2800190369744644 -1.3374394170523762 -1.6085260258122012 -1.2377723317432887 -1.6119446351269355 -0.95260707143285295 -1.4922544612781175 -1.2942543398240998 -1.3763205327498773 -1.5419486094077535 -0.99531297998175905 -1.3506261391086554 -1.4395255842274439 -1.5529441536778166 -1.6786075167642518 -1.1615197591991222 -1.4301367761160728 -1.374458119293996 -1.047874098195797 -1.4611345993600009 -1.2230778255759234 -1.1119730228470628 -1.3119616677590118 -1.3597367329324219 -1.1179555891478477 -1.678607516764252 -1.295962576166056 -1.3141837638135891 -1.4409398517964285 -0.97175109940305238 -1.2230778255759236 -1.6150452342728574 -1.2610386331749508 -1.3129005815848895 -1.2470530724805724 -1.5809940115096102 -1.6239439538216525 -1.2364757576696976 -1.5178323316389595 -1.5692803908790531 -1.1927091794967015 -1.4726831358161034 -1.2230778255759234 -1.4784065696814834 -1.637195726656222 -1.5146168279364538 -1.2100626915419712 -1.047874098195797 -1.5516566192199637 -1.4452874310336448 -1.678607516764252 -1.537236233292012 -1.3369602483730056 -1.678607516764252 -1.5982199242016057 -1.1560881651070514 -1.4963956402889205 -1.678607516764252 -1.4599532649938542 -1.3487411886623588 -1.5243152020069148 -1.6298007641369312 -1.4599532649938542 -1.6426446464072786 -1.5146168279364536 -1.6230551153998216 -1.3632408074800244 -1.4833805062549683 -1.4761498762361058 -1.1866354502808572 -1.5692803908790531 -1.678607516764252 -1.4599532649938542
leaf_weight=4.8878621160984066 5.2032080590724945 6.7799377739429501 4.4148432016372663 4.5725161731243116 3.9418242871761304 3.9418242871761349 5.3608810305595389 5.0455350875854483 3.9418242871761313 3.9418242871761349 4.7301891446113586 4.4148432016372672 4.887862116098403 3.9418242871761304 5.360881030559538 6.1492458879947653 4.2571702301502254 6.9376107454299953 6.1492458879947645 6.3069188594818115 4.5725161731243116 4.4148432016372672 5.2032080590725007 84.197366774082184 7.2529566884040859 5.0455350875854474 14.032894462347029 4.4148432016372707 4.4148432016372672 39.733588814735413 9.9333972036838514 6.1492458879947645 15.45195120573044 17.974718749523163 4.8878621160984022 5.9915729165077201 4.5725161731243125 4.0994972586631766 22.231888979673386 5.8338999450206783 7.2529566884040859 7.5683026313781765 7.7259756028652173 5.3608810305595398 5.5185540020465842 4.7301891446113578 3.9418242871761313 5.2032080590724892 7.5683026313781729 112.42082867026329 6.1492458879947725 4.8878621160984022 6.4645918309688568 5.0455350875854439 6.9376107454300016 5.0455350875854492 34.215034812688828 6.3069188594818106 4.4148432016372663 3.9418242871761322 529.93885716795921 41.15264555811882 7.4106296598911312 11.667799890041353 12.140818804502485 51.716734647750854 6.1492458879947662 80.255542486906052 4.2571702301502219 6.4645918309688559 6.4645918309688559 4.7301891446113569 6.1492458879947653 5.9915729165077209 3.9418242871761304 14.190567433834074 7.2529566884040859 4.5725161731243116 4.2571702301502246 6.7799377739429465 5.6762269735336304 11.194780975580214 5.9915729165077209 4.4148432016372672 3.9418242871761313 5.360881030559538 5.3608810305595398 3.9418242871761313 7.0952837169170371 11.510126918554304 4.7301891446113586 24.75465652346611 5.2032080590724936 3.9418242871761304 5.5185540020465851 4.0994972586631775 28.854153782129288 6.4645918309688568 3.9418242871761322 4.5725161731243125 4.4148432016372672 4.5725161731243125 5.3608810305595389 5.3608810305595345 4.7301891446113622 5.9915729165077192 3.9418242871761313 4.5725161731243134 9.7757242321968061 4.4148432016372663 3.9418242871761322 5.9915729165077209 3.9418242871761322 19.393775492906578 4.0994972586631766 7.7259756028652182 4.2571702301502228 3.9418242871761322 3.9418242871761322 5.0455350875854492 3.9418242871761322
leaf_count=31 33 43 28 29 25 25 34 32 25 25 30 28 31 25 34 39 27 44 39 40 29 28 33 534 46 32 89 28 28 252 63 39 98 114 31 38 29 26 141 37 46 48 49 34 35 30 25 33 48 713 39 31 41 32 44 32 217 40 28 25 3361 261 47 74 77 328 39 509 27 41 41 30 39 38 25 90 46 29 27 43 36 71 38 28 25 34 34 25 45 73 30 157 33 25 35 26 183 41 25 29 28 29 34 34 30 38 25 29 62 28 25 38 25 123 26 49 27 25 25 32 25
internal_value=-1.40915 -1.41544 -1.41891 -1.33601 -1.42235 -1.31124 -1.42479 -1.42313 -1.25931 -1.299 -1.12271 -1.37054 -1.37573 -1.3465 -1.31118 -1.23722 -1.42897 -1.32029 -1.3697 -1.21155 -1.40779 -1.36919 -1.29123 -1.42486 -1.4175 -1.39254 -1.43329 -1.32467 -1.1848 -1.36276 -1.07791 -1.45568 -1.41106 -1.39857 -1.29219 -1.20927 -1.54142 -1.43912 -1.40289 -1.43846 -1.33252 -1.45467 -1.47684 -1.03551 -1.3284 -1.20789 -1.04087 -1.36871 -1.39908 -1.37833 -1.4183 -1.32901 -1.45084 -1.32382 -1.26676 -1.12343 -1.45827 -1.24856 -1.32594 -1.16291 -1.44275 -1.50681 -1.5034 -1.38545 -1.2985 -1.41345 -1.17817 -1.44553 -1.42716 -1.26768 -1.33026 -1.42113 -1.364 -1.53793 -1.27314 -1.43626 -1.34111 -1.26001 -1.4073 -1.457 -1.13197 -1.39828 -1.37862 -1.42113 -1.37935 -1.4435 -1.37715 -1.37492 -1.34164 -1.408 -1.09613 -1.41917 -1.47753 -1.46175 -1.37313 -1.18167 -1.52822 -1.35706 -1.54968 -1.42554 -1.492 -1.51165 -1.48643 -1.41366 -1.31561 -1.5623 -1.59528 -1.45819 -1.59084 -1.52179 -1.57184 -1.57015 -1.62321 -1.57166 -1.55437 -1.58326 -1.38952 -1.10464 -1.63522 -1.65463 -1.48729
internal_weight=1717.69 1477.08 1420.48 56.6046 1363.87 29.3272 1334.54 1321.61 13.8752 48.2479 9.30271 240.609 236.194 152.47 114.944 50.7707 83.7243 25.8584 64.1729 12.4562 51.7167 41.7833 40.0489 1307.74 1055.46 409.004 646.459 87.6662 18.7631 68.9031 14.3482 252.277 321.338 57.7083 22.8626 15.6096 40.8373 211.439 107.848 623.597 24.2816 37.5262 103.591 10.7218 56.6046 14.1906 9.46038 42.414 284.442 196.618 33.1113 33.8997 11.3525 32.796 23.0203 10.0911 91.9233 22.5472 14.6636 8.35667 599.315 55.1855 36.8955 97.7572 23.8086 73.9486 11.1948 87.8238 19.7091 22.5472 16.0826 32.6383 21.9165 10.7218 14.3482 544.129 38.9452 17.5017 21.4435 17.5017 10.2487 18.4477 12.9292 10.8794 21.6012 14.6636 10.7218 26.9621 23.0203 15.925 9.61805 58.9697 57.866 52.6628 13.4022 8.67201 32.9537 10.7218 8.35667 8.51434 39.2606 34.8457 30.2732 15.452 10.0911 14.8213 12.9292 9.77572 17.1864 9.61805 10.0911 9.9334 11.6678 36.2648 31.2192 27.1198 8.19899 7.88365 9.9334 8.98736 7.88365
internal_count=10894 9368 9009 359 8650 186 8464 8382 88 306 59 1526 1498 967 729 322 531 164 407 79 328 265 254 8294 6694 2594 4100 556 119 437 91 1600 2038 366 145 99 259 1341 684 3955 154 238 657 68 359 90 60 269 1804 1247 210 215 72 208 146 64 583 143 93 53 3801 350 234 620 151 469 71 557 125 143 102 207 139 68 91 3451 247 111 136 111 65 117 82 69 137 93 68 171 146 101 61 374 367 334 85 55 209 68 53 54 249 221 192 98 64 94 82 62 109 61 64 63 74 230 198 172 52 50 63 57 50
is_linear=0
shrinkage=1


end of trees

feature_importances:
rol_mean_15=24
lag_10=22
rel_str_25=18
vol_expansion=17
last_recovery_score=12
rol_std_50=10
macro_cycle_10x=10
gap_std_2x=8

parameters:
[boosting: gbdt]
[objective: binary]
[metric: binary_logloss]
[tree_learner: serial]
[device_type: cpu]
[data_sample_strategy: bagging]
[data: ]
[valid: ]
[num_iterations: 100]
[learning_rate: 0.215474]
[num_leaves: 133]
[num_threads: 0]
[seed: 42]
[deterministic: 1]
[force_col_wise: 0]
[force_row_wise: 0]
[histogram_pool_size: -1]
[max_depth: 12]
[min_data_in_leaf: 25]
[min_sum_hessian_in_leaf: 0.001]
[bagging_fraction: 0.920129]
[pos_bagging_fraction: 1]
[neg_bagging_fraction: 1]
[bagging_freq: 7]
[bagging_seed: 42]
[bagging_by_query: 0]
[feature_fraction: 0.828757]
[feature_fraction_bynode: 1]
[feature_fraction_seed: 42]
[extra_trees: 0]
[extra_seed: 12879]
[early_stopping_round: 0]
[early_stopping_min_delta: 0]
[first_metric_only: 0]
[max_delta_step: 0]
[lambda_l1: 0]
[lambda_l2: 0]
[linear_lambda: 0]
[min_gain_to_split: 0]
[drop_rate: 0.1]
[max_drop: 50]
[skip_drop: 0.5]
[xgboost_dart_mode: 0]
[uniform_drop: 0]
[drop_seed: 17869]
[top_rate: 0.2]
[other_rate: 0.1]
[min_data_per_group: 100]
[max_cat_threshold: 32]
[cat_l2: 10]
[cat_smooth: 10]
[max_cat_to_onehot: 4]
[top_k: 20]
[monotone_constraints: ]
[monotone_constraints_method: basic]
[monotone_penalty: 0]
[feature_contri: ]
[forcedsplits_filename: ]
[refit_decay_rate: 0.9]
[cegb_tradeoff: 1]
[cegb_penalty_split: 0]
[cegb_penalty_feature_lazy: ]
[cegb_penalty_feature_coupled: ]
[path_smooth: 0]
[interaction_constraints: ]
[verbosity: -1]
[saved_feature_importance_type: 0]
[use_quantized_grad: 0]
[num_grad_quant_bins: 4]
[quant_train_renew_leaf: 0]
[stochastic_rounding: 1]
[linear_tree: 0]
[max_bin: 255]
[max_bin_by_feature: ]
[min_data_in_bin: 3]
[bin_construct_sample_cnt: 200000]
[data_random_seed: 175]
[is_enable_sparse: 1]
[enable_bundle: 1]
[use_missing: 1]
[zero_as_missing: 0]
[feature_pre_filter: 1]
[pre_partition: 0]
[two_round: 0]
[header: 0]
[label_column: ]
[weight_column: ]
[group_column: ]
[ignore_column: ]
[categorical_feature: ]
[forcedbins_filename: ]
[precise_float_parser: 0]
[parser_config_file: ]
[objective_seed: 16083]
[num_class: 1]
[is_unbalance: 0]
[scale_pos_weight: 1]
[sigmoid: 1]
[boost_from_average: 1]
[reg_sqrt: 0]
[alpha: 0.9]
[fair_c: 1]
[poisson_max_delta_step: 0.7]
[tweedie_variance_power: 1.5]
[lambdarank_truncation_level: 30]
[lambdarank_norm: 1]
[label_gain: ]
[lambdarank_position_bias_regularization: 0]
[eval_at: ]
[multi_error_top_k: 1]
[auc_mu_weights: ]
[num_machines: 1]
[local_listen_port: 12400]
[time_out: 120]
[machine_list_filename: ]
[machines: ]
[gpu_platform_id: -1]
[gpu_device_id: -1]
[gpu_use_dp: 0]
[num_gpu: 1]

end of parameters

pandas_categorical:[]
