tree
version=v4
num_class=1
num_tree_per_iteration=1
label_index=0
max_feature_idx=50
objective=binary sigmoid:1
feature_names=lag_1 lag_2 lag_3 lag_4 lag_5 lag_6 lag_7 lag_8 lag_9 lag_10 rol_mean_25 rol_std_25 rol_max_25 rel_str_25 rol_mean_50 rol_std_50 rol_max_50 rel_str_50 rol_mean_100 rol_std_100 rol_max_100 rel_str_100 rol_mean_150 rol_std_150 rol_max_150 rel_str_150 rol_mean_200 rol_std_200 rol_max_200 rel_str_200 rol_mean_300 rol_std_300 rol_max_300 rel_str_300 streak_under_2 streak_over_2 vol_squeeze rtp_gap games_since_10x games_since_20x games_since_50x games_since_100x games_since_1000x trend_acceleration bait_density_150 high_x_density_150 session_sentiment last_recovery_score fib_dist_10x pain_density_20 zigzag_density_5
feature_infos=[1:10938.01] [1:10938.01] [1:10938.01] [1:10938.01] [1:10938.01] [1:10938.01] [1:10938.01] [1:10938.01] [1:10938.01] [1:10938.01] [1.5984000000000091:443.56520000000006] [0.74396281266569808:2186.7905755625065] [3.8199999999999998:10938.01] [-1.3757314319576246:4.7999756681451462] [2.3118000000000363:224.94220000000004] [1.4801857156269751:1546.3594854432808] [6.7800000000000002:10938.01] [-0.90458258801565372:6.9295992379773219] [2.5838000000000001:114.31819999999999] [1.9084986853945802:1093.4715913266998] [9.9700000000000006:10938.01] [-0.79404709085181091:9.8999070638365527] [2.8124666666666696:77.830933333333334] [2.7573501372292721:892.78975942060606] [20.66:10938.01] [-0.62830854980906881:12.165099284023022] [2.9528999999999912:67.159199999999998] [3.3859685012558023:778.63624699820355] [27.890000000000001:10938.01] [-0.56820756200136546:13.995915200629064] [3.9855666666666667:46.569833333333335] [6.2829296786114206:635.93360449909449] [55.380000000000003:10938.01] [-0.47832371961772202:17.127447443759507] [0:13] [0:9] [0.00088508726387528448:3.1633443117497615] [-104.67267888641945:6.827720550361617] [1:116] [1:124] [1:227] [1:418] [1:2363] [-1093.681:1093.876] [0.0066666666666666671:0.11333333333333333] [0.10666666666666667:0.30666666666666664] [0.29883233546780857:8.0622798640834912] [1.0233333333333334:3647.3933333333334] [0:27] [0:10] [0:5]
tree_sizes=4120

Tree=0
num_leaves=39
num_cat=0
split_feature=17 24 4 3 17 23 30 40 6 9 48 48 6 32 46 37 9 5 32 28 6 12 4 4 43 7 32 10 12 42 5 5 10 7 36 5 1 13
split_gain=12.8942 21.8715 16.1144 22.0978 25.1831 10.4369 20.5394 9.08072 8.78697 12.4205 14.9888 6.90543 14.0248 11.6854 19.1615 6.53435 10.4946 5.92413 5.85509 5.50031 5.32397 10.624 10.1375 5.70122 15.1377 6.28983 5.11519 4.72941 4.61469 4.30641 3.77244 3.25884 1.30061 0.314623 0.294386 0.212089 1.77636e-15 1.77636e-15
threshold=-0.079431278442500711 305.34000000000009 2.0850000000000004 2.1750000000000003 0.38694144294280874 93.893644034592185 9.5887333333333356 186.50000000000003 1.4300000000000002 1.7300000000000002 15.500000000000002 3.5000000000000004 1.1400000000000001 412.25500000000005 0.74249268203508834 5.2337400053712271 2.4350000000000005 2.4050000000000007 135.25000000000003 149.47500000000002 15.640000000000002 28.495000000000001 1.2800000000000002 1.0600000000000003 -0.96799999999999808 8.3400000000000016 139.17500000000004 6.7332000000000134 57.390000000000008 367.50000000000006 1.5400000000000003 1.2250000000000003 2.941400000000014 4.9850000000000003 0.87744840617615349 1.4100000000000001 1.2800000000000002 -0.38663071640262481
decision_type=2 2 2 2 2 2 2 2 2 2 2 2 2 2 2 2 2 2 2 2 2 2 2 2 2 2 2 2 2 2 2 2 2 2 2 2 2 2
left_child=7 8 5 4 -4 6 -3 11 27 10 -10 12 -1 14 26 18 17 35 32 -12 23 -22 -23 24 -20 -25 -14 33 29 -11 31 -15 -13 -2 -31 -17 -34 -32
right_child=1 2 3 -5 -6 -7 -8 -9 9 28 19 15 13 30 -16 16 -18 -19 20 -21 21 22 -24 25 -26 -27 -28 -29 -30 34 37 -33 36 -35 -36 -37 -38 -39
leaf_value=-2.360559755726201 -3.2392868077230643 -3.0089408814714593 -1.4947551603763496 -2.9271074603031257 -2.5892695363829188 -3.1781382757542103 -2.0884166761898588 -2.4558933509900114 -2.260910296221402 -2.7999232817246327 -2.6945657015107227 -3.0154601057993347 -2.6743908457250809 -3.1420506175430836 -2.0530052875272986 -3.2392868077230643 -2.4906625474053481 -2.7000679349068073 -2.2826081624038981 -3.1602013730433463 -2.3641610961032371 -2.5310590344718609 -3.1157158160360052 -3.0165109353858313 -3.0041208675961504 -3.1768509382390766 -3.1660595533899922 -2.7916334038756054 -2.7879840554746749 -3.2392868077230643 -3.2392868077230639 -2.7096968433499544 -3.2392868077230643 -3.1273734567611995 -3.1273734567611995 -3.1273734567611995 -3.2392868077230643 -3.2392868077230643
leaf_weight=3.8558158390224007 9.7109435945749265 4.9030744619667548 3.236981198191641 3.6178025156259537 3.4749945215880871 4.6174584738910189 3.1893785335123539 2.5229412280023089 4.6174584738910225 2.5705438926816013 4.6650611385703069 2.5229412280023089 2.9989678747952002 2.9037625454366189 2.6181465573608875 2.9037625454366189 4.9030744619667521 3.141775868833065 2.9513652101159087 3.5701998509466648 2.9037625454366198 3.189378533512353 9.1397116184234601 141.95114607363939 10.80580488219857 22.61126572266221 3.855815839022398 2.5229412280023089 4.3794451504945746 7.2832076959311944 3.6654051803052452 2.6657492220401764 2.7133518867194644 2.5229412280023089 2.5229412280023098 2.5229412280023098 8.8064929656684381 4.1414318270981285
leaf_count=81 204 103 68 76 73 97 67 53 97 54 98 53 63 61 55 61 103 66 62 75 61 67 192 2982 227 475 81 53 92 153 77 56 57 53 53 53 185 87
internal_value=-2.95934 -2.84972 -2.62654 -2.36461 -2.06142 -2.83942 -2.64615 -2.98885 -2.96563 -2.87692 -2.66811 -2.99428 -2.85866 -2.94272 -2.70278 -3.01066 -2.82011 -3.00862 -3.02303 -2.89643 -3.01026 -2.85004 -2.96447 -3.02394 -2.84933 -3.03854 -2.95095 -3.14362 -3.03708 -3.12522 -3.11264 -2.93511 -3.19907 -3.21621 -3.21049 -3.18726 -3.23929 -3.23929
internal_weight=317.7 67.4054 23.0397 10.3298 6.71198 12.7099 8.09245 250.295 44.3657 29.6089 12.8527 247.772 26.7051 22.8493 9.47293 221.067 13.4716 8.56848 207.595 8.23526 193.552 15.2329 12.3291 178.32 13.7572 164.562 6.85478 14.7568 16.7561 12.3767 13.3763 5.56951 14.0428 12.2339 9.80615 5.4267 11.5198 7.80684
internal_count=6674 1416 484 217 141 267 170 5258 932 622 270 5205 561 480 199 4644 283 180 4361 173 4066 320 259 3746 289 3457 144 310 352 260 281 117 295 257 206 114 242 164
is_linear=0
shrinkage=1


end of trees

feature_importances:
lag_6=4
lag_5=3
lag_7=3
rol_max_300=3
lag_8=2
lag_10=2
rol_mean_25=2
rol_max_25=2
rel_str_50=2
fib_dist_10x=2
lag_2=1
lag_4=1
rel_str_25=1
rol_std_150=1
rol_max_150=1
rol_max_200=1
rol_mean_300=1
vol_squeeze=1
rtp_gap=1
games_since_50x=1
games_since_1000x=1
trend_acceleration=1
session_sentiment=1

parameters:
[boosting: gbdt]
[objective: binary]
[metric: binary_logloss]
[tree_learner: serial]
[device_type: cpu]
[data_sample_strategy: bagging]
[data: ]
[valid: ]
[num_iterations: 100]
[learning_rate: 0.282351]
[num_leaves: 61]
[num_threads: 0]
[seed: 0]
[deterministic: 0]
[force_col_wise: 0]
[force_row_wise: 0]
[histogram_pool_size: -1]
[max_depth: 8]
[min_data_in_leaf: 53]
[min_sum_hessian_in_leaf: 0.001]
[bagging_fraction: 0.566429]
[pos_bagging_fraction: 1]
[neg_bagging_fraction: 1]
[bagging_freq: 3]
[bagging_seed: 3]
[bagging_by_query: 0]
[feature_fraction: 0.96041]
[feature_fraction_bynode: 1]
[feature_fraction_seed: 2]
[extra_trees: 0]
[extra_seed: 6]
[early_stopping_round: 0]
[early_stopping_min_delta: 0]
[first_metric_only: 0]
[max_delta_step: 0]
[lambda_l1: 0]
[lambda_l2: 0]
[linear_lambda: 0]
[min_gain_to_split: 0]
[drop_rate: 0.1]
[max_drop: 50]
[skip_drop: 0.5]
[xgboost_dart_mode: 0]
[uniform_drop: 0]
[drop_seed: 4]
[top_rate: 0.2]
[other_rate: 0.1]
[min_data_per_group: 100]
[max_cat_threshold: 32]
[cat_l2: 10]
[cat_smooth: 10]
[max_cat_to_onehot: 4]
[top_k: 20]
[monotone_constraints: ]
[monotone_constraints_method: basic]
[monotone_penalty: 0]
[feature_contri: ]
[forcedsplits_filename: ]
[refit_decay_rate: 0.9]
[cegb_tradeoff: 1]
[cegb_penalty_split: 0]
[cegb_penalty_feature_lazy: ]
[cegb_penalty_feature_coupled: ]
[path_smooth: 0]
[interaction_constraints: ]
[verbosity: -1]
[saved_feature_importance_type: 0]
[use_quantized_grad: 0]
[num_grad_quant_bins: 4]
[quant_train_renew_leaf: 0]
[stochastic_rounding: 1]
[linear_tree: 0]
[max_bin: 255]
[max_bin_by_feature: ]
[min_data_in_bin: 3]
[bin_construct_sample_cnt: 200000]
[data_random_seed: 1]
[is_enable_sparse: 1]
[enable_bundle: 1]
[use_missing: 1]
[zero_as_missing: 0]
[feature_pre_filter: 1]
[pre_partition: 0]
[two_round: 0]
[header: 0]
[label_column: ]
[weight_column: ]
[group_column: ]
[ignore_column: ]
[categorical_feature: ]
[forcedbins_filename: ]
[precise_float_parser: 0]
[parser_config_file: ]
[objective_seed: 5]
[num_class: 1]
[is_unbalance: 0]
[scale_pos_weight: 1]
[sigmoid: 1]
[boost_from_average: 1]
[reg_sqrt: 0]
[alpha: 0.9]
[fair_c: 1]
[poisson_max_delta_step: 0.7]
[tweedie_variance_power: 1.5]
[lambdarank_truncation_level: 30]
[lambdarank_norm: 1]
[label_gain: ]
[lambdarank_position_bias_regularization: 0]
[eval_at: ]
[multi_error_top_k: 1]
[auc_mu_weights: ]
[num_machines: 1]
[local_listen_port: 12400]
[time_out: 120]
[machine_list_filename: ]
[machines: ]
[gpu_platform_id: -1]
[gpu_device_id: -1]
[gpu_use_dp: 0]
[num_gpu: 1]

end of parameters

pandas_categorical:[]
