tree
version=v4
num_class=1
num_tree_per_iteration=1
label_index=0
max_feature_idx=9
objective=binary sigmoid:1
feature_names=lag_6 lag_3 lag_12 lag_11 lag_5 lag_17 rol_mean_15 lag_19 lag_1 lag_13
feature_infos=[1:10938.01] [1:10938.01] [1:10938.01] [1:10938.01] [1:10938.01] [1:10938.01] [1.4060000000000152:735.71333333333337] [1:10938.01] [1:10938.01] [1:10938.01]
tree_sizes=8398 8392 8376 8390 8403 8348 8345 8418 8348 8407 8396 5588 7579 8444 8448 8418 7452 8461 7736 7324 8511 8439 8479 8441 8441 8460 8401 8444 8500 8520 8464 8503 8495 7838 5905 8503 8437 8473 8478 8439 8497 8517 8512 8419 8513 8473 8468 8490 8504 8506 8468 8486 8486 8504 8492 8506 8509 8499 8462 8490 7454 8489 8532 8470 8514 8509 8485 8505 8453 8483 8478 8526 8519 8485 8469 8521 8521 8526 8510 8560 8476 8506 8484 8473 8538 8538 8510 8538 8512 8511 8529 8529 8526 8512 8491 8494 8510 8528 8485 8497

Tree=0
num_leaves=81
num_cat=0
split_feature=8 3 2 6 4 8 2 2 7 4 2 8 6 8 8 7 2 8 3 7 2 4 2 8 6 8 3 6 6 3 3 2 6 8 8 6 3 3 3 4 4 3 4 6 6 6 3 8 8 3 3 8 8 7 4 2 6 3 8 7 7 3 6 2 2 2 2 2 2 3 2 2 2 2 2 2 2 3 3 3
split_gain=3292.34 5467.8 2663.61 5335.65 2847.17 5760.88 6235.64 5715.38 2124 3924.85 1648.68 6725.56 1605.52 1735.18 5324.16 1869.63 12934.9 6350.22 2003.06 1606.65 3986.69 1205.26 2117.46 3592.27 2251.13 1195.1 4142.16 1524.49 4964.51 2308.88 2424.87 1091.41 3351.08 1074.63 3813.48 1040.52 3351.94 966.809 3409.72 905.934 889.545 3594.38 845.14 1390.1 2652.68 977.951 3152.11 679.344 1713.08 3085.25 630.098 1397.59 3697.06 883.881 570.576 353.845 506.898 197.805 296.57 397.913 150.355 85.6135 85.2359 1.77636e-15 1.77636e-15 1.77636e-15 8.88178e-16 8.88178e-16 8.88178e-16 8.88178e-16 4.44089e-16 4.44089e-16 4.44089e-16 4.44089e-16 4.44089e-16 4.44089e-16 4.44089e-16 4.44089e-16 4.44089e-16 4.44089e-16
threshold=1.0050000000000001 40.730000000000011 1.4450000000000001 26.024000000000001 7.1250000000000009 1.655 1.4950000000000003 2.0250000000000004 1.0450000000000002 4.9150000000000009 1.3700000000000003 1.5400000000000003 2.1893333333333413 3.0200000000000005 2.7700000000000005 1.2800000000000002 3.1550000000000007 1.7300000000000002 1.175 13.750000000000002 1.5400000000000003 1.0600000000000003 1.7800000000000002 1.0450000000000002 2.701000000000001 16.685000000000006 1.0750000000000004 5.1486666666666752 4.5780000000000092 1.0150000000000003 3.9100000000000006 1.5600000000000003 17.870333333333335 5.0550000000000006 83.215000000000018 8.5403333333333347 8.8300000000000018 1.4450000000000001 3.1100000000000003 1.4950000000000003 5.2000000000000011 1.0150000000000003 3.5350000000000006 16.371000000000002 6.7256666666666671 11.555000000000003 22.350000000000005 3.2950000000000004 1.8250000000000004 1.1900000000000002 1.1100000000000003 30.610000000000003 301.01000000000005 6.4450000000000012 1.1250000000000002 2.6450000000000005 2.3640000000000092 1.2950000000000002 1.0450000000000002 1.0150000000000003 8.1050000000000022 8.3400000000000016 3.1316666666666673 20.225000000000005 31.495000000000001 6.0850000000000009 1.3350000000000002 1.3900000000000001 3.6900000000000008 5.1250000000000009 1.175 1.8250000000000004 2.4350000000000005 8.7050000000000018 1.2250000000000003 2.6900000000000004 6.3550000000000013 2.7700000000000005 1.3200000000000003 1.8250000000000004
decision_type=2 2 2 2 2 2 2 2 2 2 2 2 2 2 2 2 2 2 2 2 2 2 2 2 2 2 2 2 2 2 2 2 2 2 2 2 2 2 2 2 2 2 2 2 2 2 2 2 2 2 2 2 2 2 2 2 2 2 2 2 2 2 2 2 2 2 2 2 2 2 2 2 2 2 2 2 2 2 2 2
left_child=1 66 3 8 12 6 -6 71 9 -2 25 35 39 14 15 16 17 18 -14 31 -21 37 24 -24 -23 27 -27 28 29 -10 -31 32 78 47 75 36 77 62 -39 57 41 -41 45 44 -44 54 -47 48 -9 -50 55 53 -53 -52 -29 56 -33 -4 -59 -60 -57 -49 -17 -8 65 -18 -1 -13 -16 -69 -5 -7 -19 79 -30 -35 -51 -12 -15 -22
right_child=2 -3 4 70 5 7 63 33 10 -11 11 67 13 19 68 21 64 72 -20 20 73 22 23 -25 -26 26 -28 42 74 30 -32 50 -34 34 -36 -37 -38 38 -40 40 -42 -43 43 -45 -46 46 -48 61 49 76 51 52 -54 -55 -56 60 -58 58 59 -61 -62 -63 -64 -65 -66 -67 -68 69 -70 -71 -72 -73 -74 -75 -76 -77 -78 -79 -80 -81
leaf_value=-3.9757608649589198 -3.9757608649589198 0.78273226808924212 0.80180013884877477 -3.9757608649589198 0.60400952319438472 -3.9757608649589198 -3.9757608649589198 0.5614070084012055 -3.9757608649589198 0.17526506542618447 -3.9757608649589193 -3.9757608649589198 -3.9757608649589198 -3.9757608649589193 -3.9757608649589198 0.83356251463320996 -3.9757608649589198 -3.9757608649589198 0.42194488255969409 0.73675648952528272 -3.9757608649589193 -3.9757608649589198 -3.9757608649589198 -0.1558695801668053 0.4549329715821302 0.66943481375333436 -3.9757608649589198 -0.54093306478089209 -3.9757608649589198 -0.028862569505420321 -1.342856419470833 0.90169459507827243 0.66943481375333436 -3.9757608649589193 0.8296139733143808 0.77115442604303164 0.73675648952528183 -3.9757608649589198 0.36618762114475922 0.75963278711293869 0.85340295739751992 -3.9757608649589198 -3.9757608649589193 0.60400952319438472 -0.34939991767274581 -3.9757608649589198 0.66943481375333436 0.47176691455754094 0.19300449230868777 -3.9757608649589193 0.32684627545431288 -3.9757608649589198 0.66943481375333436 -0.84918683949887264 0.46838990033281425 0.54388898590660384 -0.52879586416996371 0.85340295739751904 0.7827322680892439 -0.47937701151025447 0.88145619090631966 0.82961397331438169 0.55087993687909753 -3.9757608649589193 -3.9757608649589193 -3.9757608649589198 -3.9757608649589198 -3.9757608649589198 -3.9757608649589193 -3.9757608649589193 -3.9757608649589198 -3.9757608649589193 -3.9757608649589193 -3.9757608649589193 -3.9757608649589193 -3.9757608649589198 -3.9757608649589193 -3.9757608649589193 -3.9757608649589193 -3.9757608649589193
leaf_weight=1.1334627214819173 3.95717686973512 4.0764887798577547 44.662408780306578 1.7697926703840487 4.2355712670832864 2.5652051065117116 7.576303454115985 12.826025666669013 1.5112836286425579 4.6730481069535017 1.4516276959329872 1.2925452087074507 0.99426554515957732 0.77552712522447054 2.0283017121255393 24.200423637405038 4.2355712223798001 2.5453197956085201 48.520159095525742 4.116259401664137 1.13346272148192 1.093692099675535 2.346466686576604 177.73491041734815 78.805487914010882 4.1759153343737117 3.1816497445106506 5.6474283412098876 2.3066960647702213 127.78300902619958 14.735015468671916 3.9770622253417951 4.1759153343737125 0.6761005707085127 4.0367181580513716 8.1728628706186992 4.1162594016641378 1.9487604685127724 13.402699682861565 4.0963740907609445 4.01683284714818 2.386237308382988 2.3066960647702244 8.4711425341665727 10.698297355324028 2.0481870230287305 4.1759153343737125 13.084534708410503 4.6531627960503092 1.5908248722553255 193.86189791746438 2.6248610392212859 4.1759153343737125 6.2042170464992514 78.566864183172584 25.75147788785398 5.6275430303066969 8.0336656942963618 4.0764887798577529 5.5480017866939306 23.961799906566739 12.110154474154113 17.141138177365065 0.65621525980532158 0.6363299489021309 3.8577503152191639 3.9969474915415049 3.2810762990266085 1.2130039650946853 0.77552712522447098 1.8493339139968155 0.81529774703085411 0.89483899064362038 0.61644463799893845 1.0539214778691528 1.8493339139968155 1.0141508560627697 0.71587119251489628 1.4715130068361757 1.1135774105787275
leaf_count=57 199 6 57 89 14 129 381 48 76 36 73 65 50 39 102 23 213 128 251 8 57 55 118 1973 381 11 160 85 116 1252 343 1 11 34 4 13 8 98 77 7 3 120 116 28 140 103 11 61 35 80 1192 132 11 113 369 101 84 6 6 80 11 12 66 33 32 194 201 165 61 39 93 41 45 31 53 93 51 36 74 56
internal_value=-0.0423995 -1.86887 -0.0271179 -0.274323 0.0649925 -0.536897 -2.41995 -0.111734 -0.228928 -1.72809 -0.183764 -1.03753 0.120498 0.0728939 -0.0615965 -0.0280647 -0.516573 0.0536804 0.333638 0.256455 -1.19658 0.0670908 -0.0212689 -0.205643 0.394284 -0.120352 -1.3393 -0.0857657 -0.290689 -0.204706 -0.164717 0.293658 -0.955665 0.140235 -1.01973 0.0496494 -0.888764 0.472287 -0.184992 0.552734 -0.280719 -0.983457 0.184116 -0.362831 -0.992608 0.313998 -0.859176 0.308346 -0.11243 -1.30318 0.323804 0.243897 -1.12345 0.290377 0.400704 0.602474 0.0635397 0.69315 0.418343 0.0551941 0.706596 0.643771 0.716356 -3.97576 -3.97576 -3.97576 -3.97576 -3.97576 -3.97576 -3.97576 -3.97576 -3.97576 -3.97576 -3.97576 -3.97576 -3.97576 -3.97576 -3.97576 -3.97576 -3.97576
internal_weight=1109.62 9.2069 1100.41 298.717 801.696 67.6896 12.4681 55.2215 295.098 8.63022 286.468 19.8058 734.007 661.187 381.599 378.358 61.6842 52.9546 49.5144 279.587 6.97974 316.674 259.981 180.081 79.8992 266.662 7.35757 259.304 147.39 144.029 142.518 272.608 6.42296 51.841 6.56215 14.4566 6.28376 56.693 15.3515 72.82 10.4994 6.48261 111.915 21.4761 13.005 90.4384 6.2241 45.2789 20.0842 7.25814 266.185 206.867 6.80078 200.066 84.2143 59.3179 9.60461 62.3206 17.6582 9.62449 49.7133 25.1947 41.3416 8.23252 8.72965 8.09332 5.13041 5.34915 3.24131 4.0566 3.61913 3.3805 3.44016 2.86348 3.36062 2.52543 2.60498 2.1675 2.24704 2.24704
internal_count=11026 264 10762 3679 7083 1016 428 588 3497 235 3262 399 6067 5788 3867 3704 913 474 301 1921 152 2791 2527 2091 436 2863 171 2692 1840 1671 1595 1769 124 418 131 130 117 264 175 279 130 127 852 284 256 568 114 287 214 166 1645 1448 143 1305 454 197 85 149 92 86 112 73 89 414 439 407 258 269 163 204 182 170 173 144 169 127 131 109 113 113
is_linear=0
shrinkage=1


Tree=1
num_leaves=81
num_cat=0
split_feature=5 0 8 6 5 6 5 6 4 4 8 6 4 6 6 7 8 7 4 8 7 6 8 7 7 5 4 0 5 5 6 5 8 8 5 7 8 7 0 8 4 4 7 7 4 7 6 7 4 6 5 5 6 5 0 5 4 8 8 5 6 5 5 6 0 6 8 8 6 5 6 7 4 6 0 0 0 6 8 0
split_gain=398.758 205.397 189.142 435.339 200.665 273.285 137.697 224.986 102.883 266.998 450.316 138.455 218.19 114.225 255.185 97.0439 85.4867 169.314 254.159 85.2227 83.4999 160.25 78.7275 378.975 173.73 184.721 401.953 134.494 262.104 78.5686 242.239 62.2957 128.632 152.823 171.068 97.2616 241.397 94.5115 74.8321 206.327 63.8207 77.7315 60.5749 86.4474 475.853 175.119 59.5278 57.2612 107.161 63.6512 240.05 56.9096 124.9 51.2534 69.5745 48.0621 46.2219 203.461 44.8626 166.131 47.8597 44.3352 52.2528 206.22 41.7821 353.826 41.6045 42.4148 153.727 40.7975 39.7987 39.4366 36.7632 36.611 31.8965 60.2275 183.967 30.9474 41.8274 193.495
threshold=51.930000000000007 1.5600000000000003 5.2000000000000011 4.3696666666666681 1.2550000000000001 2.1120000000000081 1.0450000000000002 1.9243333333333335 1.7800000000000002 1.4100000000000001 4.9850000000000003 9.3593333333333444 97.375000000000014 3.2946666666666746 2.8690000000000002 3.2450000000000006 2.7300000000000004 3.2450000000000006 1.3900000000000001 1.7050000000000003 2.3700000000000006 1.9243333333333335 1.3350000000000002 5.0550000000000006 2.4700000000000006 1.3200000000000003 5.2000000000000011 1.9100000000000001 1.2950000000000002 2.3350000000000004 4.7410000000000005 1.3900000000000001 5.2000000000000011 14.560000000000002 1.2250000000000003 7.2300000000000013 3.3700000000000006 3.1550000000000007 23.000000000000004 1.9950000000000001 1.0300000000000002 1.2950000000000002 11.420000000000002 2.2350000000000008 1.5800000000000003 2.1750000000000003 6.7256666666666671 4.6400000000000015 5.1250000000000009 2.2243333333333335 19.375000000000004 1.1900000000000002 8.5403333333333347 2.0450000000000004 1.4950000000000003 2.0850000000000004 24.705000000000002 3.7450000000000006 1.7800000000000002 11.100000000000001 2.0873333333333339 4.7750000000000012 1.1250000000000002 2.4400000000000008 5.2000000000000011 9.0563333333333365 1.9950000000000001 2.1450000000000005 10.066999999999998 5.6700000000000008 3.5396666666666667 3.7950000000000004 3.1550000000000007 2.8176666666666672 1.5800000000000003 3.2000000000000006 2.8750000000000004 17.870333333333335 381.17000000000002 1.6100000000000003
decision_type=2 2 2 2 2 2 2 2 2 2 2 2 2 2 2 2 2 2 2 2 2 2 2 2 2 2 2 2 2 2 2 2 2 2 2 2 2 2 2 2 2 2 2 2 2 2 2 2 2 2 2 2 2 2 2 2 2 2 2 2 2 2 2 2 2 2 2 2 2 2 2 2 2 2 2 2 2 2 2 2
left_child=1 2 6 4 71 -6 7 -1 9 16 -11 13 -13 14 20 29 17 58 -19 22 72 -22 27 24 25 51 -27 28 -3 30 -15 32 35 34 -34 37 73 40 66 -40 -21 -42 43 45 55 64 -31 48 49 -26 -51 52 -24 -17 -55 -45 57 -39 60 -60 -8 62 -18 -64 -29 -66 69 68 -68 74 -43 -4 -10 -37 -33 76 -76 -69 79 -79
right_child=-2 19 3 -5 5 -7 8 -9 11 10 -12 12 -14 15 -16 53 61 18 -20 31 21 -23 23 -25 47 26 -28 42 -30 46 -32 38 33 -35 -36 36 -38 56 39 -41 41 70 -44 44 -46 -47 -48 -49 -50 50 -52 -53 -54 54 -56 -57 -58 -59 59 -61 -62 -63 63 -65 65 -67 67 77 -70 -71 -72 -73 -74 -75 75 -77 -78 78 -80 -81
leaf_value=0.13408085374567408 -0.19987937723094124 0.11300903597434193 0.088064641608156205 -0.21124399531556734 0.13646114537235546 -0.2115868904757634 -0.19804763081968602 -0.19835156909074689 0.088961171917908213 -0.19487143853428221 0.13110453214273748 -0.20314374804076588 0.1313880840289714 -0.19581019564077856 -0.19001440315146489 0.19108788909906102 0.15341372130350733 -0.19802941710901306 0.13058765444619416 0.23907214153901868 0.12482949888906525 -0.18125951650236596 -0.19911476561303462 -0.19359277510783429 0.1354560523932184 -0.19793617392685364 0.10975145467552834 0.13740062131105063 -0.19449312798776963 0.11021408715419996 0.114960898538106 0.20439530425581226 -0.21467605395614867 0.13741045700360668 0.079609007204246615 0.19843443309084774 0.36029465718585585 -0.20439265642505106 0.14327400873240173 -0.21499816062173038 0.055635409006148814 0.09256890099512094 0.17490145735843021 0.05273747218962592 -0.19011330923898012 0.24698681994325106 0.18696446691246277 0.20038559161062167 0.20403454741416135 -0.19598639509458191 0.14949896724423295 0.14251736522053257 0.11608374524659144 0.04733967134577368 0.20164150466607539 0.14216596624117464 0.14986680495078186 0.13818339371523244 -0.19573373401794786 0.12913766757607445 0.11849357260473788 0.17159985163054259 0.15104187169963965 -0.20800921210232395 -0.1989750846381837 0.15047955764775978 -0.19121085503035348 0.13307551342436535 0.14031030318270368 0.17848585968788194 0.16821673842399076 0.1862357317169861 0.15758013611333313 0.086774636448878451 -0.19671941961241174 0.1433382401903335 0.14509168491736443 0.140285265211503 0.13387401106761029 -0.21582714902712052
leaf_weight=42.360943287611008 35.739724807441235 106.51956136524677 61.555237900465727 56.525659434497356 43.288714922964573 41.632180489599705 4.5265523418784133 34.954046968370676 112.60169353336096 75.557153306901455 84.393213856965303 29.626862369477749 48.144014921039343 26.597128812223673 28.0238530151546 512.82683276757598 98.827282935380936 44.571720961481333 43.992042522877455 97.944846134632826 45.807392153888941 24.801587376743555 15.852716173976658 40.833247251808643 86.7584093734622 67.115388799458742 98.639330733567476 945.553940564394 34.527234088629484 178.45258416235447 209.01236387342215 50.46253602579236 26.984252579510212 250.3523842394352 59.673667930066586 51.174734923988581 78.519525919109583 24.185794927179813 49.434067346155643 21.784512102603912 66.377877794206142 69.674273885786533 313.25460386276245 67.951351217925549 49.9708610214293 132.68991094455123 203.43186737969518 152.80021211132407 102.52610391005874 30.923452030867338 48.734010815620422 193.74506638944149 46.561015702784061 59.767266266047955 50.899366360157728 336.43359629809856 46.567264527082443 50.073821075260639 20.82245896011591 51.259374141693115 610.83644169941545 251.09770596027374 50.901302855461836 21.363124202936888 33.335824478417635 149.44079091772437 17.84685992449522 2761.3118538707495 50.07811039313674 353.22305301576853 1072.0979429669678 102.74241594597697 211.22304190695286 60.020548541098833 21.205942284315825 256.65991962701082 49.126623477786779 46.88054296374321 83.593416661024094 20.686618763953447
leaf_count=3 212 104 65 488 5 228 25 211 125 441 10 232 29 167 156 119 17 226 9 30 19 142 91 210 9 394 102 478 240 238 189 5 148 160 66 8 34 117 15 143 112 123 127 110 345 25 50 21 38 153 6 58 24 112 13 87 6 22 142 21 376 38 13 134 243 75 112 1697 18 90 297 20 95 69 136 124 11 6 9 158
internal_value=0.12362 0.124562 0.104627 0.0317679 0.0868858 -0.0341682 0.11164 -0.0162116 0.114829 0.0948207 -0.0228796 0.130436 0.00394798 0.13635 0.0927889 0.151178 0.110533 0.0914241 -0.0347963 0.13246 0.112882 0.0173149 0.119372 0.0949832 0.10895 0.0649464 -0.0148337 0.129315 0.0377347 0.123925 0.079879 0.139429 0.153493 0.0989843 -0.0120279 0.164856 0.230099 0.156181 0.132164 0.0336848 0.163773 0.157669 0.135682 0.12852 0.0922468 0.141589 0.151099 0.152972 0.126034 0.0779797 0.0153797 0.11657 0.0360252 0.17817 0.118308 0.127139 0.0741131 0.026609 0.107685 0.0352913 0.116165 0.145656 0.10758 0.0448976 0.129195 0.0867441 0.134054 0.128969 0.0532052 0.154795 0.1636 0.149455 0.13372 0.138163 0.132624 0.121548 0.0420324 0.130736 0.0880051 0.0312565
internal_weight=12308.3 12272.5 3482.42 305.744 249.219 84.9209 3176.68 77.315 3099.36 1358.15 159.95 1741.22 77.7709 1663.44 422.458 1240.99 1198.2 776.009 88.5638 8790.11 394.434 70.609 3054.17 884.489 843.656 421.914 165.755 2169.68 141.047 617.494 235.609 5735.94 1953.65 337.01 86.6579 1616.64 189.715 1426.92 3782.29 71.2186 1306.09 1208.15 2028.63 1715.38 454.356 1261.02 381.884 421.742 268.942 166.416 79.6575 256.159 62.4137 623.493 110.667 404.385 120.827 74.2596 687.445 72.0818 615.363 422.189 171.092 72.2644 1128.33 182.777 3711.08 2980.4 67.925 730.678 1141.77 164.298 323.825 111.195 377.455 326.992 70.3326 2912.47 151.161 67.5672
internal_count=11026 10814 4158 806 318 233 3352 214 3138 1452 451 1686 261 1425 537 888 1001 799 235 6656 381 161 2940 1106 896 669 496 1834 344 644 356 3716 1192 374 214 818 111 707 2524 158 562 532 1490 1363 542 821 288 227 206 168 159 173 115 244 125 197 145 139 564 163 401 202 164 147 796 318 2366 2000 130 366 420 85 220 77 276 271 147 1870 173 164
is_linear=0
shrinkage=0.0969897


Tree=2
num_leaves=81
num_cat=0
split_feature=1 1 4 3 9 9 8 4 9 3 8 8 1 1 4 6 8 4 6 6 4 3 3 9 6 4 9 9 6 8 6 6 9 3 8 9 3 8 9 8 1 6 4 3 4 1 3 4 8 6 9 1 3 9 8 3 1 1 1 8 9 4 6 1 4 9 8 8 6 8 3 3 3 1 8 3 3 8 4 9
split_gain=158.192 224.119 333.899 176.353 282.345 87.6561 109.214 173.497 89.7741 290.32 147.737 236.551 76.7367 564.845 121.007 300.419 257.28 113.317 244.13 103.23 370.92 89.3918 425.395 222.502 73.8087 63.2666 60.1 84.1532 253.762 61.3785 54.1858 114.937 269.331 181.471 118.537 386.452 82.2217 257.383 53.3836 305.188 56.5322 109.097 231.792 50.7233 184.196 48.0995 156.15 46.6628 205.107 45.5823 136.038 43.2703 447.993 42.2823 40.6017 154.044 40.1143 69.0252 274.226 39.9063 39.3687 78.0549 36.1534 34.9616 31.9269 34.5672 35.365 146.487 28.8874 28.8869 46.4766 28.842 41.3998 29.6272 28.7122 26.1603 22.3747 25.4598 22.0629 34.4977
threshold=4.2600000000000007 5.0550000000000006 1.0050000000000001 1.1400000000000001 15.640000000000002 1.1600000000000001 7.5450000000000008 69.605000000000004 1.1250000000000002 8.5800000000000018 1.2800000000000002 1.0450000000000002 2.3350000000000004 2.1450000000000005 2.5750000000000006 3.2660000000000076 4.705000000000001 1.7300000000000002 2.5470000000000081 5.7506666666666675 1.175 1.9650000000000001 1.2050000000000003 1.4300000000000002 4.1920000000000082 1.0050000000000001 1.5600000000000003 3.4850000000000003 2.9506666666666672 1.9350000000000003 2.7166666666666681 5.6053333333333333 1.3350000000000002 1.3200000000000003 1.6100000000000003 1.3500000000000003 6.0850000000000009 29.745000000000005 8.8300000000000018 1.4300000000000002 1.1100000000000003 8.8080000000000016 1.0050000000000001 2.5750000000000006 1.0300000000000002 4.0200000000000005 8.8300000000000018 7.0200000000000005 381.17000000000002 10.361333333333336 107.61500000000001 1.2800000000000002 18.300000000000004 1.5200000000000002 1.0150000000000003 1.0150000000000003 1.0050000000000001 1.5600000000000003 1.2250000000000003 1.7300000000000002 1.8800000000000001 1.1600000000000001 3.446333333333341 1.7550000000000001 6.0850000000000009 1.8250000000000004 21.725000000000005 4.5750000000000011 3.9070000000000085 3.0200000000000005 5.6700000000000008 3.2000000000000006 3.2950000000000004 1.2950000000000002 1.7050000000000003 1.175 1.3350000000000002 1.2800000000000002 6.6350000000000007 1.1900000000000002
decision_type=2 2 2 2 2 2 2 2 2 2 2 2 2 2 2 2 2 2 2 2 2 2 2 2 2 2 2 2 2 2 2 2 2 2 2 2 2 2 2 2 2 2 2 2 2 2 2 2 2 2 2 2 2 2 2 2 2 2 2 2 2 2 2 2 2 2 2 2 2 2 2 2 2 2 2 2 2 2 2 2
left_child=5 2 -2 4 -3 6 8 -8 10 59 11 -1 13 14 17 16 -16 38 -19 20 -14 22 47 -23 71 -5 29 28 45 54 -27 32 -32 -33 43 -36 76 -38 40 -40 60 53 -43 44 -34 46 -28 48 -17 -25 -51 -26 -53 -42 -22 -56 -12 58 62 -10 74 -62 -58 -59 65 66 67 -21 -29 70 -65 73 -73 -20 -7 -49 -35 -78 -66 -80
right_child=1 3 -4 25 -6 12 7 -9 9 -11 56 -13 19 -15 15 21 -18 18 24 64 26 23 -24 49 51 30 27 68 -30 -31 31 33 34 36 35 -37 37 -39 39 -41 41 42 -44 -45 -46 -47 -48 75 -50 50 -52 52 -54 -55 55 -57 57 63 -60 -61 61 -63 -64 69 78 -67 -68 -69 -70 -71 -72 72 -74 -75 -76 -77 77 -79 79 -81
leaf_value=0.11305364662133639 0.1469336729197078 -0.19645693743736928 -0.19648533608282021 0.16504657166524131 0.13596149639987226 0.096268953242627242 -0.20366910757325357 0.13189263549512587 0.15730089595094904 0.34603072564078319 0.17908491027175133 -0.18951132623356576 -0.19537850952409888 -0.20191588745844874 -0.18680840020022724 -0.19428277144241002 0.092812744646407291 -0.18808856011925656 0.18072123633840245 -0.21043330844105609 0.14814523767012097 -0.20069875605349552 -0.19831391074156315 0.1319078173432563 0.1369169291848979 0.1393166901437132 -0.18955504499083378 0.13587051168908182 -0.19565655087252631 0.16320190065982068 -0.19494665353715948 -0.19949536398465009 0.14648808443633921 0.18708488567993573 0.17667936890392069 -0.19510195365061353 -0.21270651144950037 0.15673709129045807 0.11744252748247948 -0.19929064522611192 0.071303901708912626 0.12826408533058625 -0.20986083582969356 0.12442136557502853 -0.18579910745261349 0.14366871503229753 0.13762692369631133 0.086951513003512948 0.13212742156209401 -0.20390122086873189 0.13388201968167018 -0.20918229441148506 0.15623439295550065 0.11295637546612863 0.1366336199844424 -0.18705616814349821 0.14226197631034657 0.17595720057712713 -0.19198766172567264 0.071193184949125701 0.1350937197632805 0.011237086173337737 0.056409924784875332 0.064799034416547552 0.19395526481888384 0.14570219758996911 0.15258348087512297 0.12388166765980478 0.062959322311626487 0.14710758738732274 0.15444799316995558 0.18268570613235957 0.065472921576451723 0.14106889321614299 0.15296775244027963 0.17090946878281577 0.059212086959262826 0.12538573874690448 0.21083222202240204 0.11200616849346319
leaf_weight=85.046428649686277 47.272783973254263 48.313968475908041 60.998607064597309 145.52619029395282 47.83241090644151 99.616118925623596 22.640745456330478 40.283432342112064 263.05992630403489 80.882750291377306 201.72740672808141 34.035150131210685 36.860224325209856 54.653043342754245 67.287360814400017 23.577396255917847 57.325304707512259 20.961225017905235 560.02782897558063 16.214851842261851 46.864635388366878 20.174090217798948 51.503194063901901 736.95084815099835 353.37013895902783 256.81293253973126 20.227333679795265 297.58479545451701 34.208682187832892 353.47225913405418 38.415512909181416 17.48510018363595 44.822247001342475 50.506607487797737 50.881347940303385 54.443127548322082 28.268326000310481 47.626138851046562 151.48505594581366 35.282934322021902 270.16074289940298 46.683592421934009 32.245450288057327 242.34027307294309 24.147360646165907 87.243216693401337 42.665705734863877 54.002367183566093 78.08599853515625 15.440371978096662 40.993847564794123 39.942122801207006 150.40384688787162 1514.3388300770894 41.439757786691189 20.758749343454838 200.11673929449171 252.63049708958715 28.996826784685254 62.697150245308876 154.90118352044374 69.268327229656279 59.969908731989563 122.01050578057766 200.70656528044492 792.31930311769247 48.047510303556919 51.451295491307974 61.719642997719347 486.71264502312988 98.169091461226344 50.1071557700634 65.272054171189666 259.34366268664598 536.55280223675072 98.755953650921583 59.01866771094501 746.33212472498417 49.712268006056547 100.20326728280634
leaf_count=77 8 306 384 36 22 78 173 4 110 26 20 196 218 337 403 148 56 146 102 100 8 140 434 455 166 105 116 147 234 113 230 121 3 4 7 349 174 14 91 216 353 13 212 103 158 5 4 106 2 131 7 224 27 945 5 124 75 65 173 98 92 154 96 181 11 280 14 24 110 91 31 2 107 126 115 24 121 407 3 130
internal_value=0.114022 0.0891908 -0.0465439 0.0969143 -0.0310802 0.118991 0.136945 0.0111542 0.140951 0.181564 0.130428 0.0265764 0.114421 0.108393 0.111393 0.0846784 -0.0581749 0.118929 0.14059 0.129371 0.106807 0.10058 0.0558854 0.117386 0.14525 0.103726 0.117878 0.0960133 0.042739 0.143576 0.0983538 0.0908626 0.0507866 0.110074 0.0734443 -0.0154976 0.115884 0.0191308 0.10777 0.0576075 0.111209 0.101715 -0.00987252 0.103536 0.030149 0.0970577 0.0324004 0.107344 0.0564276 0.125475 0.0414647 0.116836 0.0795555 0.10665 0.07997 0.0286022 0.138955 0.132471 0.0909248 0.140728 0.131773 0.096822 0.122466 0.144988 0.148069 0.13847 0.0889522 0.0437697 0.123346 0.13392 0.10477 0.161778 0.116376 0.168171 0.144089 0.141229 0.124464 0.120536 0.172928 0.144777
internal_weight=12060.4 2011.04 108.271 1902.77 96.1464 10049.4 2038.98 62.9242 1976.06 406.64 1569.42 119.082 8010.41 5708.71 5654.06 1244.1 124.613 4409.96 1499.43 2301.7 1043.05 1119.48 305.925 813.559 1478.47 1806.63 1006.18 543.649 184.345 462.535 1661.1 1404.29 455.05 949.237 416.634 105.324 931.752 75.8945 2910.54 186.768 2723.77 1863.43 78.929 311.31 68.9696 150.136 62.893 254.422 101.663 793.385 56.4342 543.716 190.346 1784.5 109.063 62.1985 1450.33 1248.61 289.083 325.757 860.338 224.17 260.087 959.523 1258.66 908.033 115.714 67.6661 359.304 706.892 220.18 934.751 115.379 819.371 636.169 152.758 855.857 805.351 350.622 149.916
internal_count=11026 2552 392 2160 328 8474 1416 177 1239 234 1005 273 7058 5412 5075 1906 459 3169 900 1646 1084 1447 714 733 754 1832 866 616 359 250 1796 1691 850 841 620 356 720 188 2269 307 1962 1523 225 264 161 125 120 280 150 593 138 417 251 1298 137 129 732 712 344 208 439 246 171 368 562 418 138 124 257 303 212 337 109 228 193 130 532 528 144 133
is_linear=0
shrinkage=0.0969897


Tree=3
num_leaves=81
num_cat=0
split_feature=5 9 9 6 8 4 8 8 5 4 5 4 6 4 4 4 9 6 8 8 5 6 3 8 8 6 6 5 4 4 6 9 8 3 5 3 9 9 6 6 8 6 4 8 5 8 6 6 3 5 3 4 8 4 4 6 3 4 8 8 4 3 6 3 8 3 3 8 8 3 8 9 4 4 6 6 8 8 9 8
split_gain=307.773 54.9084 141.428 204.643 140.353 186.617 69.941 435.024 83.8211 177.831 129.088 62.3479 95.3303 197.064 50.4015 217.762 135.928 44.6545 38.5812 138.344 276.191 51.4335 201.743 129.864 255.826 68.2024 60.1136 73.0722 217.996 78.8108 36.5671 122.586 31.3653 30.5759 28.5149 56.4984 27.383 170.365 24.9724 54.2492 38.6182 184.699 27.3824 24.4135 23.6529 12.5889 11.1723 91.7991 6.76743 5.71021 12.8943 115.737 7.15397 4.17595 2.7765 1.23728 1.18473 1.16691 1.07655 1.03045 0.560511 0.498853 0.483661 0.467017 0.429884 0.404142 0.356609 0.345721 0.334006 0.332225 0.330234 0.320167 0.317718 0.307885 0.300773 0.299179 0.297359 0.63509 0.279482 0.301676
threshold=51.930000000000007 1.1900000000000002 1.2250000000000003 2.1366666666666672 7.6550000000000002 69.605000000000004 2.7700000000000005 1.9650000000000001 1.1400000000000001 24.705000000000002 1.1600000000000001 1.7300000000000002 3.0563333333333422 1.0450000000000002 9.6200000000000028 14.980000000000002 1.5800000000000003 2.5273333333333414 16.325000000000006 11.420000000000002 1.0050000000000001 9.5123333333333431 1.1900000000000002 3.2450000000000006 10.935 45.977000000000011 8.3633333333333368 19.605000000000004 4.3550000000000013 2.5750000000000006 6.5173333333333341 107.61500000000001 1.6100000000000003 18.300000000000004 1.3500000000000003 5.5900000000000007 2.6200000000000006 3.0200000000000005 2.2943333333333338 3.5396666666666667 6.9200000000000008 2.4769999999999981 1.7550000000000001 7.5450000000000008 5.830000000000001 1.0900000000000003 6.4543333333333353 5.7506666666666675 1.6800000000000002 1.5800000000000003 1.0900000000000003 1.0050000000000001 22.350000000000005 1.7800000000000002 12.800000000000002 17.228333333333335 1.9650000000000001 1.2250000000000003 1.655 1.8250000000000004 2.2700000000000005 1.0750000000000004 26.024000000000001 3.4350000000000005 2.0850000000000004 3.0200000000000005 1.1600000000000001 1.7300000000000002 2.5750000000000006 1.2950000000000002 3.0200000000000005 1.6800000000000002 1.2550000000000001 1.1400000000000001 5.6400000000000015 5.4120000000000106 3.4350000000000005 5.1250000000000009 2.6200000000000006 1.7550000000000001
decision_type=2 2 2 2 2 2 2 2 2 2 2 2 2 2 2 2 2 2 2 2 2 2 2 2 2 2 2 2 2 2 2 2 2 2 2 2 2 2 2 2 2 2 2 2 2 2 2 2 2 2 2 2 2 2 2 2 2 2 2 2 2 2 2 2 2 2 2 2 2 2 2 2 2 2 2 2 2 2 2 2
left_child=1 4 3 -3 6 73 7 8 9 57 -10 12 44 -14 18 58 -17 -13 19 21 -21 26 78 25 -25 -24 27 29 -29 -4 45 55 -19 38 -28 -36 49 -38 -8 40 41 -40 43 -41 -12 -18 47 -47 54 52 -51 -52 -20 -50 -44 64 -54 -1 -16 -60 69 -61 -57 -43 -32 68 -62 74 -9 -39 72 -22 -2 -6 -5 -75 -63 -78 -23 -80
right_child=70 2 14 67 5 -7 33 65 10 -11 11 17 13 -15 15 16 30 32 36 20 71 22 23 24 -26 -27 34 28 -30 -31 31 -33 -34 -35 35 -37 37 60 39 42 -42 63 48 -45 -46 46 -48 -49 53 50 51 -53 56 -55 -56 62 -58 -59 59 61 66 76 -64 -65 -66 -67 -68 -69 -70 -71 -72 -73 -74 75 -76 -77 77 -79 79 -81
leaf_value=-0.23627822666108639 -0.19385054464734011 0.12096947986187723 0.11118870271322268 -0.17717812762544441 -0.17331088734749472 0.12686685505411288 0.17087937439592574 -0.2019161376017018 0.28459391458204619 0.13574793669512578 0.083060442920537089 0.044457374128620511 0.11765912679635576 -0.19218988310967905 -0.16522941246757178 -0.19614286332558406 0.15167934615593923 0.11287475911028538 0.14748804812081329 0.13989865688544856 -0.22440474334064259 -0.17663091285401963 0.082791107438912784 -0.21291629484530289 0.1376366946581612 0.15072975338720643 0.15597351859932032 -0.20195293025414512 0.13699938213039697 0.083743507449501098 -0.15663565808131624 0.12792737953381622 0.15334587935055433 0.18276030186503561 0.032662013998246864 0.1392224839805408 0.13268550462231646 -0.24823008685270342 0.12973401251905947 0.052317327485261064 0.13463899173238775 -0.21466521580983536 0.14359636488383482 0.14645249277441943 0.13922122384285934 -0.18493607828029762 0.12931057243244132 0.13184783686388676 0.14802078280654996 0.135922716689172 0.14957098736594399 -0.19613927270044168 0.11377527572858893 0.1214421519074762 0.15921533269093899 -0.26091461640370905 0.13027627658186719 -0.17967807784356002 -0.2446005550954598 -0.23002414573399271 -0.14688709068375064 -0.16044233720999512 -0.20071305558652608 -0.18443899062675517 -0.19589882044269682 -0.17693455876677916 -0.19757380879359254 -0.20311652690044388 -0.1771596543112687 -0.20889401421145154 -0.19355943388277483 -0.20497482497837968 -0.16714521975636962 -0.1898237285755151 -0.20562004259927374 -0.21118983608274702 -0.22943331654610302 -0.16994067840983385 -0.21356858660942032 -0.18402594338371142
leaf_weight=4.0759384622797397 5.672981237992647 41.451947106048465 5235.3761681690812 14.001035823486747 5.495547158643606 37.908936364576221 151.26472218520939 22.5100456988439 45.25833247974515 41.956194747239351 143.7514646500349 50.875058057717979 47.075007588602602 32.736737675964832 10.493762478232386 14.677306040190158 91.643869195133448 287.02043044473976 322.13332623708993 46.611072150990367 11.244177342392502 12.327331834472718 427.80400079675019 36.985778618603945 41.621284484863281 205.90172789059579 333.43562944047153 28.468535997904837 47.851915506646037 1212.1273860950023 5.4960595387965423 38.616541505791247 483.75324088800699 139.69905710592866 62.358038538135588 187.66451935563236 91.627036602236331 2.774473752826454 47.958870542235672 61.610320613719523 47.631424428895116 15.918401217088105 196.23339438717812 44.734298706054688 138.52751244790852 10.602634255774317 75.196215905249119 45.678846239112318 90.359725952148438 131.42859023530036 45.745749546214938 11.374650365673004 76.240757569670677 144.59326896630228 235.61401768494397 2.7783951899036756 88.377893905155361 21.505944684147835 4.4852073760703233 2.494619069620966 1.8391751628369082 3.8910076124593598 2.2901743408292532 6.8898293282836667 5.0184548702090979 15.597671887837349 4.5018735071644187 18.023991229943931 6.6384568428620687 7.4251646520569921 13.234844212420283 27.463356924243271 16.040084283798933 14.965404434129598 4.662315607070922 10.483761246316133 2.823653289116919 4.1967046996578574 5.7745399372652155 7.4421397335827351
leaf_count=26 34 15 3861 79 35 6 30 131 12 3 134 83 39 197 148 151 20 336 32 8 60 82 541 206 1 100 61 154 19 1639 87 7 90 26 110 47 33 25 20 90 11 86 53 1 34 145 4 30 2 15 4 139 43 73 19 28 38 125 22 15 14 65 45 38 68 98 65 124 42 84 75 149 103 101 38 93 17 56 42 44
internal_value=0.105914 0.106772 0.103229 -0.0266945 0.119226 -0.0173978 0.122954 0.107793 0.118055 0.0128559 0.123836 0.11769 0.0841589 -0.00943302 0.104353 0.066572 0.0915028 0.132466 0.105742 0.103714 -0.019125 0.105049 0.0806761 0.09028 -0.0273036 0.104866 0.10758 0.104912 0.0105657 0.106029 0.106727 0.0352684 0.138275 0.14015 0.137407 0.112645 0.126275 0.0809687 0.134441 0.128259 0.0671213 0.021677 0.137621 0.0919157 0.110621 0.124085 0.104851 0.0721702 0.144911 0.133532 0.119202 0.0807281 0.139082 0.131664 0.152118 -0.19435 0.122634 -0.188696 -0.189893 -0.204359 -0.205516 -0.190895 -0.233713 -0.205535 -0.175376 -0.189535 -0.182872 -0.193536 -0.196278 -0.219594 -0.181483 -0.210619 -0.174123 -0.19413 -0.184283 -0.198625 -0.181949 -0.193869 -0.187136 -0.196934
internal_weight=11740 11705.1 9112.45 78.1393 2592.64 68.8536 2523.79 1341.28 1296.54 67.5381 1229 1183.74 362.091 79.8117 9034.31 320.383 291.998 821.649 8713.93 7930.46 85.3186 7845.14 737.857 712.313 78.6071 633.706 7107.28 6523.82 76.3205 6447.5 277.321 54.1996 770.774 1182.51 583.458 250.023 783.469 108.168 1042.81 891.544 118.399 70.7671 773.145 106.345 282.279 223.122 131.478 56.2815 666.8 675.301 188.549 57.1204 486.752 234.953 431.847 15.5831 164.619 25.5819 28.385 17.8912 16.5407 13.406 5.06857 22.8082 10.5145 44.7462 6.34105 36.6873 29.1485 10.1996 34.9479 38.7075 21.7131 30.9447 18.6634 25.4492 10.9114 7.02036 25.544 13.2167
internal_count=11026 10814 8780 256 2034 235 1799 1350 1079 154 925 913 404 236 8524 908 585 509 7616 7124 217 6907 1016 848 207 641 5891 5673 173 5500 434 235 426 449 218 157 492 221 423 393 155 144 238 91 168 199 179 175 147 271 158 143 113 75 72 228 81 151 323 175 188 153 73 124 155 271 79 241 173 109 212 209 137 229 117 194 138 73 168 86
is_linear=0
shrinkage=0.0969897


Tree=4
num_leaves=81
num_cat=0
split_feature=8 2 8 3 0 7 3 7 7 0 2 7 7 4 8 4 0 2 0 4 7 4 2 2 3 3 2 8 3 3 7 4 8 2 3 4 8 2 3 2 3 3 7 0 0 7 2 0 2 3 4 4 7 0 2 3 4 8 4 8 3 3 2 2 4 2 7 2 8 2 2 2 3 8 7 8 7 4 3 4
split_gain=2510.26 10640 1493.97 4396.43 19877.1 5375.16 5225.15 276.323 583.729 136.63 503.48 2624.79 12689.3 516.095 2693.73 4347.91 615.084 5265.07 323.995 369.295 224.423 501.71 204.612 110.566 281.312 162.845 204.482 95.7548 199.755 178.205 174.984 177.589 163.702 295.486 186.396 154.157 141.184 1087.99 4219.49 132.465 753.915 123.399 108.328 342.622 87.2454 195.577 82.0165 187.853 80.0314 238.669 68.7695 62.6507 53.9708 52.2326 46.2665 43.5982 38.3167 32.38 24.0299 23.039 24.7625 15.798 9.31065 2.40419 2.32853 1.78343 1.72867 1.34453 1.12857 1.00712 0.72309 0.660811 0.653663 0.610952 0.503562 0.496931 0.947528 0.48223 0.469132 0.448536
threshold=1.0050000000000001 5.830000000000001 35.815000000000005 1.2950000000000002 2.2350000000000008 8.1050000000000022 1.3350000000000002 97.375000000000014 113.94500000000001 1.1600000000000001 5.2000000000000011 1.9100000000000001 1.7550000000000001 3.6350000000000002 1.1600000000000001 4.0200000000000005 1.0450000000000002 3.1100000000000003 1.4950000000000003 1.1400000000000001 1.6300000000000001 1.2550000000000001 5.6700000000000008 1.4100000000000001 5.4200000000000008 3.1550000000000007 1.4300000000000002 1.4300000000000002 1.5800000000000003 2.0250000000000004 8.5800000000000018 1.0300000000000002 1.1250000000000002 2.0450000000000004 5.5900000000000007 1.0150000000000003 1.6300000000000001 1.4450000000000001 15.640000000000002 12.620000000000003 5.3500000000000005 2.0450000000000004 1.1900000000000002 1.9350000000000003 1.9100000000000001 1.0050000000000001 2.9350000000000005 1.0050000000000001 1.6300000000000001 2.0850000000000004 3.3400000000000003 1.2350000000000001 1.8800000000000001 12.985000000000001 1.2250000000000003 1.0150000000000003 1.0450000000000002 4.4450000000000012 1.2250000000000003 3.3400000000000003 1.0450000000000002 1.8050000000000004 1.2350000000000001 1.4450000000000001 1.1600000000000001 1.7300000000000002 1.2550000000000001 1.3900000000000001 427.19000000000005 1.6300000000000001 3.5850000000000004 1.4450000000000001 14.980000000000002 3.0200000000000005 1.1900000000000002 1.5800000000000003 1.4450000000000001 1.2950000000000002 3.2450000000000006 1.1400000000000001
decision_type=2 2 2 2 2 2 2 2 2 2 2 2 2 2 2 2 2 2 2 2 2 2 2 2 2 2 2 2 2 2 2 2 2 2 2 2 2 2 2 2 2 2 2 2 2 2 2 2 2 2 2 2 2 2 2 2 2 2 2 2 2 2 2 2 2 2 2 2 2 2 2 2 2 2 2 2 2 2 2 2
left_child=1 -1 7 58 5 6 -5 9 -9 10 13 12 73 46 15 -15 57 -18 19 67 21 64 -13 24 78 52 -27 28 44 30 35 -32 42 34 -34 65 37 38 -31 50 -41 -39 62 -44 45 -20 48 -48 49 51 -38 -2 -25 54 -46 -37 -55 -16 -4 61 -61 -50 -30 -51 -21 -29 -35 -11 72 -69 -49 -23 -8 77 -73 76 -71 -12 -22 -47
right_child=2 -3 3 4 -6 -7 68 8 -10 18 11 22 -14 14 16 -17 17 -19 27 20 23 71 -24 25 -26 26 -28 29 32 36 31 -33 33 66 -36 55 39 41 -40 40 -42 -43 43 -45 53 79 47 70 59 63 -52 -53 -54 56 -56 -57 -58 -59 -60 60 -62 -63 -64 -65 -66 -67 -68 69 -70 75 -72 74 -74 -75 -76 -77 -78 -79 -80 -81
leaf_value=0.10037300396348658 0.12609973220426465 3.5189799116192275 0.17986253475464742 5.1718125318601507 0.09899729343177234 6.6999252478190536 -0.098540900472124132 0.4935781157171853 0.05138784122781391 -0.17326509496647718 -0.21185861042569559 0.14802215754040712 4.1169349518783589 3.8962030038447497 0.06464868119813251 -0.17366148691112984 -0.1851937647101807 3.1751432187297515 0.1388557593192454 0.11630199571879174 -0.19029914382581953 -0.1837621835994151 -0.18909280824213451 0.16595740499053643 0.11287068867881847 0.12976895546824721 -0.19168716566561705 -0.17343690349858987 0.15822416102526693 -0.17927825430098568 0.10905964888677185 -0.18797049134018715 -0.065399075454746144 -0.22767922980914126 0.11163766459946198 0.017877764142614747 0.12984364130531281 0.29972728899083101 2.9591628586903864 0.76804252563361342 0.12027586423334914 0.12150425725594578 0.10994344711951155 -0.20371226278495372 0.040279169845741508 -0.22070057542926183 0.11565531172392356 -0.21512325530803267 0.094962827801773217 -0.17493953136601081 0.085402585139287404 0.020063561820695925 0.10370903304666866 0.24844993372051399 0.12127596586672443 0.10793954150588403 0.14340935377959191 0.15122669232326999 0.11313286718539242 0.12003860374786582 0.036672413489696735 0.13377877105192243 0.11923392814632618 -0.237676312096226 0.089322162657814883 -0.24624877822555277 -0.18322128313220912 -0.26155185614192689 -0.25148105376948299 -0.26053805882502062 -0.18399387460689079 -0.21308206020121492 -0.22274674423156302 -0.21540402703110026 -0.19445044456113444 -0.19426547251781223 -0.20371483608856242 -0.16874468814818216 -0.16169509560021161 -0.1892585060997386
leaf_weight=42.930650795809925 148.2649762686342 10.698611608706413 90.521051155403256 3.6803716486319882 41.410735575482249 5.7067162869498134 1.4112180266529324 53.680511650629342 58.893080139532685 13.301676069386302 3.5827826103195601 51.826577144674957 9.1740321563556773 4.8348867762833816 56.286546905525029 5.0468070423230529 17.608083180151883 5.8412915067747226 43.325095203705132 74.199311945587397 38.806812238879502 30.991381642408669 25.158171854913235 196.88680685125291 85.909371234476566 38.006233787164092 36.484823901206255 4.9534559100866309 99.232632176950574 11.30865220911801 36.466168976388872 39.386413323692977 87.954582987353206 9.7678190115839225 153.72388452850282 51.621464610099792 2161.1927139079198 43.780753838829696 6.2608272945508352 20.190377743914723 103.77447145245969 221.14672547858208 139.04819341190159 42.859285288490355 71.352831665426493 5.3460226627066758 46.873740335926414 11.32481497898698 128.00647806562483 26.06241747085005 386.06224347371608 81.081785645335913 391.68517258670181 47.872961508110166 944.49725670646876 2467.678598546423 102.8577518556267 146.14825623948127 115.58847643714398 70.010325036011636 64.300562881864607 429.87766540236771 137.36474071349949 7.3713464792817822 50.622822136618197 8.7620772961527091 52.17183163203299 3.158316350542008 1.2500760443508623 3.6659194175153962 18.463916258886456 21.509173081256449 0.55547363497316826 10.050957500003276 37.327316831797361 19.763172491453588 11.177322440780697 7.6542217489331961 6.2644622856751075 21.165894185192883
leaf_count=213 76 38 15 2 96 18 99 14 96 85 26 15 8 7 101 55 155 20 6 14 218 196 139 71 50 4 205 34 22 74 12 262 299 102 116 147 1227 2 18 90 65 185 94 289 130 31 20 61 82 191 479 206 382 7 442 1920 94 39 59 8 98 126 66 45 65 49 277 26 12 29 108 183 7 46 223 113 58 66 39 147
internal_value=0.120508 0.782358 0.117071 0.346563 1.12546 4.49796 2.67604 0.111142 0.262245 0.109433 0.137819 0.3394 1.10148 0.12073 0.250196 1.81763 0.181626 0.651874 0.104885 0.0546782 0.0675606 -0.02043 0.0378549 0.0913467 0.00991608 0.107432 -0.0276764 0.11196 0.0935167 0.118454 0.0999819 -0.0451731 0.0529859 -0.0012308 0.0472083 0.104329 0.134769 0.199974 0.939095 0.127873 0.225779 0.150957 0.0923192 0.0360429 0.117188 0.0118883 0.0911421 -0.00537788 0.0988905 0.0533206 0.123108 0.0886124 0.124532 0.123492 0.115587 0.106094 0.176771 0.127154 0.14244 0.11619 0.0801275 0.124872 0.135587 -0.188771 0.10536 -0.219952 -0.190232 -0.199783 -0.179423 -0.209123 -0.195828 -0.195224 -0.133622 -0.198031 -0.201262 -0.204338 -0.217749 -0.182491 -0.186323 -0.195599
internal_weight=10382.1 53.6293 10328.4 260.124 54.0146 12.6039 6.89714 10068.3 112.574 9955.74 1374.85 107.447 30.462 1267.4 235.766 9.88169 225.884 23.4494 8580.89 1059.76 1008.69 214.65 76.9847 794.044 130.981 663.063 74.4911 7521.13 1958.54 5562.58 2608.87 75.8526 722.123 303.618 241.678 2533.02 2953.72 282.497 17.5695 2671.22 123.965 264.927 418.505 181.907 1236.42 69.837 1031.64 76.6625 954.976 262.781 2547.25 229.347 588.572 1166.58 1015.85 2519.3 150.731 202.435 206.11 692.195 134.311 557.884 236.597 33.4338 124.822 13.7155 61.9397 51.0664 3.21677 37.7647 29.7887 89.8279 1.96669 21.288 58.8365 34.6064 14.8432 11.237 45.0713 26.5119
internal_count=11014 251 10763 308 234 138 120 10455 110 10345 1698 300 146 1398 377 62 315 175 8647 1961 1650 681 154 969 307 662 209 6686 2122 4564 2424 274 1265 794 415 2150 2140 279 92 1861 155 187 471 383 857 184 1021 189 832 518 1706 282 453 673 572 2067 101 140 74 314 106 208 88 236 79 83 379 311 118 226 169 602 106 138 406 200 87 92 257 178
is_linear=0
shrinkage=0.0969897


Tree=5
num_leaves=80
num_cat=0
split_feature=5 5 1 5 0 0 5 1 4 6 9 4 9 4 1 0 5 5 1 9 1 6 6 0 0 0 1 1 0 6 1 0 0 4 1 4 1 4 9 9 9 5 4 1 1 6 9 0 1 0 4 5 6 6 0 6 4 1 0 9 9 1 0 6 9 6 0 6 5 9 6 1 9 0 5 4 4 6 9
split_gain=225.423 232.255 346.047 213.066 180.125 173.897 315.059 136.468 250.899 136.085 247.294 237.148 162.289 391.419 244.773 105.984 104.068 202.486 88.2095 397.882 114.749 73.3704 130.303 150.018 64.3378 349.415 60.7034 142.956 56.2488 171.382 59.6281 118.774 110.36 51.8659 51.3017 43.2839 232.1 39.4568 28.3404 25.6232 55.362 35.6554 16.7193 1.77136 1.52208 1.12977 0.988081 0.952213 0.951015 0.817396 0.811568 0.852117 0.789973 0.68073 0.598642 0.539263 0.516292 0.500123 0.445819 0.404101 0.362324 0.309213 0.29356 0.289092 0.282964 0.369858 0.279973 0.236471 0.211366 0.209538 0.179417 0.17802 0.159699 0.155042 0.14684 0.145382 0.102632 0.0571992 0.0474498
threshold=55.780000000000008 42.515000000000008 4.2600000000000007 10.335000000000003 13.750000000000002 1.4950000000000003 9.7600000000000016 5.0550000000000006 1.0050000000000001 6.7800000000000002 1.0600000000000003 1.8800000000000001 1.2050000000000003 1.1400000000000001 1.0050000000000001 1.2800000000000002 1.1100000000000003 6.5400000000000009 1.175 19.375000000000004 1.0300000000000002 146.14300000000006 22.380333333333336 1.7550000000000001 10.635000000000003 3.7950000000000004 5.7500000000000009 8.1050000000000022 1.5600000000000003 15.021666666666677 1.9650000000000001 6.0000000000000009 15.200000000000001 1.1400000000000001 1.9100000000000001 3.3400000000000003 1.0600000000000003 9.4850000000000012 1.6800000000000002 4.3200000000000012 2.8500000000000005 1.0050000000000001 2.5100000000000002 1.8250000000000004 2.0450000000000004 19.502666666666666 7.7650000000000015 1.175 2.0250000000000004 1.5800000000000003 3.6350000000000002 2.1150000000000007 6.1030000000000033 5.7506666666666675 4.1400000000000015 4.4670000000000014 1.4100000000000001 3.0650000000000004 1.0750000000000004 4.7750000000000012 1.3500000000000003 1.5600000000000003 1.1400000000000001 3.5013333333333319 1.7550000000000001 3.2110000000000007 1.4450000000000001 4.7410000000000005 149.47500000000002 1.4300000000000002 4.6036666666666752 1.3900000000000001 3.0200000000000005 72.135000000000019 14.980000000000002 1.4300000000000002 1.7550000000000001 6.1030000000000033 2.4350000000000005
decision_type=2 2 2 2 2 2 2 2 2 2 2 2 2 2 2 2 2 2 2 2 2 2 2 2 2 2 2 2 2 2 2 2 2 2 2 2 2 2 2 2 2 2 2 2 2 2 2 2 2 2 2 2 2 2 2 2 2 2 2 2 2 2 2 2 2 2 2 2 2 2 2 2 2 2 2 2 2 2 2
left_child=1 2 5 4 7 6 9 8 -4 10 58 16 14 48 -12 -15 -11 47 19 33 -21 22 28 -24 25 26 42 -28 29 56 31 -30 -32 38 -16 39 37 -37 -7 40 -35 -41 -9 50 -45 -46 64 -18 -14 77 51 -13 74 -38 -27 62 -20 60 -1 -56 -25 -57 -8 76 66 -66 -10 -6 75 -52 -70 -64 73 -69 -51 -2 -60 -5 -77
right_child=68 -3 3 49 67 18 55 24 46 11 12 43 13 15 34 -17 17 -19 21 20 -22 -23 23 57 -26 54 27 -29 30 -31 32 -33 -34 35 -36 36 53 -39 -40 41 -42 -43 -44 44 45 -47 -48 -49 -50 52 69 -53 -54 -55 59 61 -58 -59 63 -61 -62 -63 71 -65 65 -67 -68 72 70 -71 -72 -73 -74 -75 -76 78 -78 -79 -80
leaf_value=-0.20573970106035996 -0.18622927036375916 0.22864682591041902 0.12938804810067556 -0.16687750886039851 -0.18165517111779814 0.095282170583992604 -0.19422401187932117 0.087314443111875528 -0.1637126712542302 0.13064948479436447 0.39126137512002385 -0.17764277601532499 -0.20917321996325394 0.10486564584308909 0.074871893406459514 0.026232893677077984 -0.2146265714431469 0.12072437705350962 -0.21450525586011435 0.20883903154749486 0.41026432842053673 0.22434086351546731 0.098944321064549576 -0.22165508990897714 0.13649139469700022 -0.23082804899549914 -0.0488652624963547 0.076867750773859711 0.10692171080610258 0.13483285930243558 0.11380129502509952 0.044175562594889702 0.18887647783658842 0.12274825197452645 0.1544725429003517 0.043863313048761295 -0.19871775653344892 0.13984555403109364 0.0079296262230107231 0.15052576800043299 0.16795390830834594 0.035698798567020053 0.13188258879613371 -0.27763479599113089 -0.18644473546395604 -0.24806244518767939 -0.22901389661945976 -0.18206438574485567 -0.18058796642069372 -0.20580940486778657 -0.14880345816649093 -0.23432607890369614 -0.23237561803788342 -0.23735775038970067 -0.1898595856028856 -0.21853153714465917 -0.18446751447237608 -0.23575052555321671 -0.17837478518948269 -0.21424764432140025 -0.19323760828333506 -0.19066539846503597 -0.18502020909729455 -0.19264764043501384 -0.17776569814910376 -0.2048192347104093 -0.18897300624698801 -0.20585539485622883 -0.14688397059336825 -0.17359261370840287 -0.17140307137560903 -0.16253392678283829 -0.21717605440058962 -0.18347723616895212 -0.18428639072159173 -0.16244737037963514 -0.16076398510146397 -0.18069303783531968 -0.17466653637087057
leaf_weight=7.9626258779317167 5.8681773301214042 131.23932042438537 40.583795323967934 6.4082872457802313 5.711009853519502 120.54017615225166 10.617027795873584 140.63429758045822 5.9443543627858189 95.935212812386453 37.297348171472549 6.181849882006647 26.05293092969805 1151.2048312332481 109.52648470923305 187.50808158516884 15.274389332160352 42.353376420214772 8.7045143172144908 50.940522658638656 55.693197849206626 49.754390283487737 34.690898705273867 5.6534368488937679 136.76822942961007 4.8260608110576859 95.490885473787785 779.2020317343995 2254.7432117825374 41.630490377545357 1957.3604017356411 324.65432102698833 203.32532765343785 739.04233231116086 250.04068696592003 51.6425656164065 16.489301650784913 183.26721336692572 49.198952656239271 46.511439949274063 388.97880449425429 56.146162187680602 181.2025772081688 3.5275276638567474 8.9133569700643402 4.0806674519553772 7.0775715885683885 18.903264290653169 18.884567364118993 4.5370353637263205 5.0099279358983031 4.1829504575580359 6.7802413692697874 5.7967272102832785 32.330604429356754 8.0675003058277053 14.10592197626829 4.5414074873551717 6.0969486553221959 7.966030102223157 16.653449422679842 6.9927801443263879 6.0098453443497402 8.4210392236709577 6.6525713494047549 16.655203376896679 13.504461706615983 8.3549382239580172 6.862534790299831 8.9168204581364972 4.7510336963459849 7.3777880659326911 6.0455617913976303 4.4708834439516059 8.6993277184665185 7.0123098352923972 6.3605578197166324 5.0332611771300435 5.2111929571256042
leaf_count=49 33 59 6 44 30 65 59 109 47 36 5 44 167 994 149 409 113 13 45 14 49 11 30 47 40 28 352 932 1584 4 1421 571 180 446 75 107 115 64 95 2 73 101 64 34 74 28 51 126 114 27 46 26 42 64 226 45 96 32 38 47 125 51 31 53 41 90 83 61 41 77 31 47 43 26 59 44 37 38 39
internal_value=0.0996757 0.100438 0.098799 0.0561645 0.0614264 0.106236 0.0816125 0.065784 -0.0496456 0.0868817 0.0955191 0.013606 0.100083 0.0844005 0.154758 0.0938519 0.0633577 -0.0209956 0.113836 0.13244 0.31404 0.107159 0.105961 -0.0342767 0.0733556 0.0664012 0.0763927 0.0631414 0.107757 0.0177513 0.10898 0.0990242 0.120866 0.120758 0.130226 0.126552 0.0903658 0.118745 0.069963 0.134115 0.138337 0.0877239 0.112407 -0.196633 -0.221134 -0.205795 -0.195446 -0.196617 -0.197161 -0.193634 -0.179969 -0.200519 -0.205454 -0.208768 -0.198547 -0.191206 -0.19593 -0.206413 -0.186213 -0.194681 -0.20044 -0.205593 -0.18218 -0.178766 -0.18989 -0.197098 -0.181252 -0.198947 -0.167126 -0.164675 -0.156915 -0.172628 -0.20418 -0.198055 -0.191664 -0.173681 -0.169383 -0.172955 -0.167657
internal_weight=10427.6 10397.9 10266.6 1524.88 1493.42 8741.77 2061.7 1468.84 90.418 2022.64 1809.36 213.279 1780.51 1383.65 396.865 1338.71 172.466 76.531 6680.07 1764.25 106.634 4915.82 4866.06 61.5392 1378.42 1241.65 1196.53 874.693 4804.52 64.4409 4740.08 2579.4 2160.69 1657.61 359.567 1487.87 257.196 234.91 169.739 1230.68 1128.02 102.658 321.837 40.8131 16.5216 12.994 49.8342 34.1777 44.9375 31.4582 24.2915 10.3648 20.0166 22.286 45.1227 39.0649 22.8104 26.8483 28.8412 40.2966 22.3069 15.0603 24.0047 20.8785 42.7566 23.3078 19.4488 24.5824 29.7052 13.9267 11.6136 13.3876 18.8714 12.8258 13.2364 18.0917 12.4575 11.4415 12.2235
internal_count=11014 10826 10767 2486 2276 8281 2940 2116 318 2707 2090 617 1913 1684 229 1403 288 252 5341 1195 63 4146 4135 234 1798 1758 1457 1284 3901 145 3756 2155 1601 1132 224 972 350 171 160 622 519 103 173 329 136 102 312 239 281 210 193 70 128 179 301 233 141 204 177 273 172 96 137 128 261 131 130 160 188 123 72 78 130 87 86 116 75 82 83
is_linear=0
shrinkage=0.0969897


Tree=6
num_leaves=81
num_cat=0
split_feature=7 7 0 2 7 4 0 9 2 9 4 0 4 9 9 7 2 0 0 4 9 0 8 9 2 8 8 9 7 0 8 9 8 0 2 9 9 9 0 0 9 7 0 0 9 2 8 8 8 8 0 9 8 8 4 9 2 9 2 9 7 0 4 9 9 0 2 0 2 7 8 7 7 4 7 7 2 0 8 7
split_gain=261.31 553.596 147.874 323.635 241.999 353.343 227.197 147.081 141.865 323.903 102.004 292.709 234.195 75.9536 511.101 159.597 222.396 87.782 282.187 234.125 93.2906 128.709 430.01 172.22 69.6847 66.732 95.8015 60.7712 153.281 58.2293 188.014 51.1885 106.938 177.587 302.656 63.3663 49.7172 48.5485 168.866 45.65 104.197 291.254 100.972 149.101 45.5563 45.4866 140.938 43.1313 68.9789 106.346 262.906 41.3976 40.6727 103.088 40.4121 39.2408 30.9912 25.0409 24.4674 58.0815 158.401 20.741 20.1155 31.7195 29.5754 18.9749 18.3017 16.3751 14.5209 14.3119 11.1297 9.70216 2.9465 2.80872 1.461 1.28117 1.19646 0.916876 1.2798 2.36937
threshold=97.375000000000014 113.94500000000001 1.4950000000000003 13.950000000000001 1.6100000000000003 1.6100000000000003 1.0150000000000003 1.2950000000000002 1.175 1.0750000000000004 1.7300000000000002 1.2550000000000001 1.3900000000000001 19.375000000000004 20.810000000000006 1.5800000000000003 1.0600000000000003 2.0250000000000004 1.9950000000000001 2.0450000000000004 1.0600000000000003 2.4350000000000005 1.9650000000000001 1.5400000000000003 6.2650000000000006 1.3700000000000003 1.0300000000000002 2.8750000000000004 60.77000000000001 1.0300000000000002 1.7800000000000002 1.2050000000000003 1.5600000000000003 1.0750000000000004 13.750000000000002 1.1400000000000001 2.8100000000000005 5.6700000000000008 1.655 2.7700000000000005 1.175 3.7450000000000006 3.0650000000000004 2.8750000000000004 1.0300000000000002 2.1450000000000005 1.4100000000000001 1.0050000000000001 1.6300000000000001 1.175 1.6100000000000003 1.7300000000000002 1.5200000000000002 1.0450000000000002 1.0450000000000002 1.1900000000000002 3.7950000000000004 1.0600000000000003 1.0600000000000003 2.6900000000000004 1.1600000000000001 1.0050000000000001 2.3350000000000004 1.3500000000000003 1.5600000000000003 1.9100000000000001 3.2950000000000004 1.0450000000000002 10.185 3.7950000000000004 1.9950000000000001 1.0050000000000001 1.175 4.080000000000001 5.5900000000000007 2.6900000000000004 1.8550000000000002 1.1600000000000001 1.3900000000000001 1.3350000000000002
decision_type=2 2 2 2 2 2 2 2 2 2 2 2 2 2 2 2 2 2 2 2 2 2 2 2 2 2 2 2 2 2 2 2 2 2 2 2 2 2 2 2 2 2 2 2 2 2 2 2 2 2 2 2 2 2 2 2 2 2 2 2 2 2 2 2 2 2 2 2 2 2 2 2 2 2 2 2 2 2 2 2
left_child=2 -2 3 4 5 7 -7 -1 9 -6 11 12 27 17 -15 54 -17 18 37 -20 25 22 23 -22 51 26 -19 36 -29 -9 52 35 61 67 -35 57 -10 47 71 58 41 -41 43 -42 45 46 -27 -4 49 65 -51 -25 53 -31 -16 -44 -46 -12 -23 70 -61 -33 64 -64 -50 -49 -56 -34 -63 -43 -60 -39 -47 74 75 -24 -40 78 79 -8
right_child=1 -3 13 -5 8 6 77 29 10 -11 31 -13 -14 14 15 16 -18 20 19 -21 21 39 73 24 -26 44 -28 28 -30 30 -32 32 33 34 -36 -37 -38 38 76 40 42 69 55 -45 56 72 -48 48 62 50 -52 -53 -54 -55 66 -57 -58 -59 59 60 -62 68 63 -65 -66 -67 -68 -69 -70 -71 -72 -73 -74 -75 -76 -77 -78 -79 -80 -81
leaf_value=-0.18417227455250584 0.48647065088436081 0.038575903441807086 0.19449330466874074 -0.18427769352162879 0.11909338012144979 0.062230871982295065 -0.19327406074409809 0.11635707056316859 0.10374409800925938 -0.17564336246246137 0.04871613454517057 -0.18132202147525672 -0.18652217869853588 0.41876878054404404 0.16711129559189775 0.12429496220796053 -0.22037932300327301 0.10269459293734037 0.076587752903776452 0.35375412088643965 -0.20593561623762988 0.13927660035961928 -0.23713813278223358 0.10390411385955915 0.15787659436206736 0.12390811122143063 -0.18239044334732193 -0.18623265027777766 0.1312219867366794 0.097418967493347608 -0.18546950007924809 0.1575826426901713 0.061838282130467451 -0.2131266138242123 0.13807676049187362 0.19523499671500497 0.20760351713974054 0.13198660503881246 -0.25097010399811781 -0.21596770244915731 -0.22292214511550296 0.13416336055319456 0.1410457533138518 0.051915811830485305 0.12386475462141203 0.12576206479884044 -0.20863598478679671 0.080148597495626583 0.089322692463756709 0.091711020274369406 -0.19375916958992881 -0.0053505929157909998 0.11371070974552774 -0.21223287581392011 0.040490849873736995 0.087288889818744109 0.17587247568271414 0.13058923179262649 0.087433346989439109 0.11720894052061957 -0.20830437856360881 0.10801280584541302 0.12031486292820048 0.070673486284360418 0.12832230029407571 0.13113658290881122 0.11820752763266945 0.12240207284373235 0.15037338856758878 0.059969028436459224 0.11967616254497923 0.067104873417517863 0.1049197765340561 -0.17960092217562765 -0.20125162490545534 -0.28129120152666187 -0.20184540058754402 -0.17790866034830588 -0.18472250082834951 -0.28135852942607043
leaf_weight=20.803903036750853 48.269240323454142 56.164759086444974 51.292717245407403 45.805410691536963 87.127264278009534 52.251850387081504 9.0271390676498395 205.32108624279499 319.95459800446406 58.7100247470662 47.204869614448398 42.278932671993971 27.987556620500982 53.374406117014587 135.73046302143484 38.439913459122181 32.498108182102442 34.45379155408591 44.880985627882183 79.369160757400095 19.000876317732036 186.79026603046805 28.129098468460143 67.197428727522492 101.89318046718836 37.438538804650307 16.350899492390454 22.730889002792537 38.612239268608391 35.27172329928726 29.006581991910934 144.87838034285232 58.543228500057012 51.541834401432425 41.804149627685547 145.565818910487 50.154173657298088 39.156427059322596 8.5676935305818933 41.321532401256263 23.036129607819021 40.121173638850451 134.58597994130105 95.745696615427732 255.34989853203297 118.70063048601151 17.636690746992826 146.55619973409921 228.8623959729448 94.50945037137717 44.702387830708176 63.410953906364739 115.76837050262839 14.179618027061222 44.222046392969787 2510.6567849041894 186.51090273819864 137.50966260815039 142.98810235504061 43.518865527585149 20.776548764668405 407.84175809053704 257.01041462644935 228.95015037897974 911.22516754828393 129.17372776288539 80.199346267618239 148.5811511836946 93.593236530199647 62.644350631162524 340.60472351685166 48.578589064069092 137.97404310200363 9.2115090135484916 8.0975164789706451 7.9235396031290284 10.23590083606541 63.912537257187068 28.062179184518754 4.213510248810052
leaf_count=161 15 97 30 279 30 84 73 74 229 373 80 239 154 27 8 11 211 30 48 29 143 40 184 26 35 3 103 134 2 29 206 23 92 346 1 45 3 3 57 257 134 2 53 134 61 15 124 191 265 97 276 164 43 94 85 2592 22 51 138 22 136 275 105 240 277 25 30 35 8 95 130 78 64 82 47 42 72 462 204 30
internal_value=0.0929663 0.245592 0.0913736 0.0712021 0.0758785 0.0208322 -0.103087 0.0672535 0.0924047 0.000440589 0.0999446 0.0628893 0.0853623 0.0982643 0.140248 0.0953482 -0.0336071 0.0959829 0.111434 0.253638 0.0884293 0.0822949 0.0217574 0.074816 0.09776 0.118534 0.0109433 0.102999 0.0135882 0.0803449 0.0422755 0.114502 0.103034 0.0552271 -0.0558434 0.147379 0.117818 0.103399 0.039532 0.0873613 0.081904 0.0014949 0.0860957 -0.00138529 0.125787 0.0973971 0.0174178 0.106651 0.104443 0.0691464 4.35349e-05 0.0508605 0.0822593 0.00862977 0.130512 0.090024 0.145817 0.109666 0.108963 0.098628 0.0120219 0.125259 0.113451 0.0969274 0.120493 0.104035 0.0905853 0.105284 0.115919 0.0889356 0.110143 0.0960618 0.114558 -0.228316 -0.23848 -0.246842 -0.224229 -0.185187 -0.19645 -0.221305
internal_weight=10112.3 104.434 10007.8 2548.24 2502.44 577.818 157.467 420.351 1924.62 145.837 1778.78 501.718 459.439 7459.61 384.464 331.09 70.938 7075.14 2323.07 124.25 4752.07 3947.65 304.864 251.502 232.502 804.415 50.8047 431.452 61.3431 399.547 194.226 1277.06 946.784 300.47 93.346 330.28 370.109 2198.82 106.539 3642.79 2908.11 144.087 2764.02 118.782 753.611 311.75 55.0752 2092.28 2040.99 414.942 139.212 130.608 165.22 49.4513 260.152 2645.24 441.861 184.715 734.679 547.888 64.2954 646.313 1626.05 485.961 1140.09 275.73 124.421 207.124 501.435 102.766 483.593 87.735 256.675 53.3617 44.1502 36.0526 18.8036 105.215 41.3028 13.2406
internal_count=11014 112 10902 3859 3580 1460 853 607 2120 403 1717 761 522 7043 372 345 222 6671 1793 77 4878 4456 723 368 225 422 133 368 136 446 372 956 780 474 347 176 232 1716 210 3733 3267 354 2913 268 289 206 127 1506 1476 589 373 190 166 123 123 2645 83 131 466 426 158 306 887 345 542 216 115 127 283 97 268 81 79 355 273 226 129 769 307 103
is_linear=0
shrinkage=0.0969897


Tree=7
num_leaves=81
num_cat=0
split_feature=7 7 1 1 2 1 2 3 3 7 8 0 2 7 0 1 3 1 0 0 7 7 3 8 0 1 8 8 7 0 8 0 2 3 3 3 8 0 2 0 3 1 2 3 7 2 1 7 0 7 8 2 0 0 7 8 8 2 8 8 8 7 2 7 7 7 8 0 1 0 7 2 2 8 8 8 1 7 8 1
split_gain=236.71 549.904 178.956 293.557 203.464 124.627 340.907 122.111 191.571 102.096 156.078 89.7478 263.487 198.643 263.978 193.746 181.915 90.2293 88.5399 284.949 75.5972 168.115 60.2407 142.906 204.57 58.2597 129.694 123.645 58.6005 282.601 57.6938 50.2755 52.5067 94.5908 199.647 87.3801 151.662 167.004 69.5079 154.796 53.3641 46.4449 50.5568 161.649 43.0718 252.919 214.534 127.98 55.2507 33.5546 30.8189 128.247 27.7838 25.3551 24.6971 20.9478 42.3148 99.7187 20.6904 20.1446 40.4396 21.2369 18.2477 17.2892 16.6577 16.3228 15.3039 13.8444 4.47046 2.95262 2.8608 2.52957 1.84164 1.79124 1.67629 1.63275 1.52234 1.48743 1.38832 1.31958
threshold=97.375000000000014 113.94500000000001 1.175 1.1600000000000001 58.220000000000006 10.785000000000002 2.5750000000000006 4.705000000000001 9.3500000000000014 2.2050000000000005 1.0900000000000003 1.5600000000000003 1.175 1.6300000000000001 1.0300000000000002 8.1050000000000022 1.3500000000000003 1.8550000000000002 14.355000000000002 25.785000000000004 2.3000000000000003 1.1100000000000003 10.635000000000003 1.6100000000000003 13.750000000000002 2.4350000000000005 1.1400000000000001 1.5600000000000003 1.9350000000000003 1.2050000000000003 1.7300000000000002 10.785000000000002 1.8550000000000002 1.3350000000000002 2.0450000000000004 1.7050000000000003 18.300000000000004 2.3000000000000003 1.0150000000000003 1.0600000000000003 1.7300000000000002 76.375000000000014 2.2350000000000008 1.3500000000000003 6.5400000000000009 4.9150000000000009 1.3700000000000003 5.9150000000000009 5.5050000000000008 2.5100000000000002 1.7550000000000001 1.0300000000000002 2.3350000000000004 26.530000000000005 1.1400000000000001 2.7700000000000005 1.1400000000000001 1.5600000000000003 1.0050000000000001 1.1600000000000001 5.2000000000000011 1.2350000000000001 1.7300000000000002 8.8300000000000018 1.8550000000000002 2.1750000000000003 1.7300000000000002 3.1550000000000007 1.0050000000000001 1.4950000000000003 1.4100000000000001 1.4450000000000001 1.4800000000000002 1.4800000000000002 1.5400000000000003 3.0200000000000005 3.6350000000000002 2.3000000000000003 3.5350000000000006 2.3350000000000004
decision_type=2 2 2 2 2 2 2 2 2 2 2 2 2 2 2 2 2 2 2 2 2 2 2 2 2 2 2 2 2 2 2 2 2 2 2 2 2 2 2 2 2 2 2 2 2 2 2 2 2 2 2 2 2 2 2 2 2 2 2 2 2 2 2 2 2 2 2 2 2 2 2 2 2 2 2 2 2 2 2 2
left_child=2 -2 3 7 5 11 9 31 71 41 -11 12 15 14 54 -4 17 -16 22 73 21 -21 44 24 70 26 77 -28 64 -30 -25 32 33 55 72 36 37 -34 -36 -40 -37 42 43 65 47 46 -46 48 -13 -22 66 -52 -39 -51 -14 56 -1 -58 -42 -33 61 -61 -32 -60 -27 -7 -10 -47 -57 -6 -24 -9 -35 -20 -8 -71 79 -15 -73 -75
right_child=1 -3 4 -5 69 6 74 8 50 10 -12 18 13 25 16 -17 -18 -19 19 20 49 -23 23 30 -26 28 27 -29 29 -31 62 59 35 34 38 40 -38 52 39 -41 58 -43 -44 -45 45 67 -48 -49 -50 53 51 -53 -54 -55 -56 68 57 -59 63 60 -62 -63 -64 -65 -66 -67 -68 -69 -70 75 -72 78 -74 76 -76 -77 -78 -79 -80 -81
leaf_value=0.11664531424884761 0.49776987597767719 0.035276393192578213 -0.16673064638408999 0.32362556770883227 -0.15394912664329768 0.037540719770846463 -0.17588998852719595 -0.14637301069827263 0.055142319356681513 0.090323548966914163 -0.19379413517072941 0.091218912217009812 0.11768418917274584 -0.23920357316556518 0.065829072601707755 0.10213872721956728 -0.17991572316849522 -0.17266510660220241 -0.1889126870818747 0.10260643486298882 0.13365955437936144 -0.21979730914356782 -0.25533747714964239 0.19894182802622995 0.1298936590855424 0.11831570109300082 0.10930317707603561 0.012209996784851518 0.10576448695978101 -0.17839619236382323 0.075319130691743272 0.1808950572281193 -0.19654954699975907 -0.19373967687667998 0.12694848863252292 0.20181780616029263 0.14071118462785484 0.12406290919587334 0.1157851406462435 -0.19621422791474311 0.18332876337699791 0.1214773791532935 0.10960553590303126 -0.20247429943854622 0.068466451648070373 0.08130790076310429 -0.19260848022232654 0.16754788236039306 0.054241965597532547 0.11760202111232386 0.11199402758282667 -0.23372117289755684 0.010368592518875511 0.0067366654771851267 0.03783955775733764 0.13585569024575553 -0.20346037166508066 0.097765184527390636 0.11049819466016905 0.13268894302429166 0.16235762442457535 0.043882861656860152 0.12481080060762766 0.1488328074235909 0.16224793469345172 0.12329739437436507 0.12613511549216949 0.12708724260156246 0.11022751492497516 -0.19464891684292798 -0.19058448840734801 -0.19768158576045325 -0.25211249658931767 -0.23399827786451707 -0.21107140431388713 -0.25756579493384929 -0.19385695555376417 -0.17854772456829696 -0.25040963672213762 -0.29350816275991465
leaf_weight=84.877832336351275 42.862297877669334 55.496367594227195 76.710630146320909 58.819980147760361 9.4682154031470436 51.031631101388484 20.506797567475587 6.921943933703008 47.760066212620586 38.582501646131277 34.409968875348568 3003.6474530287087 120.19279172131792 5.8191559659317162 74.119549761526287 37.55407270649448 82.842573835514486 18.684303173329681 11.357740701176224 40.483366623520851 122.49315329641104 24.375176406465471 9.5311328852549213 96.798516364768147 37.906650677323341 177.23134838603437 340.79838307062164 193.39964653458446 465.1236964748241 35.430677901953459 80.214843759778887 101.82083770912141 33.556368892546743 23.64004136109725 81.969849727116525 91.969441297464073 122.1774156652391 36.029338121414185 37.420484730042517 24.92147754970938 50.160811306908727 157.81608188385144 79.648346342146397 26.184290272183716 59.665216946974397 100.61230074986815 58.775708601810038 193.79506808053702 435.20280992612243 33.230097900144756 32.609981518238783 14.619031862355767 46.077430672943592 46.644871070981026 52.299500177614391 127.76391204632819 15.114568439312277 32.714522948488593 516.91659205732867 45.306823185645044 146.88768856041133 57.454516095109284 554.6817614948377 140.82457455107942 149.82296380354092 35.336711535230279 71.069541931152344 162.52384545467794 128.34858613600954 8.7641663928516191 19.652074227109551 15.704921468161048 6.4774646805599323 13.050045514479285 33.638393779285252 6.9624197706580153 6.1005550008267155 10.977588306181131 6.7020019637420765 4.7923887288197866
leaf_count=32 15 97 500 88 59 107 146 56 76 34 235 2650 51 43 97 19 631 146 92 38 13 152 74 20 2 80 211 492 235 221 89 30 202 143 13 7 20 2 16 170 4 46 26 209 67 84 408 56 633 4 10 100 106 106 91 15 93 18 276 17 21 82 145 25 29 3 2 34 79 57 106 93 45 85 208 35 37 87 38 30
internal_value=0.0871173 0.23682 0.0855939 0.109858 0.0784157 0.0793483 0.0313974 0.104003 0.0308991 0.0607279 -0.0436147 0.0826373 0.0642737 0.0737125 0.00825014 -0.0783644 -0.0754447 0.0178128 0.0892461 0.0383511 0.0725631 -0.0185595 0.0924452 0.11677 -0.0187093 0.0902438 0.0658078 0.0741518 0.106512 0.0856508 0.129192 0.111319 0.104027 0.0801855 0.0208432 0.116967 0.0653543 -0.0142468 0.0682462 -0.008938 0.132315 0.0824875 0.0504729 0.00862746 0.0876048 0.0566063 -0.0610907 0.090861 0.0865393 0.101768 0.0712598 0.00498308 0.0602589 0.0528596 0.0934754 0.106807 0.0755328 0.00257428 0.123285 0.144536 0.129707 0.0830369 0.118558 0.118706 0.138441 0.0726272 0.0976016 0.109583 0.123012 -0.196741 -0.211733 -0.197621 -0.206294 -0.220634 -0.197747 -0.222503 -0.235682 -0.199562 -0.213453 -0.249982
internal_weight=9763.89 98.3587 9665.53 2206.64 7458.89 7433.7 477.155 2147.82 195.387 423.01 72.9925 6956.54 1841.01 1726.74 348.139 114.265 175.646 92.8039 5115.53 302.527 267.227 64.8585 4813.01 798.785 67.0899 1378.6 550.995 534.198 827.609 500.554 731.695 1952.43 1600.96 563.249 174.429 1037.71 237.841 115.663 144.312 62.342 799.871 350.017 192.201 112.553 4014.22 381.577 118.441 3632.65 3438.85 202.368 166.059 47.229 82.1068 79.875 172.492 388.819 132.707 47.8291 707.902 351.47 249.649 102.761 634.897 657.741 327.054 86.3683 118.83 263.136 256.112 25.1948 29.1832 29.3289 30.1175 35.3007 54.1452 15.7266 23.943 16.7967 22.4069 17.8424
internal_count=11014 112 10902 1879 9023 8872 1014 1791 375 660 269 7858 2933 2414 1016 519 874 243 4925 557 313 190 4368 436 182 1398 833 703 565 456 254 1416 1266 624 387 642 330 310 199 186 312 391 345 319 3932 593 475 3339 3283 123 188 110 108 110 142 237 143 111 305 150 120 99 234 301 109 110 78 118 94 151 180 187 188 244 354 92 152 130 131 115
is_linear=0
shrinkage=0.0969897


Tree=8
num_leaves=81
num_cat=0
split_feature=5 2 9 8 2 8 3 3 9 3 0 9 9 8 8 3 8 8 0 3 8 5 0 9 5 8 8 5 8 9 2 0 2 2 0 0 5 8 9 3 8 8 2 8 9 9 8 0 9 3 8 9 9 5 9 9 0 5 0 0 5 5 2 2 0 0 8 3 0 2 0 2 8 0 2 0 0 3 5 5
split_gain=219.658 613.82 1366.58 258.83 191.47 143.795 94.0964 816.707 222.615 204.855 305.359 194.389 156.054 139.592 469.98 109.26 301.59 105.215 76.354 697.071 275.742 93.439 338.292 86.6834 158.431 174.197 180.465 107.315 90.0601 193.772 76.8365 64.6049 50.1237 46.0412 43.6328 120.045 37.4391 235.285 37.2884 156.04 33.9251 33.6528 106.218 32.9031 28.9779 82.495 25.4266 60.173 23.4313 21.241 23.9031 15.2388 11.9205 9.72997 11.9363 9.20404 67.676 8.17849 6.13003 32.1105 5.17255 6.07685 4.75826 2.35713 2.3431 2.33861 2.02767 1.79394 1.38896 1.32593 1.26599 1.14743 1.14496 1.13361 1.13019 1.01254 0.956575 1.04115 0.941162 0.743308
threshold=14.560000000000002 1.3200000000000003 2.8750000000000004 1.655 1.2550000000000001 1.0150000000000003 6.0000000000000009 6.0850000000000009 1.3200000000000003 4.7750000000000012 74.225000000000009 1.1250000000000002 1.0300000000000002 16.325000000000006 16.560000000000006 8.3400000000000016 16.685000000000006 1.6300000000000001 12.985000000000001 1.0750000000000004 11.420000000000002 1.9350000000000003 13.365000000000002 1.4800000000000002 1.2250000000000003 3.0650000000000004 1.5200000000000002 10.785000000000002 1.0600000000000003 36.855000000000011 72.135000000000019 5.5050000000000008 1.655 83.215000000000018 1.0600000000000003 1.175 19.605000000000004 6.0000000000000009 2.5750000000000006 2.2050000000000005 3.4350000000000005 1.1600000000000001 1.1600000000000001 13.950000000000001 2.9350000000000005 3.8300000000000005 3.5850000000000004 5.9150000000000009 1.8550000000000002 2.5100000000000002 5.2000000000000011 2.8750000000000004 1.2350000000000001 1.1900000000000002 2.8750000000000004 1.1400000000000001 1.0300000000000002 1.0750000000000004 1.0050000000000001 1.7300000000000002 18.830000000000002 15.640000000000002 1.4450000000000001 1.4450000000000001 1.5200000000000002 1.5800000000000003 4.2000000000000011 10.185 1.5400000000000003 1.9350000000000003 1.7050000000000003 2.1450000000000005 2.3700000000000006 2.0250000000000004 3.0200000000000005 2.0850000000000004 1.5600000000000003 14.560000000000002 34.810000000000009 49.755000000000003
decision_type=2 2 2 2 2 2 2 2 2 2 2 2 2 2 2 2 2 2 2 2 2 2 2 2 2 2 2 2 2 2 2 2 2 2 2 2 2 2 2 2 2 2 2 2 2 2 2 2 2 2 2 2 2 2 2 2 2 2 2 2 2 2 2 2 2 2 2 2 2 2 2 2 2 2 2 2 2 2 2 2
left_child=6 2 4 79 5 -2 9 -8 11 13 62 12 57 18 -15 16 63 55 20 -20 23 38 -23 24 25 26 -1 28 32 -30 31 -26 -25 36 67 72 60 68 39 -21 -19 42 -37 -41 51 -46 48 -48 -43 50 -29 52 -16 -40 -55 -13 -57 -9 -54 -60 61 -5 -11 73 -27 -22 -64 -17 -38 -65 -47 -72 -36 -10 -44 -67 -14 -78 -70 -3
right_child=1 3 -4 33 -6 -7 7 8 15 10 -12 17 76 14 44 34 -18 40 19 21 65 22 -24 27 30 64 -28 49 29 -31 -32 -33 -34 -35 35 41 37 -39 53 43 -42 46 74 -45 45 70 47 -49 -50 -51 -52 -53 58 54 -56 56 -58 -59 59 -61 -62 -63 66 69 -66 75 -68 -69 78 -71 71 -73 -74 -75 -76 -77 77 -79 -80 -81
leaf_value=-0.18029946989599224 0.13802100791431424 -0.18838852798343167 0.78045533038109816 0.12659015203422549 0.24915958869477875 -0.16741712574325224 0.54089892264131112 0.11812704354180693 -0.13621630159381173 -0.15372876888194556 0.14074730019447249 0.26007499835308118 -0.1655903761405334 0.35809602547743835 0.04921347043139182 0.14005665908171297 0.11813695487979442 0.16782681188030718 0.61078687482560068 -0.19892160309399434 -0.16487477137740647 0.17428194449981602 -0.20500967336338169 0.035250360892731737 0.10606261375009118 -0.17528436766852457 0.086072271959026156 0.074206173934582217 0.06666186986037749 -0.20356337585029743 0.22327438305543271 0.028467803054152141 0.13027391040779512 0.19805228900360278 -0.21485439145355348 0.1000234038075981 -0.15987918393915224 0.11923930303374093 0.1382037857331137 0.053720385466378258 0.089701161285570305 0.050040379546964248 -0.21108915152131277 0.16813657303736113 0.092822327702009336 -0.15625424327010343 -0.030321721028910124 0.103478362895775 0.10413124798542597 0.16916516324584388 0.14744457868903832 0.16209390169503768 0.13335869806934594 0.13684527901558474 0.088294453759715064 0.31062922876368682 0.151044256378945 0.068178241966662417 0.020534797395905937 0.11418399644555596 0.13563428626170027 0.087949896091805674 -0.20517041763702795 -0.25608751030336047 -0.23617079157827789 -0.2512588719186673 -0.25829203082584723 0.12171858604764856 -0.22802070107045594 -0.20525065082859192 -0.19544005991869381 -0.27148827700341754 -0.15964760857115173 -0.19251311602270216 -0.15614830887291301 -0.20316235403070065 -0.18889213942784491 -0.24409296588577309 -0.18414821993447592 -0.15486088765210385
leaf_weight=27.511581891216338 41.96453788690269 22.282598893158141 42.597094859927893 85.441864376887679 95.524326141923666 22.15385832125321 41.086790988221765 69.622095310594887 6.322220969013868 15.836081867571918 44.731689070351422 93.520927308127284 6.543654267210516 77.388101799413562 33.436108176945709 85.974518882110715 69.727869962342083 157.8260829388164 25.938289013691247 17.982569616753608 13.319310984574257 49.883257085457444 39.745637780986726 62.541861584875733 2322.2511407984421 9.1976389861665684 183.57427821261808 79.573071449995041 2891.6397644681856 25.180024350062013 50.748252023942769 105.52386054815724 316.38934036903083 50.519355123862624 9.0940739270299655 38.083418582566082 10.221944846678527 125.03643220663071 248.41504851402715 45.836325422860682 78.189318970777094 86.461598458234221 11.475761397741737 48.832804792560637 44.511767006479204 2.6084034233354014 52.242033970076591 80.093299807049334 585.43907510442659 100.40843358449638 88.593614488840103 48.584274534136057 81.063274865038693 83.735833179205656 110.48966347053647 43.072468181140721 59.570536822546273 55.355224195867777 38.765216643514577 308.84341920167208 127.87978075444698 69.37348099052906 31.828160909004509 5.8609474301338187 16.816345077939332 5.8668148368597057 8.5818931870162469 120.54065901506692 8.5523998858407158 27.339834159240127 3.6120747914537787 3.8617657665163279 5.7799798687919965 7.1927112881094217 5.0819743839092544 13.809453098103402 8.0924094165675324 5.3319815024733535 9.9524008510634285 8.629254025872795
leaf_count=186 4 156 69 20 19 135 24 14 53 144 5 10 48 13 105 15 16 66 71 122 81 7 237 145 1664 57 190 74 3723 165 22 222 251 5 51 20 69 57 35 66 49 120 73 2 39 42 160 47 290 18 11 3 10 7 72 6 73 71 114 114 13 58 208 35 87 28 54 55 49 154 47 31 45 60 44 81 50 32 66 56
internal_value=0.0974242 0.149077 0.292371 0.09312 0.162136 0.0324876 0.0935261 0.1134 0.103498 0.0888585 -0.0483812 0.152975 0.055777 0.0906757 0.133931 0.0796367 -0.00962592 0.185573 0.0866951 0.117805 0.0833892 0.0979774 0.00608633 0.0848585 0.0979132 0.0221704 0.0513551 0.0749122 0.0701079 0.0643291 0.105159 0.10269 0.11459 0.110395 0.0892584 0.0797819 0.100249 0.0617322 0.112809 0.0629889 0.141945 0.0845129 0.0108578 0.112739 0.103243 0.0360798 0.0895172 0.0506581 0.0971707 0.133866 0.11279 0.110423 0.104991 0.125489 0.109226 0.238065 0.218011 0.0960036 0.109341 0.10374 0.121199 0.109275 -0.198792 -0.200325 -0.214643 -0.196259 -0.216452 0.129353 -0.188574 -0.214225 -0.214431 -0.234735 -0.193401 -0.166178 -0.194226 -0.217503 -0.195996 -0.210817 -0.204425 -0.179029
internal_weight=10262.5 720.129 202.24 517.89 159.643 64.1184 9542.38 1814.92 1773.83 7727.46 100.978 577.125 144.945 7626.48 642.674 1196.71 116.444 432.179 6983.8 670.859 6312.94 644.921 89.6289 6279.95 2715.62 237.1 211.086 3564.33 3295.75 2916.82 2478.52 2427.78 378.931 486.978 1080.27 873.751 436.458 153.763 555.292 112.652 236.015 858.877 54.6412 94.6691 565.286 54.594 804.236 132.335 671.901 268.575 168.167 510.692 462.108 442.641 194.225 196.164 102.643 124.977 428.672 347.609 282.695 154.815 56.2461 46.7157 26.014 32.9956 40.4101 206.515 28.7267 33.2008 10.0822 7.47384 14.8741 13.5149 16.5577 19.6763 19.968 13.4244 18.5048 30.9119
internal_count=11010 776 227 549 158 139 10234 1681 1657 8553 411 419 215 8142 518 1238 318 204 7624 619 7005 548 244 6815 2428 520 376 4387 4284 3888 1908 1886 396 337 920 850 332 241 304 190 115 754 137 68 505 159 617 207 410 103 85 346 343 114 79 89 79 85 238 228 91 78 406 302 144 190 262 70 184 189 120 78 96 113 117 109 130 82 115 212
is_linear=0
shrinkage=0.0969897


Tree=9
num_leaves=81
num_cat=0
split_feature=1 4 9 3 1 3 5 5 4 4 1 6 5 4 9 5 5 1 1 1 3 1 9 9 6 3 9 3 9 3 4 9 6 6 5 3 9 6 4 1 9 6 1 1 3 9 3 6 1 9 3 6 6 9 3 5 9 1 9 4 6 6 4 9 5 1 1 5 6 5 4 5 1 4 1 1 9 3 4 6
split_gain=467.369 217.59 2167.82 164.482 215.411 172.632 240.993 172.517 170.708 243.776 363.73 149.897 148.645 139.751 193.312 132.42 115.926 182.37 105.521 195.043 123.923 105.132 81.8927 103.494 129.008 72.1718 70.4461 65.1138 471.627 62.2749 377.19 56.3783 135.554 81.3885 149.175 48.5649 149.713 46.0519 43.0605 42.4907 39.5722 36.2682 129.34 35.009 32.0421 31.3725 53.9683 175.702 31.3331 27.2584 76.271 17.1362 15.2446 13.8475 15.5197 12.57 7.95452 4.81302 2.91662 2.6012 1.69405 1.5632 1.42825 1.41278 1.28743 1.27038 1.25012 1.2244 1.21768 0.931272 0.87659 0.817347 0.616456 0.594301 0.570234 0.682091 0.543435 0.503892 0.484751 0.484458
threshold=149.47500000000002 41.910000000000004 3.3400000000000003 4.6400000000000015 1.0750000000000004 3.2950000000000004 1.0050000000000001 32.410000000000004 3.5350000000000006 4.4450000000000012 2.0850000000000004 6.4070000000000009 1.5600000000000003 2.5750000000000006 1.0050000000000001 4.5100000000000007 19.605000000000004 5.9150000000000009 4.3550000000000013 5.0550000000000006 1.3200000000000003 1.3700000000000003 1.2050000000000003 1.1250000000000002 6.5173333333333341 4.705000000000001 1.4800000000000002 1.0150000000000003 4.9850000000000003 8.4600000000000026 2.0250000000000004 2.8500000000000005 3.2660000000000076 3.6196666666666748 1.0300000000000002 3.8300000000000005 1.0450000000000002 2.7703333333333342 1.2050000000000003 1.6300000000000001 1.8250000000000004 8.3633333333333368 1.0450000000000002 1.6300000000000001 3.1100000000000003 4.0200000000000005 2.5100000000000002 2.0060000000000007 1.0050000000000001 3.1550000000000007 1.0600000000000003 2.4603333333333319 2.6830000000000003 1.4450000000000001 1.4800000000000002 25.785000000000004 1.0050000000000001 1.0600000000000003 1.3500000000000003 2.7700000000000005 3.8230000000000079 9.7216666666666693 5.1250000000000009 1.4300000000000002 7.7650000000000015 1.9650000000000001 3.0200000000000005 1.2800000000000002 3.5576666666666652 6.4450000000000012 1.4100000000000001 55.780000000000008 2.1450000000000005 1.6800000000000002 1.5800000000000003 2.5750000000000006 2.0450000000000004 1.5400000000000003 5.2000000000000011 7.6000000000000005
decision_type=2 2 2 2 2 2 2 2 2 2 2 2 2 2 2 2 2 2 2 2 2 2 2 2 2 2 2 2 2 2 2 2 2 2 2 2 2 2 2 2 2 2 2 2 2 2 2 2 2 2 2 2 2 2 2 2 2 2 2 2 2 2 2 2 2 2 2 2 2 2 2 2 2 2 2 2 2 2 2 2
left_child=1 3 49 4 26 6 65 8 13 10 51 15 62 22 -15 21 18 71 27 77 -21 70 23 24 -5 -24 37 28 -8 30 -27 32 73 -34 -35 36 -23 52 -9 -25 -31 42 -14 -37 -29 -33 47 -47 -39 50 -3 -10 -1 54 56 -53 -50 -56 -43 -36 -16 66 -11 -17 -65 68 -62 76 -6 79 -7 72 -18 -28 -52 -76 -64 -20 -44 -13
right_child=-2 2 -4 7 5 11 16 38 9 12 -12 69 41 14 60 63 17 -19 19 20 -22 35 25 39 -26 29 31 44 -30 40 -32 45 33 34 59 43 -38 48 -40 -41 -42 58 78 -45 -46 46 -48 -49 53 -51 74 55 -54 -55 57 -57 -58 -59 -60 -61 61 -63 67 64 -66 -67 -68 -69 -70 -71 -72 -73 -74 -75 75 -77 -78 -79 -80 -81
leaf_value=0.02224752449074039 0.33799831516855472 0.098140008227606185 1.4511944021137815 -0.17537103682557031 -0.20378658534672719 -0.24889878438981072 0.077711460903689522 0.14925495893285351 0.15332374187093456 -0.26097946400144001 0.34962468100767602 -0.23743727011878002 0.11656034053185045 0.11520810243190559 -0.17319671347254695 -0.17880517732811499 -0.2001054507097029 0.086629659735187492 -0.17403278997759328 -0.011462824173849155 0.077767613916818634 0.10496724096790994 0.15867462014962419 0.10788176612721548 0.093422391650617526 -0.1857859477317324 -0.23301424585720865 0.080774600568831845 0.48356143996186596 0.036868855550610327 0.10128013173696475 0.13640093219427291 0.11775032244889415 0.11307842450998569 -0.25557572907446041 0.12552731233642458 -0.20893015881943319 0.16977385133065404 0.24403550038009567 0.17485641666831164 0.093675008069966828 0.14978054606591984 -0.16931056114725707 0.040558755987369133 0.11396600359161183 0.1311282151282743 0.11930422762719145 -0.20610720194240006 0.11488667752841382 0.11492536237343021 -0.16448665012156377 0.04208746267196338 0.11042952804256294 0.15783706301354139 0.11468618258143951 0.12213193060547113 0.051362163312419683 0.14599622493758926 0.1224154438647513 -0.17803569475712611 -0.25527124945701773 -0.1801687424931521 -0.14205075704274786 -0.25797292296512397 -0.19592454126293049 -0.19219285317930929 -0.20402866942885781 -0.22430206751958237 -0.26426862605421331 -0.1661517148798422 -0.19857470448869405 -0.15904870926063547 -0.17107912693759952 -0.19637452555560053 -0.23464278601597133 -0.17699774641482588 -0.18811828460203853 -0.19837266900513401 -0.20679302192194665 -0.20664298985412244
leaf_weight=38.543833959847689 71.4296042509377 27.762108082417399 12.061832751613109 20.448200388811529 6.2162686064839381 5.306380887515842 182.49357984447852 83.316943887621164 47.700930960476398 2.5276122810319093 112.69146909704432 6.5244146054610672 59.211370105855167 34.737155735492706 9.5255729109048826 8.4046419220976549 15.56225306261331 58.038570482283831 15.789462711662052 189.2144225765951 647.24531897815177 36.527319118380547 98.562318247742951 140.17268131906167 94.067980356980115 58.242940643802285 9.1347138751298207 4293.2598153366707 31.598982808645815 138.59755020914599 165.14339128369465 218.25895315408707 114.09190005622804 27.703593904152513 14.483847076073291 90.539000518620014 23.482180653139949 277.65295363590121 98.281131368596107 244.61435765167698 688.01134263211861 59.841502997558564 4.5683915987610808 91.934455209411681 292.22615267056972 40.165769758634269 124.50846127793193 22.773346613626927 31.868414733558893 52.909473561681807 4.6056813797913474 40.199009419418871 35.361146418377757 95.970585823059082 94.823000490665436 34.120010297745466 44.34718731790781 90.041233617812395 94.492080974392593 5.6602789293974629 11.506119327619677 6.5016599842347196 5.3867360646836442 6.9921654090285283 5.7182102976366878 14.66214319039136 7.3327314942143849 4.3982161572203031 6.3098684725700878 4.3616054593585423 8.4271216634660941 14.764534425456075 12.34106977470219 7.6535882377065709 4.1122676264494658 3.6402495298534632 4.357389971613884 16.220958334859461 11.21070673316717 18.24459384707734
leaf_count=66 73 16 67 125 34 29 186 16 5 21 58 37 8 5 61 51 99 77 102 531 834 16 15 46 61 391 49 4421 48 208 94 57 30 4 77 27 149 49 49 66 430 14 31 150 129 6 40 155 6 4 60 66 9 7 61 3 62 11 57 50 65 41 52 44 39 97 45 47 42 29 56 100 74 58 45 52 41 105 135 134
internal_value=0.090796 0.0890088 0.227825 0.0875165 0.0803796 0.07276 0.0765111 0.109695 0.102189 0.153278 0.223987 0.00181709 0.085812 0.0878899 -0.0467286 0.0238012 0.0778689 -0.0252795 0.0797015 0.0485913 0.0575829 0.0430407 0.093576 0.126369 0.0454262 0.0793202 0.11634 0.0853308 0.137613 0.0718712 0.0264341 0.091412 0.0460258 0.0732223 -0.032954 0.0578263 -0.0178632 0.136899 0.20055 0.150458 0.0841503 0.106139 0.0508055 0.0827181 0.0828898 0.111406 0.082303 0.00910586 0.145336 0.0692081 0.00891744 0.107955 0.0644398 0.126333 0.114753 0.078836 0.077924 0.129936 0.133026 -0.233788 -0.208066 -0.221174 -0.193826 -0.209657 -0.230058 -0.211571 -0.235326 -0.181824 -0.234254 -0.207477 -0.218019 -0.177503 -0.187268 -0.216311 -0.191517 -0.207575 -0.162651 -0.186367 -0.195941 -0.214755
internal_weight=9951.74 9880.31 105.092 9775.22 7395.45 6102.41 5795.94 2379.77 2198.17 480.705 234.711 306.462 245.994 1717.46 69.6032 277.331 5768.76 100.706 5668.05 868.47 836.46 256.216 1647.86 499.303 114.516 1148.56 1293.04 4799.58 214.093 1050 223.386 584.434 178.728 161.94 47.8477 242.483 60.0095 708.608 181.598 384.787 826.609 229.324 74.9905 182.473 4585.49 405.707 187.448 62.9391 634.703 93.0298 40.1203 122.02 73.905 357.05 261.08 74.319 76.2156 184.864 154.334 20.1441 34.8661 25.3405 16.67 21.115 12.7104 27.1883 18.8389 14.1423 12.5261 29.1306 13.7335 42.6679 27.9033 16.7883 12.3582 7.75252 9.74413 32.0104 15.7791 24.769
internal_count=11010 10937 244 10693 8437 7640 6879 2256 2191 538 132 761 406 1653 217 561 6706 350 6356 1572 1365 427 1436 298 186 1138 797 4784 234 1123 485 526 268 161 131 342 165 271 65 112 638 245 174 177 4550 258 201 161 196 177 173 74 75 147 140 69 68 72 71 127 212 151 161 134 83 173 110 140 76 200 85 273 173 107 157 97 93 207 166 171
is_linear=0
shrinkage=0.0969897


Tree=10
num_leaves=81
num_cat=0
split_feature=7 9 9 9 5 7 8 8 8 9 9 7 9 6 2 7 9 2 6 6 8 7 9 8 5 9 2 7 2 8 8 9 5 7 2 6 6 6 8 2 2 2 9 9 5 5 9 9 5 7 7 5 9 5 8 9 5 7 8 2 9 5 2 8 2 9 6 7 6 2 9 7 7 5 8 6 8 5 2 9
split_gain=170.712 388.72 904.319 239.466 134.294 518.256 329.395 127.289 570.002 120.013 106.348 111.386 181.681 123.582 307.558 110.354 109.712 308.47 293.449 275.523 105.911 191.638 105.648 180.331 87.3219 107.994 66.1778 65.6387 58.905 95.5943 369.872 190.085 85.4856 113.223 70.321 83.8096 69.4946 82.576 117.254 63.2695 50.2118 271.458 84.2274 282.173 50.0199 87.1644 44.0263 104.095 43.9448 63.8929 268.449 36.6031 34.0601 33.7509 29.5553 27.6604 26.9264 22.7649 20.7512 20.5147 19.9615 42.7365 54.1758 19.7265 19.352 18.1784 16.4878 14.9266 95.2955 14.8304 13.3641 32.2139 11.6189 14.1487 16.2792 11.2974 9.11691 18.5841 5.92641 5.30757
threshold=21.725000000000005 3.6350000000000002 3.8300000000000005 5.1250000000000009 14.560000000000002 8.8300000000000018 1.655 16.325000000000006 16.560000000000006 1.1400000000000001 1.3350000000000002 1.3700000000000003 36.855000000000011 9.3593333333333444 1.9650000000000001 2.0850000000000004 3.4350000000000005 1.2050000000000003 8.3633333333333368 4.7933333333333339 5.3500000000000005 1.4100000000000001 1.2050000000000003 1.2950000000000002 1.0450000000000002 1.2950000000000002 1.3200000000000003 1.5600000000000003 3.0650000000000004 1.6100000000000003 1.1400000000000001 1.3200000000000003 1.2350000000000001 1.0900000000000003 1.3500000000000003 2.2243333333333335 7.0406666666666631 4.5780000000000092 5.5900000000000007 3.1550000000000007 1.1400000000000001 1.2800000000000002 1.7550000000000001 1.4100000000000001 1.2050000000000003 2.2350000000000008 2.9350000000000005 3.0200000000000005 1.4950000000000003 1.6100000000000003 1.0150000000000003 1.1600000000000001 1.1900000000000002 42.515000000000008 2.0250000000000004 1.175 2.1450000000000005 1.4950000000000003 1.5200000000000002 1.2800000000000002 1.2950000000000002 12.090000000000002 22.350000000000005 7.4350000000000014 1.5200000000000002 4.8450000000000006 13.816000000000001 1238.2450000000001 2.7986666666666751 1.1250000000000002 1.0050000000000001 23.000000000000004 1.9650000000000001 15.640000000000002 1.6800000000000002 9.177999999999999 1.7550000000000001 1.0450000000000002 3.1100000000000003 2.0250000000000004
decision_type=2 2 2 2 2 2 2 2 2 2 2 2 2 2 2 2 2 2 2 2 2 2 2 2 2 2 2 2 2 2 2 2 2 2 2 2 2 2 2 2 2 2 2 2 2 2 2 2 2 2 2 2 2 2 2 2 2 2 2 2 2 2 2 2 2 2 2 2 2 2 2 2 2 2 2 2 2 2 2 2
left_child=4 22 -3 -4 7 6 -6 10 -9 -8 24 40 13 16 15 -15 17 18 -13 -19 27 -22 52 -24 25 -1 53 -18 29 30 34 -32 33 -30 51 -36 37 39 -39 -34 65 -42 43 78 54 -46 60 -48 59 50 -50 -26 70 -11 -44 58 -51 -28 -38 63 61 62 -10 -31 -61 75 -17 68 -5 -67 -2 -72 -59 -74 -75 76 77 -12 -43 -62
right_child=1 2 3 67 5 -7 9 8 46 26 11 12 -14 14 -16 66 20 19 -20 -21 21 -23 23 -25 28 -27 57 -29 32 48 31 -33 36 -35 35 -37 55 38 -40 -41 41 42 44 -45 45 -47 47 -49 49 56 -52 -53 -54 -55 -56 -57 -58 72 -60 64 79 -63 -64 -65 -66 69 -68 -69 -70 -71 71 -73 73 74 -76 -77 -78 -79 -80 -81
leaf_value=-0.18079617228023262 0.13666932402653956 0.84006058579480258 0.36522426547618525 0.11834021146026238 -0.170043546637516 0.51451051310150464 -0.18247688465981249 0.41668367188382821 -0.24082233017128635 0.12330096192014582 0.12783070798111756 -0.19600670231937833 -0.18940693995059069 -0.2115528306421133 -0.19292957838920025 0.023407842529548452 -0.014584798326742541 0.07453551736843643 0.11640137506905017 -0.053084296316293002 0.11458657644367463 -0.21781562880666563 0.083476433027403374 -0.21045222829167065 0.19947506420426903 0.1001684384501239 0.034752369342374544 0.092339412878274088 0.1033746540811822 0.045739411800279746 -0.20438071797809057 0.090398420274517999 0.18128497336568222 -0.18650623531017926 0.090991034376010277 -0.19938536368954865 0.15731126586681515 -0.20745355769562959 0.090874576085939643 0.097265788090742697 -0.20004806850755236 0.061277035618578578 0.12896840472403559 -0.2208624234405353 0.01751615854507893 0.095577527577313193 0.10533894581350457 -0.21543717314297967 0.11701028302908505 0.024047027288197284 -0.20049490246741464 0.10318504843358976 0.18872380650251683 0.21573261342262576 0.0631569375701094 0.1776855447688114 0.09917590181151828 0.12894979646406082 0.069761798330128119 0.14755973397496788 0.095700070476176444 0.11154901277139934 0.088047176011849859 0.11657688102788856 0.10687506575129552 0.029482794921973955 0.094022146780487176 0.11757849485763962 -0.21183812020128612 0.11321512249920533 0.13055667343605235 0.0050646987542591112 0.12472076601871707 0.1187063975181817 0.029141840419915205 0.14653869572393755 0.1172282545265859 0.037735656804375781 0.10885579777793514 0.11646953289419658
leaf_weight=24.525746274739504 44.298591817729175 22.524039328098297 39.025024137925357 31.599657806102186 38.478143179323524 30.465361316688359 11.890316872159017 55.843530448619276 9.2881412566639483 58.545499022118747 42.08359651453793 88.682621482759714 27.876788048539311 13.434929485898463 62.453156231436878 40.880840828176588 56.143999006133527 1326.6370452302508 41.52898320555687 180.82916280208156 35.647268518805504 30.085853543598205 64.269662329927087 28.273113203234971 52.148571480996907 27.076698070857674 35.629535765852779 1419.6910549676977 33.323534270282835 73.246879891958088 71.429371596314013 28.905542040243745 101.28881270624697 20.45552907185629 27.084915236569941 14.279959480743853 53.7421093005687 19.039114786311984 35.505581094883382 503.0271782153286 32.703090716619045 38.249218555632979 362.55585504230112 36.30570537596941 180.52292298944667 528.50629662303254 28.111337677575648 14.386792049743233 74.191891116090119 50.176493716891855 37.819679119158536 129.01025821082294 50.93410118855536 101.74239652603865 78.003255805466324 203.32781087001786 424.83073682710528 242.2599555561319 48.406872940249741 182.42562118079513 239.73662641085684 30.697227725759149 9.5640856828540564 74.690318045672029 276.94348393846303 44.2209965554066 130.07436075201258 35.416544452309608 11.115401979070155 36.177528444677591 39.754690075293183 37.294179528951645 76.274643984623253 32.509687423706055 46.247893366962671 97.150263138581067 322.78021377138793 44.113331601954997 69.151472207158804 223.78667457541451
leaf_count=149 6 7 27 5 280 60 73 14 133 59 6 485 179 115 358 75 137 1316 9 565 6 177 60 204 19 12 88 1003 16 98 421 15 12 127 17 131 30 123 22 302 220 51 146 293 454 451 10 181 25 107 263 91 8 37 107 57 231 51 59 54 163 7 9 19 133 83 124 4 92 10 3 87 8 2 90 27 98 87 31 96
internal_value=0.0846403 0.146313 0.277229 0.169021 0.0819401 0.123623 0.10512 0.0786597 0.121305 0.122617 0.0753813 0.0675945 0.0571968 0.0592033 -0.00690501 0.0561017 0.0643361 0.0468554 -0.096369 0.0592268 0.0829066 -0.0375529 0.0772615 -0.00632289 0.091535 -0.0333692 0.128732 0.0882718 0.0940772 0.0819666 0.0351416 -0.119458 0.112124 -0.00688511 0.10485 -0.00925255 0.118761 0.101032 -0.0132584 0.111348 0.0863726 0.0759207 0.082899 0.0128928 0.0916503 0.0757027 0.0916147 -0.00325264 0.0946246 0.0757014 0.00980757 0.130903 0.12216 0.181972 0.117316 0.156999 0.0912398 0.109021 0.115823 0.112916 0.0994726 0.04096 -0.0739807 0.0815037 0.123032 0.110002 0.077136 0.0710221 0.0324205 0.0671605 0.0942202 0.0698144 0.115681 0.0949473 0.0661124 0.116807 0.109745 0.0817224 0.0919113 0.105727
internal_weight=9643.36 404.505 139.681 117.157 9238.85 674.043 643.578 8564.81 611.414 605.1 7953.39 5366.49 3453.97 3426.09 246.843 184.39 3179.25 1637.68 130.212 1507.47 1541.57 65.7331 264.824 92.5428 2586.9 51.6024 593.21 1475.84 2535.3 1517.18 322.859 100.335 1018.12 53.7791 222.524 41.3649 964.337 658.861 54.5447 604.316 1912.52 1326 1293.29 143.706 1149.59 709.029 555.571 42.4981 1194.33 587.019 112.012 181.159 172.282 160.288 440.559 305.477 475.007 432.922 102.149 607.306 513.073 49.5495 18.8522 147.937 459.369 586.526 170.955 78.1316 42.7151 80.3985 121.347 77.0489 397.292 155.032 78.7576 506.127 408.977 86.1969 107.401 463.523
internal_count=11010 503 135 128 10507 748 688 9759 613 408 9146 6613 4549 4370 672 314 3698 2375 494 1881 1323 183 368 264 2533 161 335 1140 2372 1624 694 436 748 143 258 148 605 459 145 314 2064 1753 1533 375 1158 905 599 191 930 626 288 110 104 96 253 146 338 239 89 304 408 149 142 117 187 311 199 101 97 93 96 90 151 100 92 218 191 93 82 259
is_linear=0
shrinkage=0.0969897


Tree=11
num_leaves=53
num_cat=0
split_feature=1 1 1 1 4 6 8 8 5 1 1 4 1 1 1 5 1 9 9 5 8 8 6 4 8 1 5 9 6 4 9 6 9 5 4 6 6 9 6 5 8 5 6 9 6 4 5 6 5 4 6 5
split_gain=509.925 122.4 218.775 101.709 95.3307 462.331 110.146 63.5733 114.429 59.711 99.8158 137.769 65.7748 71.7263 221.197 64.4968 66.3394 52.0701 48.4514 39.1704 25.1144 50.1168 102.062 24.2497 92.4506 24.0907 21.5303 14.7515 12.3551 6.21986 6.11162 1.1721 1.15913 0.852798 0.794063 0.730273 1.01411 0.663458 0.628829 0.454291 0.426262 0.393114 0.337064 0.330126 0.306353 0.182103 0.140922 0.121537 0.129456 0.0908556 0.0721153 0.115949
threshold=149.47500000000002 18.830000000000002 39.025000000000006 1.0150000000000003 41.910000000000004 5.2426666666666657 3.5350000000000006 3.1550000000000007 1.0450000000000002 16.325000000000006 10.785000000000002 1.5200000000000002 9.7600000000000016 6.7300000000000013 8.1050000000000022 32.410000000000004 4.2600000000000007 1.9350000000000003 1.3200000000000003 1.5400000000000003 4.9150000000000009 1.7300000000000002 13.816000000000001 1.4800000000000002 1.1100000000000003 10.040000000000001 1.1600000000000001 1.1400000000000001 5.6053333333333333 1.0050000000000001 3.4850000000000003 5.4120000000000106 2.6900000000000004 1.7550000000000001 1.6300000000000001 11.555000000000003 6.7800000000000002 1.8800000000000001 6.7256666666666671 1.7800000000000002 1.6100000000000003 1.3700000000000003 7.2820000000000027 2.8100000000000005 10.664666666666669 1.5400000000000003 2.0250000000000004 3.4630000000000005 1.4450000000000001 167.57500000000002 4.1063333333333345 1.6300000000000001
decision_type=2 2 2 2 2 2 2 2 2 2 2 2 2 2 2 2 2 2 2 2 2 2 2 2 2 2 2 2 2 2 2 2 2 2 2 2 2 2 2 2 2 2 2 2 2 2 2 2 2 2 2 2
left_child=1 3 31 18 9 -6 30 8 -4 10 12 23 13 15 41 16 -5 -17 27 -16 21 26 37 24 -12 -14 -20 -1 -11 -27 42 45 40 -34 -31 36 -10 -23 47 -40 -33 -15 -7 -26 -44 -3 -38 -13 -49 -46 -47 -52
right_child=-2 2 7 4 5 6 -8 -9 35 28 11 38 25 14 19 17 -18 -19 20 -21 -22 22 -24 -25 43 29 -28 -29 -30 34 -32 32 33 -35 -36 -37 46 -39 39 -41 -42 -43 44 -45 49 50 -48 48 -50 -51 51 -53
leaf_value=0.11929720174633017 0.38021616080254955 -0.18580065375797722 0.092538936686237874 0.075858629441157663 0.47398041645856737 -0.21107888691884155 0.090392822923871574 0.099270401581972909 -0.17257196674854125 0.090777487141286986 0.1030690011284158 -0.18823562158491114 0.16267124198588401 -0.17498669892268864 0.088533957928403309 0.046558550601322378 0.036301363795393789 0.14841475379777649 0.12478737687655411 -0.0077730558657433998 0.11751818930958756 -0.24230045401082403 0.091703837275130859 0.11668972471781414 -0.17178604331841538 0.1285200395211793 0.042725755463429875 0.15954577524752114 0.13863195413891777 0.070684614542206217 -0.31955780372120624 -0.16542422300276421 -0.20250874373524799 -0.26174941587120598 0.090467603368814042 -0.16857039620295253 -0.21166977460945355 -0.20198572043653276 -0.18777082721365246 -0.22932808820957587 -0.20126253814486564 -0.19547966179244783 -0.13126591040867006 -0.20055298833790469 -0.19059856286691046 -0.17572615102125208 -0.23433464409595378 -0.1588666089911405 -0.17830107462889302 -0.16397811958484296 -0.14993091498933514 -0.17209573104487055
leaf_weight=158.66659853234887 52.686322178691626 7.2706777921412167 30.389503327198327 6782.0724649424665 32.578704333864152 1.8295214083045701 74.091283392161131 105.97153176926076 5.4778142389841404 74.376360451802611 31.875922519247979 6.6907464861869839 99.685753688216209 13.270774343051015 147.29495167732239 62.691155245527625 423.73115702299401 191.2332147709094 78.838294708635658 54.400270929094404 150.24753063265234 6.0855504865758148 25.949611948337406 31.913883090019226 10.012238553725185 41.080412581562996 48.626589586492628 186.17469860054553 159.78020511055365 33.812101457268 3.9847831632941952 5.3644275367259997 4.6765787010081095 4.4716234486550093 43.824525898322463 6.8975864527747026 4.6994553934782726 10.406975562218575 5.4615527344867569 4.5244782716035843 7.4685673948843032 26.17102623777464 1.9108700342476366 6.0024959738366297 2.3875150149688125 5.4741685707122079 5.7236510938964784 4.5614751297980538 10.998429742176084 2.4372802895959467 4.224386706016956 4.6796554871834815
leaf_count=53 73 50 14 7645 7 20 59 50 38 57 16 42 27 73 84 129 873 129 18 151 61 43 13 3 64 4 92 34 37 26 47 41 31 31 45 51 27 61 35 35 61 178 30 37 27 29 36 37 83 37 31 35
internal_value=0.0793338 0.0776204 0.00309884 0.0792904 0.0763946 0.162505 0.0453852 0.0558435 -0.0306801 0.0751526 0.073745 -0.0171596 0.0750311 0.0735425 0.0214801 0.0752254 0.0735325 0.123268 0.115801 0.0625585 0.0886307 0.0630858 -0.0282011 0.0511958 0.00755133 0.127518 0.0934817 0.141027 0.123432 0.0980007 -0.220327 -0.18931 -0.205086 -0.231465 0.0818518 -0.194926 -0.206359 -0.216861 -0.186379 -0.2066 -0.186281 -0.188585 -0.174161 -0.182568 -0.164134 -0.173291 -0.224116 -0.177304 -0.172604 -0.177151 -0.166966 -0.16158
internal_weight=9305.16 9252.47 202.79 9049.68 8384.69 119.22 86.6413 159.16 53.188 8265.47 8031.31 112.041 7919.27 7700.87 241.137 7459.73 7205.8 253.924 664.996 201.695 320.155 169.907 42.4421 79.8045 47.8907 218.403 127.465 344.841 234.157 118.717 12.55 43.6301 21.9812 9.1482 77.6366 22.7985 15.9009 16.4925 32.2367 9.98603 12.833 39.4418 8.56519 16.0147 6.73567 21.6489 10.4231 22.2507 15.5599 4.8248 14.3782 8.90404
internal_count=11010 10937 525 10412 10037 227 220 216 166 9810 9716 352 9364 9262 486 8776 8518 258 375 235 288 227 117 120 117 102 110 87 94 75 161 309 164 62 71 152 101 104 232 70 102 251 114 101 94 145 63 162 120 64 95 66
is_linear=0
shrinkage=0.0969897


Tree=12
num_leaves=73
num_cat=0
split_feature=5 7 7 0 9 9 5 0 7 0 6 0 9 6 6 9 5 9 5 5 5 5 7 7 7 9 7 7 5 2 2 5 2 6 2 0 9 0 6 2 0 2 2 0 7 6 2 9 5 7 9 5 9 6 9 9 9 0 7 6 9 6 0 7 0 9 5 7 0 0 2 0
split_gain=164.94 127.714 598.99 175.09 150.054 242.792 112.514 176.569 113.993 105.326 86.3359 81.9251 162.951 80.0623 538.379 83.9984 151.056 56.2045 87.4327 127.683 210.276 66.9815 57.0376 81.0603 52.8836 70.5573 51.4303 287.942 88.2935 49.0008 45.1221 40.4131 193.074 37.6609 36.7092 111.309 36.0238 107.745 150.24 33.7702 189.656 40.7685 32.6559 26.5918 26.2435 20.0195 95.0145 14.9769 12.8314 35.4484 100.707 9.693 4.89209 4.80134 2.79722 2.17666 1.61327 1.43617 0.915737 0.822961 0.67165 0.63976 0.603434 0.583775 0.464069 0.387393 0.30549 0.23766 0.236324 0.124736 0.12169 0.079781
