tree
version=v4
num_class=1
num_tree_per_iteration=1
label_index=0
max_feature_idx=9
objective=binary sigmoid:1
feature_names=lag_5 gap_std_2x time_since_instakill lag_1 rol_mean_15 rsi_7 lag_3 lag_9 bait_density_150 rol_mean_50
feature_infos=[1:10938.01] [0:5.7183913821983188] [1:87] [1:10938.01] [1.4060000000000152:735.71333333333337] [0.0074244561583896029:99.8861451171109] [1:10938.01] [1:10938.01] [0.0066666666666666671:0.11333333333333333] [2.3118000000000363:224.94220000000004]
tree_sizes=11902 11905 11933

Tree=0
num_leaves=115
num_cat=0
split_feature=4 2 5 0 6 7 5 5 9 5 1 4 8 3 4 3 5 6 0 8 2 0 4 7 7 4 0 0 2 1 9 9 3 7 7 3 9 2 0 4 0 6 3 5 5 6 5 9 1 5 2 3 1 1 9 0 2 5 0 0 5 0 0 2 2 6 7 9 4 0 6 6 0 4 9 4 8 2 1 9 2 2 4 3 7 4 5 6 9 7 1 6 0 2 7 1 1 8 0 9 0 1 6 9 7 1 4 6 9 5 2 6 3 7
split_gain=10.2087 9.48293 6.68806 6.47173 9.7994 6.35713 8.7253 7.83252 6.05974 5.91973 5.59054 7.0777 10.3977 7.9748 10.58 7.536 7.81006 5.98863 6.69688 7.68094 6.54841 8.58804 6.43343 5.87361 7.11983 7.94661 6.55271 6.70352 7.39376 6.88508 7.07069 6.38851 6.26956 6.07914 6.43455 7.24532 5.90573 7.38131 11.8973 5.61179 5.58512 6.08899 9.03287 9.74431 5.54121 7.53567 7.41312 5.47735 5.28304 6.00226 5.62839 5.22844 5.17394 8.55562 5.77931 5.14953 5.05446 5.021 4.9251 6.38532 11.3419 6.78691 5.79632 5.01033 14.4145 4.92353 8.09173 4.66641 4.59779 6.40723 6.31407 5.21138 8.67352 7.24819 5.81712 4.8635 4.55086 4.3752 7.83559 4.35431 4.10369 7.11982 4.09285 5.62925 4.90317 4.08496 4.05268 8.90907 4.03452 4.23247 3.9553 3.93292 3.89977 4.2536 3.87608 3.79189 13.5437 4.77665 4.22724 10.2239 6.2785 4.90166 4.11322 4.40517 3.6441 3.62501 3.51828 3.44648 3.41018 3.22645 3.22377 2.63093 2.61036 2.42958
threshold=2.3176666666666677 27.500000000000004 50.715803631258098 1.7050000000000003 97.375000000000014 1.5200000000000002 78.771467543909651 9.5320628046741707 6.319100000000005 71.84976330105674 1.1401754250991434 11.905000000000003 0.043333333333333342 1.2350000000000001 2.5403333333333413 1.5200000000000002 50.12099571575704 3.5350000000000006 1.2250000000000003 0.076666666666666675 13.500000000000002 1.2800000000000002 4.5443333333333422 1.7050000000000003 1.655 2.6193333333333411 1.4300000000000002 1.3200000000000003 6.5000000000000009 2.449489742783181 4.1843000000000101 5.6000000000000076 7.4350000000000014 3.3400000000000003 20.225000000000005 16.325000000000006 5.2416000000000205 20.500000000000004 1.2250000000000003 3.0866666666666749 1.6300000000000001 1.4100000000000001 1.3900000000000001 57.275599714406162 44.059965800478146 1.2050000000000003 29.720337607526286 55.154600000000009 0.8366600265340739 43.824518897028405 10.500000000000002 2.1450000000000005 1.732050807568877 2.1446343412137661 5.2209000000000101 1.1900000000000002 5.5000000000000009 47.114477917744274 32.410000000000004 57.390000000000008 49.929591155709012 42.515000000000008 122.38000000000001 58.500000000000007 45.500000000000007 1.8250000000000004 1.7050000000000003 2.8838000000000212 2.2456666666666671 2.7300000000000004 1.4300000000000002 3.0200000000000005 1.8800000000000001 1.9643333333333335 4.6633000000000235 1.851333333333341 0.043333333333333342 38.500000000000007 0.54772255750516774 4.1546000000000349 3.5000000000000004 10.500000000000002 28.907000000000007 2.0450000000000004 3.1550000000000007 2.1626666666666741 48.306914823987789 1.8250000000000004 3.077800000000019 1.7050000000000003 2.408318915758461 2.8750000000000004 1.3900000000000001 12.500000000000002 1.4800000000000002 1.7320508075688796 1.7320508075688752 0.023333333333333338 6.7300000000000013 10.828400000000007 1.9650000000000001 2.3021728866442692 1.0050000000000001 3.2805000000000342 1.9100000000000001 1.1401754250991434 3.6286666666666756 1.3900000000000001 6.4779000000000222 59.799662443454757 9.5000000000000018 5.9150000000000009 2.0450000000000004 1.0900000000000003
decision_type=2 2 2 2 2 2 2 2 2 2 2 2 2 2 2 2 2 2 2 2 2 2 2 2 2 2 2 2 2 2 2 2 2 2 2 2 2 2 2 2 2 2 2 2 2 2 2 2 2 2 2 2 2 2 2 2 2 2 2 2 2 2 2 2 2 2 2 2 2 2 2 2 2 2 2 2 2 2 2 2 2 2 2 2 2 2 2 2 2 2 2 2 2 2 2 2 2 2 2 2 2 2 2 2 2 2 2 2 2 2 2 2 2 2
left_child=1 44 -3 4 10 6 9 107 -8 94 11 13 55 48 -15 16 65 18 56 -20 22 -22 -19 24 25 31 27 29 -29 30 -27 -12 -31 40 35 36 80 38 -38 -28 41 42 -25 104 45 -1 -47 58 49 -2 -51 -39 54 -54 -41 -13 -17 -46 63 61 -61 -60 -62 64 77 66 -16 -59 69 71 -71 72 73 75 -75 -69 -30 88 -79 -67 -35 -82 84 -84 -14 -48 87 -43 105 -90 108 -80 93 -36 95 96 97 -5 100 101 106 -100 -99 -104 -44 -9 -97 -7 -88 -74 -89 -50 -96 -102
right_child=3 2 -4 5 -6 7 8 47 -10 -11 23 12 82 14 15 17 -18 20 19 -21 21 -23 -24 33 -26 26 39 28 76 32 -32 -33 -34 34 92 -37 37 51 -40 52 -42 86 43 -45 57 46 85 -49 111 50 -52 -53 53 -55 -56 -57 -58 67 59 60 62 -63 -64 -65 -66 79 -68 68 -70 70 -72 -73 109 74 -76 -77 -78 78 91 -81 81 -83 83 -85 -86 -87 90 110 89 -91 -92 -93 -94 -95 112 98 -98 102 99 -101 113 -103 103 -105 -106 -107 -108 -109 -110 -111 -112 -113 -114 -115
leaf_value=-0.8401109461965488 -0.94304438573696125 -0.19443755271577978 -0.6548307550238065 -0.59632122096925622 -0.45213105869807119 -0.34603043640256903 -0.76070514997965921 -0.74675271033431434 -0.40779050012681661 -1.09744454504758 -0.97245393989136475 -1.0500951628589903 -0.61953929003852226 -0.46630003418136678 -0.82668484538692977 -0.80358617732737025 -0.42837718803489905 -0.94304438573696125 -0.81318989277828713 -0.51259545674978202 -0.40779050012681667 -0.76005160433178365 -0.65483075502380639 -0.40779050012681656 -0.37691046826469288 -0.48123490023132709 -0.37249903514153232 -1.1031630694664916 -0.53131062757531156 -0.87601795998971599 -0.68227967223458308 -0.59307069129955892 -0.53131062757531156 -0.55002579840084098 -0.80052116175792865 -0.98779805510235796 -0.50043059571318782 -0.55601465306501052 -0.83520935383748163 -0.72134159288068833 -1.0331111453348223 -1.0459778252773735 -0.65483075502380661 -0.51461871846064999 -0.90187100992079627 -0.73717750665613646 -0.4927105877476568 -1.0415024583408341 -0.98557886488589208 -0.82668484538692988 -0.41901960262213439 -0.16075024522982684 -1.0366202398646089 -0.60542270404440846 -0.36878414409044974 -0.69600413083997148 -0.97615584181289816 -0.4430819651121008 -0.67383385155434417 -1.0974445450475798 -0.80151090636889422 -0.29377192094359045 -0.44896387594298159 -0.54895636006795367 -1.0171564622060583 -0.59307069129955914 -0.3433452162406454 -0.61953929003852226 -0.89625645867313741 -0.77835088247230144 -0.37249903514153232 -0.97245393989136486 -0.79030444319312343 -0.83449639494888994 -0.53131062757531156 -0.22251030895407431 -0.85481572327375066 -0.32544374849448693 -0.84845690075387958 -0.90628244304395689 -0.96094585348311989 -0.68227967223458308 -0.90187100992079638 -0.46955056385106414 -0.28427037267832173 -0.16075024522982684 -0.86999484799860405 -0.77460784830719542 -0.69788341355357231 -0.77893505543448549 -0.71295787382309816 -0.53131062757531156 -0.6636536212701275 -1.1014035234914421 -1.031273048200172 -0.60851070723062084 -0.41551050809234752 -0.57881836890165572 -0.97245393989136475 -0.42837718803489905 -1.0683546599600722 -0.69012222000909074 -0.67247648751644862 -0.82299671167055255 -0.93661104576568555 -0.49498117832575417 -0.8787109860242035 -0.6548307550238065 -1.0646929961029032 -1.0871512010935387 -0.53131062757531156 -0.77298044214845374 -0.77835088247230133 -0.91363483158255776
leaf_weight=6.0931747555732754 7.8340818285942104 4.7874944508075696 4.3522676825523376 8.2693085968494398 8.4869219809770566 4.3522676825523359 7.6164684444665891 9.3573755174875277 6.5284015238285065 5.2227212190628043 12.186349511146547 5.4403346031904203 6.0931747555732745 8.2693085968494398 5.0051078349351901 20.23804472386837 7.8340818285942069 13.056803047657015 42.434609904885292 7.1812416762113562 8.7045353651046771 11.75112274289131 9.7926022857427579 6.5284015238285056 5.2227212190628043 16.103390425443649 7.61646844446659 5.8755613714456585 4.7874944508075705 18.714751034975055 58.755613714456558 4.3522676825523368 4.7874944508075705 7.1812416762113562 8.4869219809770602 5.0051078349351874 17.409070730209354 5.4403346031904203 13.709643200039862 5.6579479873180416 6.9636282920837393 5.2227212190628078 4.3522676825523439 8.0516952127218229 10.880669206380842 5.8755613714456585 6.9636282920837385 5.0051078349351874 26.331219479441646 5.0051078349351865 4.7874944508075714 4.3522676825523376 4.7874944508075705 10.880669206380842 8.2693085968494398 6.5284015238285065 31.118713930249214 4.5698810666799536 8.4869219809770566 5.2227212190628078 6.9636282920837385 5.6579479873180381 6.5284015238285065 7.61646844446659 16.321003809571266 4.3522676825523403 5.0051078349351883 4.5698810666799563 9.574988901615141 4.3522676825523359 7.6164684444665909 6.0931747555732718 6.7460149079561216 11.96873612701893 7.3988550603389731 4.3522676825523376 9.1397621333599073 4.5698810666799572 8.0516952127218229 12.186349511146544 10.010215669870378 19.585204571485519 4.3522676825523359 4.3522676825523376 6.5284015238285065 4.3522676825523376 20.238044723868374 7.1812416762113562 52.444825574755669 414.11826999485493 7.3988550603389731 4.3522676825523368 6.0931747555732718 5.6579479873180381 9.1397621333599073 6.9636282920837385 6.9636282920837393 5.6579479873180381 10.663055822253233 5.2227212190628043 10.010215669870375 7.61646844446659 15.23293688893318 180.61910882592201 13.927256584167479 7.3988550603389731 6.9636282920837402 6.5284015238285065 9.574988901615141 4.3522676825523376 8.7045353651046735 5.0051078349351874 4.3522676825523368 27.419286400079727
leaf_count=28 36 22 20 38 39 20 35 43 30 24 56 25 28 38 23 93 36 60 195 33 40 54 45 30 24 74 35 27 22 86 270 20 22 33 39 23 80 25 63 26 32 24 20 37 50 27 32 23 121 23 22 20 22 50 38 30 143 21 39 24 32 26 30 35 75 20 23 21 44 20 35 28 31 55 34 20 42 21 37 56 46 90 20 20 30 20 93 33 241 1903 34 20 28 26 42 32 32 26 49 24 46 35 70 830 64 34 32 30 44 20 40 23 20 126
internal_value=-0.753666 -0.676353 -0.413672 -0.759385 -0.73909 -0.774218 -0.804281 -0.757193 -0.597821 -0.813692 -0.742852 -0.772459 -0.656445 -0.788834 -0.76354 -0.777298 -0.664212 -0.804247 -0.840111 -0.769683 -0.720625 -0.610153 -0.819524 -0.721779 -0.68609 -0.695483 -0.676628 -0.707605 -0.850291 -0.678879 -0.639032 -0.872616 -0.8058 -0.753219 -0.707581 -0.674334 -0.654139 -0.583872 -0.647921 -0.578263 -0.801083 -0.783362 -0.690823 -0.760997 -0.699054 -0.583258 -0.492222 -0.761566 -0.885402 -0.767676 -0.627382 -0.380342 -0.631217 -0.737178 -0.512011 -0.856955 -0.908152 -0.731746 -0.759051 -0.658103 -0.761116 -0.521809 -0.630924 -0.765378 -0.768569 -0.733803 -0.585015 -0.705891 -0.72381 -0.695068 -0.520082 -0.741118 -0.705331 -0.626326 -0.718673 -0.425867 -0.743611 -0.76046 -0.626326 -0.823858 -0.732305 -0.776534 -0.543915 -0.685711 -0.446124 -0.365034 -0.835502 -0.741422 -0.76517 -0.769824 -0.888869 -0.737178 -0.843431 -0.920874 -0.808834 -0.802317 -0.784304 -0.796546 -0.854474 -0.760052 -0.897684 -0.854816 -0.804762 -0.81129 -0.869521 -0.635581 -0.743611 -0.531311 -0.932526 -0.906715 -0.641294 -0.951622 -0.949685 -0.955013
internal_weight=1668.22 114.9 9.13976 1553.32 655.887 897.438 324.462 572.976 14.1449 310.317 647.4 269.188 33.2948 235.893 186.93 178.661 34.3829 144.278 100.973 49.6159 43.3051 20.4557 22.8494 378.212 177.137 171.915 155.376 118.164 19.8028 98.3612 74.859 16.5386 23.5022 201.075 102.931 82.6931 77.688 40.9113 31.1187 37.2119 98.1436 91.18 32.8596 26.3312 105.76 23.2846 17.1915 562.095 48.963 17.6267 9.7926 9.7926 29.5954 15.6682 13.9273 11.9687 51.3568 82.4755 557.09 32.8596 18.7148 14.1449 13.492 524.231 516.614 26.5488 10.0102 71.5948 67.0249 57.4499 11.9687 45.4812 39.388 28.2897 19.3676 8.92215 13.9273 500.293 16.9738 16.5386 36.7767 29.5954 21.3261 8.70454 12.6216 11.3159 58.3204 21.1085 483.319 466.563 37.2119 12.404 20.238 14.1449 305.094 291.602 216.743 209.779 74.859 23.5022 51.3568 18.2795 201.51 195.852 18.2795 16.7562 13.9273 10.8807 29.813 11.0983 15.8858 31.3363 13.492 37.4295
internal_count=7666 528 42 7138 3014 4124 1491 2633 65 1426 2975 1237 153 1084 859 821 158 663 464 228 199 94 105 1738 814 790 714 543 91 452 344 76 108 924 473 380 357 188 143 171 451 419 151 121 486 107 79 2583 225 81 45 45 136 72 64 55 236 379 2560 151 86 65 62 2409 2374 122 46 329 308 264 55 209 181 130 89 41 64 2299 78 76 169 136 98 40 58 52 268 97 2221 2144 171 57 93 65 1402 1340 996 964 344 108 236 84 926 900 84 77 64 50 137 51 73 144 62 172
is_linear=0
shrinkage=1


Tree=1
num_leaves=115
num_cat=0
split_feature=4 3 5 7 1 3 7 6 0 6 4 5 3 4 9 1 5 5 3 0 2 7 9 4 5 5 3 1 1 3 5 7 7 4 7 4 2 2 6 0 3 0 9 9 2 5 1 9 6 5 8 7 9 2 3 2 5 2 3 1 4 1 6 7 0 0 4 5 5 4 4 1 3 2 2 1 9 6 3 5 3 3 9 9 7 7 9 2 4 7 3 5 3 6 7 4 9 3 3 8 1 7 1 2 0 4 1 4 8 9 2 5 5 1
split_gain=5.7273 6.98302 9.76068 5.4635 5.41138 5.16425 4.59915 8.85595 15.8736 15.3597 7.77466 7.52623 7.70615 6.85962 6.42935 10.6639 11.0766 8.78201 6.22928 10.748 4.89795 6.97181 5.26059 5.3733 5.36795 6.17764 13.5885 10.0904 9.17861 7.41404 5.20981 7.52914 7.00641 9.43287 6.76731 6.6713 5.01779 8.17725 4.79298 5.08097 7.40191 4.67824 5.87794 7.39291 8.10786 7.64544 5.56836 12.9622 7.87705 7.65684 10.0347 8.10598 8.09346 8.0637 5.65539 8.04937 6.90455 6.71953 6.12478 8.28732 6.65198 6.0247 5.94163 6.8813 6.31642 5.9383 5.49596 5.39386 7.09765 5.26007 4.56577 4.46934 7.04799 4.87797 4.35869 5.84329 4.05482 4.03954 7.58833 4.01116 4.83917 3.98343 4.88473 5.19716 3.9319 7.66811 3.93058 3.89827 5.60507 3.8874 3.87889 3.87389 3.745 3.68014 3.64513 4.21458 3.61782 3.61438 3.48819 3.2847 3.08847 3.38412 3.01913 2.90576 6.86651 2.85353 2.74718 2.39235 5.26527 6.34641 4.39074 3.92271 2.79627 2.25889
threshold=2.0066666666666673 2.0250000000000004 43.824518897028405 1.2350000000000001 1.9235384061671355 1.4100000000000001 1.175 3.2000000000000006 1.1250000000000002 8.7050000000000018 13.329000000000002 31.399622017900509 1.8800000000000001 3.4726666666666675 4.2770000000000072 2.9154759474226526 51.369355909898424 43.623097019381611 3.0650000000000004 2.2700000000000005 35.500000000000007 1.7050000000000003 3.5206000000000199 18.422666666666668 31.399622017900509 52.015191757270621 2.0850000000000004 0.89442719099992141 1.0954451150103337 3.2450000000000006 22.301761758135651 5.1250000000000009 3.0650000000000004 3.0196666666666672 15.200000000000001 3.7873333333333425 13.500000000000002 19.500000000000004 1.7550000000000001 1.6100000000000003 1.4450000000000001 19.375000000000004 9.6024000000000225 6.4779000000000222 5.5000000000000009 50.540276512504924 1.7888543819998357 37.013300000000008 51.195000000000007 65.434999437561586 0.043333333333333342 1.9100000000000001 4.1546000000000349 6.5000000000000009 3.8300000000000005 31.500000000000004 86.700280822654747 14.500000000000002 1.6300000000000001 1.732050807568877 62.68533333333334 0.83666002653407034 2.4350000000000005 1.7050000000000003 1.7800000000000002 2.2050000000000005 11.344666666666669 50.136584471969933 49.929591155709012 8.7130000000000027 4.466000000000002 0.8366600265340759 10.335000000000003 14.500000000000002 10.500000000000002 0.89442719099991774 6.87670000000002 1.4950000000000003 3.4850000000000003 49.122353874463023 1.9350000000000003 14.355000000000002 10.232100000000022 6.1171000000000371 1.3350000000000002 1.2550000000000001 3.5920000000000027 12.500000000000002 5.4936666666666758 2.2350000000000008 1.655 75.213562582148597 46.320000000000007 1.0900000000000003 3.3400000000000003 4.2116666666666669 4.5039000000000051 1.175 1.4300000000000002 0.070000000000000021 1.341640786499873 1.8250000000000004 1.3779271744364856 50.500000000000007 2.4700000000000006 4.620333333333341 1.140175425099144 3.9503333333333415 0.05000000000000001 5.2209000000000101 7.5000000000000009 50.339088254774246 49.869196848159739 0.89442719099991774
decision_type=2 2 2 2 2 2 2 2 2 2 2 2 2 2 2 2 2 2 2 2 2 2 2 2 2 2 2 2 2 2 2 2 2 2 2 2 2 2 2 2 2 2 2 2 2 2 2 2 2 2 2 2 2 2 2 2 2 2 2 2 2 2 2 2 2 2 2 2 2 2 2 2 2 2 2 2 2 2 2 2 2 2 2 2 2 2 2 2 2 2 2 2 2 2 2 2 2 2 2 2 2 2 2 2 2 2 2 2 2 2 2 2 2 2
left_child=1 2 -1 -4 -3 -5 7 11 9 -9 13 12 -2 74 77 16 17 98 19 -18 30 84 -23 24 -24 26 28 29 97 -28 31 32 33 -8 113 -35 100 -38 39 40 -19 46 43 44 -43 87 54 48 49 50 93 -52 53 -51 58 56 71 92 60 61 62 65 63 -32 -64 -60 -63 68 -44 -45 -41 73 -73 -56 75 -10 -54 105 86 -40 -81 82 83 -20 85 96 -79 -46 -89 -57 -77 94 -58 -48 -27 -96 -22 -26 -16 103 101 -37 -30 104 -86 -13 -34 -15 110 -110 -109 -111 -112 -33
right_child=6 4 3 5 -6 -7 20 8 10 -11 -12 14 -14 107 15 -17 18 38 81 -21 21 22 23 -25 25 91 27 -29 102 -31 41 34 106 35 -36 36 37 -39 79 70 -42 42 67 69 45 -47 47 -49 -50 52 51 -53 76 -55 55 89 57 -59 59 -61 -62 66 64 -65 -66 -67 -68 -69 -70 -71 -72 72 -74 -75 -76 90 -78 78 -80 80 -82 -83 -84 -85 99 -87 -88 88 -90 -91 -92 -93 -94 -95 95 -97 -98 -99 -100 -101 -102 -103 -104 -105 -106 -107 -108 108 109 111 112 -113 -114 -115
leaf_value=0.28452061372044002 -0.33760543032613666 0.041038989893264849 -0.25179849560335754 0.17172581693871972 0.42661536210444195 -0.15068348890367506 -0.22377693066789126 0.55701719569736119 -0.26629922631034586 -0.06349246782241412 0.24061337537572641 -0.24051091598296517 -0.013301508203851281 -0.24222851851876953 0.0055959104471197587 -0.32412523836630219 0.50726039135213918 0.30857693201986769 -0.054954041957309421 0.011772035519959921 0.018764633865340385 -0.22179471583167207 -0.20395974633387678 -0.18762776300573455 -0.33269957171424719 -0.25603938373107882 0.71347102719467648 -0.0154794456909299 0.36431408330827347 0.2556733928918361 0.094141343912931011 -0.34350639380836873 0.20570989686590743 0.44346233512978994 0.12792188963704423 -0.07815860403936073 0.45245191440217714 0.001216066647491082 -0.35989252257363846 -0.24013525722587134 -0.15094154252783043 0.27801042097917239 -0.13408159360654298 0.53202253826058243 -0.28098795863642456 0.18979909923774718 0.057639598086416929 0.42320763692501467 0.36793413113838908 0.051786040635935449 -0.0227368634866855 0.12884234139403314 -0.04969782417593345 0.4860550040127613 0.051704095159143676 0.37996193842220227 0.056424134459663107 -0.10837505998766522 -0.11603030589071991 -0.1646760401860359 -0.27767105174572959 0.080112259377269165 0.009908538048570668 -0.016658971360764642 -0.10445238509632203 0.038450946473960808 -0.059829928833176518 -0.26681255673411342 0.22529231766605037 0.16967698257992722 -0.0086520944221171823 -0.061005443528528734 -0.19579287146619076 -0.1053455073628219 0.24955024939261378 -0.057755861374480223 0.15675956476550906 0.17946217011915888 -0.27646207645819171 0.02457627518647339 -0.30047824277547858 0.20169412925333816 -0.23948722143308807 0.28176310441422187 0.11912725218325203 0.25800054816274975 -0.098005686514688731 0.20410523535042815 -0.2184589647994277 0.031974940693343029 0.28834367661488242 0.15593539659612374 0.33127812806552137 -0.1400933401904029 0.18020585485185783 -0.19440819764680073 -0.30201225423082895 -0.043416614342971178 0.3253528169039076 -0.39537591414415751 -0.16935046481173216 0.23386031365474788 0.084493480714653207 -0.33203547609287581 -0.26305230143870167 -0.012120093462664799 0.46883838427007563 -0.39566240116423923 0.216268799918058 0.02369029002596201 0.067937589044300389 -0.28343507713058419 -0.19295347852122766 -0.095134934914212141
leaf_weight=7.9870260059833553 13.951641082763674 4.2553683370351774 7.3350059688091305 8.3097549825906736 6.8846743106842041 6.3192390948534003 6.2602726072072974 7.5307868868112546 4.2667891234159496 4.6693566590547562 7.9050629138946524 22.210297554731373 8.5310496836900693 7.2370255887508383 4.6901651769876462 7.4901555031538001 6.714498892426489 6.0762117207050306 9.5527208000421577 5.980181947350502 4.5160539448261243 7.4043120145797721 5.9593736231327048 8.4061803966760618 4.2272354215383592 7.5230124890804353 4.9645977914333326 4.2372045367956153 4.559375047683714 5.2682654857635498 55.546523168683052 4.739736273884775 6.9152925312519056 4.4238934814929989 7.5024292767047873 5.004080682992937 5.6746841669082624 5.9379298686981201 7.5282032191753414 10.627909153699877 4.3429419994354248 9.0391715466976148 8.3275108784437197 4.5956734567880613 6.9045118540525463 8.2540674954652768 8.1257910132408124 6.148519203066825 4.7799387425184241 5.3780476003885251 63.171495899558067 42.73344612121582 15.495737269520761 7.2593066096305847 34.974983870983124 4.4335731565952283 7.1286545842885989 8.390760585665701 30.284544825553894 14.865579560399054 7.1664604842662802 184.90217204391956 58.929702416062355 149.48702070116997 85.557268604636192 44.245150119066238 22.773891001939774 5.7323801517486563 7.5895369797945014 7.8203077465295792 14.632169231772421 94.044021084904671 39.930421322584152 24.160167545080185 7.4998651146888724 4.7354137748479825 12.351907059550284 8.7262519150972384 6.9930199384689322 7.7046059966087324 5.8001944273710251 8.4746257364749891 5.2969168722629538 5.0695545971393576 6.125379636883741 4.5243613719940177 6.3898463100194922 4.4142771363258344 4.6646126806735992 4.8640367835760117 4.6245182007551193 4.7962118089199057 7.1986421793699265 41.702975258231163 4.498908653855322 4.1914394646883011 5.8065171390771866 11.919972032308577 5.195426419377327 5.3513398021459571 5.6943011581897727 5.0419920831918716 7.1623647660017014 5.0027678310871115 7.6246039420366287 4.8081376254558554 4.8968508243560791 4.9393955320119884 7.50369964540005 7.7236463576555234 4.6879887729883185 4.9178928583860397 8.0917558372020704 5.9883497357368469
leaf_count=35 65 20 34 38 30 29 29 34 20 21 36 103 40 34 22 35 30 28 45 28 21 34 29 38 20 35 22 20 21 24 256 22 31 20 34 23 26 27 35 50 20 41 40 21 32 38 37 28 21 25 293 197 72 33 162 20 33 39 142 69 34 852 272 694 397 205 104 26 34 35 68 434 185 112 35 22 56 40 33 36 27 39 25 23 28 21 30 20 22 22 21 22 32 193 20 20 27 55 24 25 26 23 33 24 35 22 22 23 35 36 22 23 38 27
internal_value=-0.00146323 0.0976385 0.0300599 -0.0624726 0.27933 0.0324557 -0.00397904 -0.0357811 0.0354137 0.31953 -0.0113436 -0.0686875 -0.214548 -0.0414175 -0.0487285 -0.0140018 0.00756893 -0.0601449 0.117322 0.273847 0.00247629 -0.0484089 -0.00530549 0.0153208 0.0399359 0.0628798 0.122009 0.333341 0.0122823 0.477779 0.00764496 0.0799006 0.133958 0.0778014 -0.0679139 0.137215 0.087684 0.221719 -0.100897 -0.0409002 0.117039 0.00337995 0.0721276 0.126791 0.0607472 -0.0202793 -0.000882916 0.0387624 0.0270023 0.0186971 -0.00837575 0.0384265 0.122838 0.301244 -0.0102271 -0.046971 -0.0575203 0.0826493 0.00242591 0.0309343 -0.0213177 0.0412384 -0.0160615 0.0133584 -0.0578097 -0.0243213 0.0647661 -0.0432424 0.0372744 0.303796 -0.106046 -0.0740103 -0.101178 -0.0124599 0.0849784 -0.00559856 0.041877 -0.130143 -0.0449368 -0.202673 -0.115032 0.047341 -0.0183286 0.0617861 -0.142601 -0.0337854 0.0621715 -0.128767 -0.0130026 0.197913 0.113244 -0.0562795 0.194522 -0.107848 -0.119057 -0.000474148 -0.161675 -0.119149 0.173646 -0.209627 -0.0112019 0.0784396 0.193335 -0.156621 -0.0927979 -0.199867 0.314793 -0.100624 -0.0735595 0.0204459 -0.180436 -0.0957896 -0.0972509 -0.204867
internal_weight=1659.73 41.0911 29.951 21.964 11.14 14.629 1618.64 273.12 86.3332 12.2001 74.1331 186.787 22.4827 66.228 164.304 115.176 107.686 66.5978 41.0885 12.6947 1345.52 124.069 85.1185 77.7141 69.308 63.3486 42.339 14.4701 27.8689 10.2329 1221.45 68.0798 49.8493 38.0372 18.2305 31.7769 27.353 11.6126 56.7122 35.6792 10.4192 1153.37 67.342 45.6926 33.2766 24.2375 1086.03 207.147 200.999 196.219 155.734 105.905 40.485 12.6374 878.884 225.125 215.828 22.7181 653.758 297.071 356.687 282.206 349.521 205.034 144.487 74.5297 207.676 21.6494 15.917 12.416 25.2601 193.11 133.974 59.1352 21.1266 13.6267 27.8476 49.1276 22.1091 21.033 13.5048 28.3938 19.9192 14.6223 38.951 14.8469 15.1161 15.9834 9.07889 9.29761 9.35993 21.0096 14.3273 49.8288 16.2134 8.69035 10.3226 16.1472 9.88559 24.1041 15.7404 10.0461 11.7217 18.7528 13.75 27.0184 11.8121 45.1014 37.8644 20.1452 17.7191 12.6415 12.7797 10.7281
internal_count=7666 186 136 101 50 67 7480 1268 400 55 345 868 105 309 763 535 500 310 190 58 6212 574 393 359 321 292 195 66 129 46 5638 310 227 174 83 145 125 53 264 166 48 5328 309 209 153 112 5019 955 927 906 720 490 186 58 4064 1039 997 104 3025 1372 1653 1303 1619 950 669 347 956 100 74 56 118 893 619 274 98 63 128 228 103 98 63 132 93 68 181 69 70 74 42 42 43 97 65 230 75 40 48 75 46 112 72 46 54 87 63 125 53 211 177 94 83 59 60 49
is_linear=0
shrinkage=0.268796


Tree=2
num_leaves=115
num_cat=0
split_feature=4 1 9 9 0 3 4 2 4 1 9 9 5 5 5 6 9 8 9 9 5 3 6 2 2 4 8 7 6 0 5 3 9 7 1 6 5 9 9 0 1 3 3 0 0 2 5 7 7 0 7 3 2 9 6 5 0 9 2 9 6 5 9 0 2 2 0 1 7 5 5 3 5 3 6 3 4 7 4 0 7 7 9 9 2 1 9 2 7 0 9 2 3 7 0 5 3 2 1 8 5 1 0 9 5 5 2 9 4 3 0 8 6 6
split_gain=7.80719 8.89896 7.27179 12.9823 7.5854 8.26516 7.21676 7.67295 6.66257 7.42217 6.46662 6.07519 5.89305 13.79 5.5938 5.43607 7.43582 7.56301 6.19295 8.97526 7.43371 5.31618 5.09062 6.68882 5.36951 8.07878 8.00401 5.0755 5.67785 5.3248 5.30724 5.91933 5.75175 6.42894 5.14154 4.84923 4.82414 7.50182 7.39519 7.21665 7.08811 6.4675 5.50469 5.53072 5.41993 5.38873 5.2832 10.2474 9.86636 7.7869 9.83508 6.92684 5.71204 7.6324 7.10362 9.41594 9.57773 7.23241 5.65858 6.35327 6.29506 5.42024 4.98676 5.21866 4.74879 7.28929 20.3594 5.58038 10.2214 10.4736 4.73248 8.75644 4.67441 6.3467 6.11119 4.60972 4.51989 4.45867 7.35827 4.34798 4.28709 4.24978 4.17588 6.01215 6.12924 8.0812 5.82208 5.43555 5.18901 4.25133 3.9489 3.54057 3.5678 3.53304 6.57471 3.4264 3.35636 3.27657 3.15094 3.08651 3.04616 3.83752 4.12972 5.1238 4.37101 4.88931 4.25353 2.91771 2.86053 2.80839 2.80012 5.5707 2.73432 6.25258
threshold=6.9786666666666752 0.44721359549996259 6.7560000000000082 7.2012000000000214 1.2350000000000001 14.560000000000002 6.7903333333333356 16.500000000000004 8.7130000000000027 0.44721359549995537 7.0467000000000359 55.154600000000009 49.122353874463023 49.899371003076958 36.426206221696262 1.1600000000000001 4.3320000000000212 0.043333333333333342 15.521900000000038 28.537300000000041 44.494964667445494 2.9350000000000005 1.0750000000000004 4.5000000000000009 8.5000000000000018 4.0160000000000089 0.036666666666666674 14.560000000000002 2.0850000000000004 1.5600000000000003 50.368180389635306 34.810000000000009 12.613100000000019 2.6900000000000004 1.2247448713915918 2.3000000000000003 80.041705389470835 5.6396000000000042 5.1371000000000189 2.4700000000000006 1.732050807568877 13.555000000000001 13.555000000000001 1.5800000000000003 1.2050000000000003 23.500000000000004 57.072147551691451 5.2000000000000011 1.0600000000000003 1.2250000000000003 1.4800000000000002 4.705000000000001 3.5000000000000004 3.1048000000000235 1.6100000000000003 46.243885992720259 3.0650000000000004 3.3846000000000096 55.500000000000007 4.2173000000000078 1.1900000000000002 67.126300250709463 3.8163000000000182 1.3900000000000001 8.5000000000000018 14.500000000000002 1.4300000000000002 1.5165750888103144 1.4300000000000002 44.273013348534256 49.375793819602173 3.1550000000000007 49.655361216840284 1.4100000000000001 1.4100000000000001 6.8250000000000011 2.4850000000000008 5.2000000000000011 3.853333333333341 2.7300000000000004 1.3500000000000003 1.2250000000000003 4.1202000000000183 5.2209000000000101 19.500000000000004 0.89442719099991452 4.9451000000000098 34.500000000000007 13.750000000000002 3.7950000000000004 6.668200000000005 21.500000000000004 1.2950000000000002 1.3700000000000003 1.9650000000000001 50.259224888587454 5.4200000000000008 9.5000000000000018 2.1446343412137661 0.056666666666666678 35.161119955409909 0.83666002653407179 1.5600000000000003 3.9016000000000095 53.593946989261234 50.12099571575704 11.500000000000002 15.951600000000008 2.894000000000001 1.0150000000000003 1.3350000000000002 0.05000000000000001 1.9350000000000003 6.6350000000000007
decision_type=2 2 2 2 2 2 2 2 2 2 2 2 2 2 2 2 2 2 2 2 2 2 2 2 2 2 2 2 2 2 2 2 2 2 2 2 2 2 2 2 2 2 2 2 2 2 2 2 2 2 2 2 2 2 2 2 2 2 2 2 2 2 2 2 2 2 2 2 2 2 2 2 2 2 2 2 2 2 2 2 2 2 2 2 2 2 2 2 2 2 2 2 2 2 2 2 2 2 2 2 2 2 2 2 2 2 2 2 2 2 2 2 2 2
left_child=6 8 82 10 5 12 15 -8 21 35 79 27 14 -14 -5 16 100 22 36 91 -21 -2 24 -24 25 26 -18 28 29 -6 32 75 99 -34 107 -10 42 38 39 41 -39 -38 46 44 -44 -45 52 48 -48 76 -51 -49 54 77 62 56 -56 -57 60 -60 -55 -53 63 -17 67 66 -66 68 81 -70 -37 -72 73 -31 -74 -32 -50 78 -54 -4 -15 -19 -3 84 85 -84 89 -86 112 -87 -67 92 -20 -22 -95 -82 110 -90 -69 -30 -1 -102 106 104 105 -104 -103 -29 -100 -64 -94 -112 -85 -114
right_child=1 2 3 4 11 -7 7 -9 9 -11 -12 -13 13 80 -16 18 17 64 19 20 93 -23 23 -25 -26 -27 -28 34 30 72 31 -33 33 -35 -36 70 37 40 -40 -41 -42 -43 43 45 -46 -47 47 51 49 50 -52 61 53 58 55 57 -58 -59 59 -61 -62 -63 109 -65 65 90 -68 98 69 -71 71 -73 74 -75 -76 -77 -78 -79 -80 -81 95 -83 83 88 87 86 -88 -89 97 -91 -92 -93 96 94 -96 -97 -98 -99 108 -101 101 102 103 -105 -106 -107 -108 -109 -110 -111 111 -113 113 -115
leaf_value=-0.2197500860824014 0.25523157771862454 -0.33919467921561069 -0.02056410847335401 0.091154798165458031 -0.20576538276632519 0.33411005246528086 0.39231525501755676 -0.050083950956763254 -0.31392516830370204 -0.34272113564950041 0.4595291144677629 -0.28029376625423869 0.49932550783290247 0.18356785611138612 -0.25058483782676128 -0.11147609401317071 0.16403515816190301 0.020121688195434511 -0.28325793635482643 0.27725061947114449 -0.17498936248819227 -0.15600812255922458 0.25599712842545724 -0.11329081526248387 0.40965909519173582 0.30782155461564131 -0.29339938756704625 -0.14768078476892835 -0.025627800001967408 0.28963186752392844 0.13867280522291833 -0.087497039510088456 -0.034674468443442644 0.2494821377914016 0.040102597950726175 -0.24520988332929178 -0.14580310127366736 0.081302761358991574 -0.28836386501371225 0.39455799721180324 0.44953196980974663 0.20448476324722101 -0.16723964804361732 -0.30818314080806408 0.22134178571449245 0.045254921429328576 0.29200853429743884 0.45021035481612498 0.078680982021013826 0.2024476360596966 -0.023714926328979761 -0.014552488187307425 0.11711534177439137 0.15172191843059699 0.39460400837990528 -0.18631340781727676 0.0053229620364927243 0.0951468089978669 -0.08458975169144059 0.29198571925837463 -0.014676460389522195 0.35203820832007438 -0.24432692763923242 0.26236752109302047 -0.24634954085483959 -0.16330188236788584 0.44978601993184192 -0.36388116914925966 0.17735713379940002 -0.23303438646381266 0.32070059016711927 -0.12861804932561532 0.0098365336873585656 -0.029209168658969942 -0.19948655013587313 0.45670183362230943 -0.20449857679540878 0.30897016352042905 -0.23863951068758066 0.32175833053914638 -0.19516435511567443 0.36569026935908749 0.33752221012430267 -0.081493271000351808 -0.19330176793080034 -0.22427959883104015 0.2169690251952123 0.15476352185384276 -0.074909235446708675 0.1081163652204294 0.098062353110455358 -0.35226613814735336 -0.1857261824339721 0.22543875249409337 -0.11149641007919034 0.045927294422790012 -0.27269458360849069 0.23744150104093042 0.043690411206514172 -0.23282447381291485 0.097019731820498445 -0.094439006985442178 -0.13679990067569364 -0.3146268525401687 -0.27625308727653181 0.13301478652424345 0.14213044113119702 -0.40002359452903974 -0.25080942959816582 -0.04137467260240018 0.21441719865261083 -0.16315119726927443 -0.28788052792711671 -0.054278042808186787
leaf_weight=12.370793864130972 4.8568722754716855 4.1203972846269599 6.8977829515934008 5.9197717905044547 14.530432507395743 7.7891342788934699 7.1312784254550916 4.6990446448326111 5.83917108178139 14.726579710841177 5.9116565585136405 7.1775280833244315 5.2024109512567547 7.8769118338823345 8.330961272120474 4.5209121108055097 6.202410697937017 5.1164676398038846 7.3710433989763287 7.158682405948638 8.438927039504053 4.2661950439214706 4.8888745903968838 12.880103290081022 5.5492941290140143 8.5012424588203412 4.9850005805492401 8.5911675989627856 15.746771171689035 6.949608281254771 8.9006221592426318 4.862955078482627 12.634792879223825 10.561285793781279 6.7961663007736197 5.3545884042978313 8.8954526185989433 7.7864406704902631 4.5909586399793616 4.3857590705156317 7.3348292857408524 6.6592844724655142 4.7689791470766085 11.116606459021567 5.6850579828023911 4.3311051130294791 9.705612510442732 7.5805476456880596 5.4434062540531185 21.224524289369583 40.216375544667244 7.7091826945543271 33.676663562655449 16.895809218287468 14.030390202999117 7.6920181810855857 6.7699081748723975 46.303001314401627 4.9605571776628485 9.3162074089050275 591.55217546224594 4.6850418299436569 7.3393225222826031 6.6905516684055328 4.7932203859090832 11.565131530165674 8.2773889750242216 6.630259811878207 6.0490755289793041 17.467761650681496 5.3029435276985151 7.6609983146190643 24.592726767063141 12.853299483656881 17.07302300632 5.2266941666603079 16.168972358107567 6.7917167693376532 4.7993383109569541 4.3850075155496597 7.3392694890499142 5.1687995046377182 7.3886891454458263 35.025033369660378 13.011781245470049 7.7063889503479022 6.1531945317983618 4.3172345757484427 5.0340032130479795 4.3490069061517715 6.5377421528100959 5.8566424250602713 4.6513985395431581 7.5160002112388637 9.43977142870426 10.148477226495741 4.4463037550449362 4.6845637112855911 4.1975148171186429 7.7517084777355185 8.2586786448955518 15.604786291718485 12.186027005314832 10.363198027014731 6.9623111486434928 8.063268378376959 8.4730088114738447 5.3861507922410956 5.5125724077224731 14.983094960451124 6.9404542446136457 4.7595002800226212 19.479247003793716 14.39710485935211
leaf_count=59 23 19 32 27 67 35 33 22 27 69 27 35 23 35 39 21 29 24 35 34 40 20 23 60 25 38 23 40 73 32 41 22 60 48 32 25 40 36 21 20 32 31 23 55 27 21 45 35 25 99 185 36 151 78 64 36 32 216 23 43 2758 22 35 30 22 54 39 31 28 80 25 35 114 60 80 24 75 31 22 20 34 23 35 163 60 36 29 20 24 21 31 28 21 34 44 48 21 22 20 36 39 72 56 49 33 37 38 25 26 70 32 23 91 66
internal_value=-0.00300847 -0.0350108 -0.0207052 0.00677703 -0.0106325 0.078541 0.00765644 0.216593 -0.143807 -0.192311 0.231798 -0.0382868 0.0341243 0.100676 -0.108626 0.00564325 -0.0341204 0.00736498 0.0136881 -0.0655737 0.0353242 0.0629247 0.098527 -0.0116866 0.176124 0.110301 -0.0397932 -0.0275947 -0.00940242 -0.059427 0.0484773 0.168287 -0.000248318 0.0947034 -0.151674 -0.10062 0.0192162 0.111004 0.0192124 0.0900265 0.259919 0.00416192 0.0152383 -0.10691 0.0440766 -0.209089 0.018797 0.0731722 0.0355654 0.00559746 0.0544121 0.247811 0.0109009 0.0016158 0.0681555 0.114244 0.267904 0.0550506 -0.00613086 0.161142 -0.0100558 0.12402 -0.0346427 0.111619 -0.0408494 0.0415335 0.194501 -0.0920667 -0.0297204 -0.127472 -0.0326273 0.0551772 -0.0248344 0.0826845 -0.075936 0.256334 -0.133175 0.108183 0.0727399 0.112478 0.0189112 0.193785 -0.0730678 -0.0640461 0.0168583 0.100429 0.00422139 -0.106587 -0.10822 -0.104367 -0.0689118 -0.162107 -0.12257 -0.032874 0.0378571 -0.0552542 -0.0656196 0.0756507 -0.221038 -0.0939781 -0.096802 -0.0750464 -0.0980955 -0.153784 -0.0925294 -0.0293597 -0.0111899 -0.244921 -0.123502 -0.108103 -0.00931127 0.0608237 -0.134155 -0.188602
internal_weight=1652.73 413.11 365.103 239.436 222.242 52.6069 1239.62 11.8303 48.0073 38.8843 17.1944 169.635 44.8178 30.5671 14.2507 1227.79 206.605 124.323 1021.19 66.5787 32.5534 9.12307 43.0069 17.769 25.2379 19.6887 11.1874 162.457 141.684 75.9991 65.6848 18.9903 46.6946 23.1961 20.7735 24.1577 954.61 39.6527 24.5315 19.9405 15.1213 15.5547 914.957 25.9017 10.454 15.4477 889.055 112.734 92.7589 83.0533 61.4409 19.9748 776.322 667.992 108.329 74.7953 20.8003 53.995 622.725 14.2768 608.448 12.3942 33.5339 11.2115 81.3159 31.1735 13.0706 50.1425 33.8021 23.5168 18.3185 12.9639 61.4687 19.8029 41.6657 14.1273 21.6124 45.2677 38.476 11.2828 25.3647 10.2853 125.667 121.546 42.9263 25.5973 18.2086 17.329 78.62 12.0554 18.1029 34.0253 28.1687 25.3947 16.9558 17.4877 20.7977 9.71857 16.3403 23.4985 82.2821 69.9113 61.6526 37.5748 27.2116 20.2493 24.0778 13.9773 9.71009 22.3224 16.3514 11.7 68.9014 33.8764
internal_count=7683 1919 1695 1109 1030 241 5764 55 224 181 79 789 206 140 66 5709 959 576 4750 312 152 43 198 83 115 90 52 754 657 353 304 87 217 108 97 112 4438 180 112 91 68 71 4258 126 50 76 4132 522 429 384 284 93 3610 3106 504 348 96 252 2902 66 2836 58 156 51 378 146 61 232 155 108 85 60 286 92 194 65 100 204 173 52 117 47 586 567 201 121 86 80 366 57 85 160 132 118 78 82 97 46 77 109 383 324 285 175 126 93 110 65 46 105 76 55 320 157
is_linear=0
shrinkage=0.268796


end of trees

feature_importances:
rsi_7=45
rol_mean_50=45
lag_5=38
time_since_instakill=38
lag_1=37
lag_9=35
rol_mean_15=33
gap_std_2x=32
lag_3=28
bait_density_150=11

parameters:
[boosting: gbdt]
[objective: binary]
[metric: binary_logloss]
[tree_learner: serial]
[device_type: cpu]
[data_sample_strategy: bagging]
[data: ]
[valid: ]
[num_iterations: 100]
[learning_rate: 0.268796]
[num_leaves: 115]
[num_threads: 0]
[seed: 42]
[deterministic: 1]
[force_col_wise: 0]
[force_row_wise: 0]
[histogram_pool_size: -1]
[max_depth: 11]
[min_data_in_leaf: 20]
[min_sum_hessian_in_leaf: 0.001]
[bagging_fraction: 0.647907]
[pos_bagging_fraction: 1]
[neg_bagging_fraction: 1]
[bagging_freq: 2]
[bagging_seed: 42]
[bagging_by_query: 0]
[feature_fraction: 0.978275]
[feature_fraction_bynode: 1]
[feature_fraction_seed: 42]
[extra_trees: 0]
[extra_seed: 12879]
[early_stopping_round: 0]
[early_stopping_min_delta: 0]
[first_metric_only: 0]
[max_delta_step: 0]
[lambda_l1: 0]
[lambda_l2: 0]
[linear_lambda: 0]
[min_gain_to_split: 0]
[drop_rate: 0.1]
[max_drop: 50]
[skip_drop: 0.5]
[xgboost_dart_mode: 0]
[uniform_drop: 0]
[drop_seed: 17869]
[top_rate: 0.2]
[other_rate: 0.1]
[min_data_per_group: 100]
[max_cat_threshold: 32]
[cat_l2: 10]
[cat_smooth: 10]
[max_cat_to_onehot: 4]
[top_k: 20]
[monotone_constraints: ]
[monotone_constraints_method: basic]
[monotone_penalty: 0]
[feature_contri: ]
[forcedsplits_filename: ]
[refit_decay_rate: 0.9]
[cegb_tradeoff: 1]
[cegb_penalty_split: 0]
[cegb_penalty_feature_lazy: ]
[cegb_penalty_feature_coupled: ]
[path_smooth: 0]
[interaction_constraints: ]
[verbosity: -1]
[saved_feature_importance_type: 0]
[use_quantized_grad: 0]
[num_grad_quant_bins: 4]
[quant_train_renew_leaf: 0]
[stochastic_rounding: 1]
[linear_tree: 0]
[max_bin: 255]
[max_bin_by_feature: ]
[min_data_in_bin: 3]
[bin_construct_sample_cnt: 200000]
[data_random_seed: 175]
[is_enable_sparse: 1]
[enable_bundle: 1]
[use_missing: 1]
[zero_as_missing: 0]
[feature_pre_filter: 1]
[pre_partition: 0]
[two_round: 0]
[header: 0]
[label_column: ]
[weight_column: ]
[group_column: ]
[ignore_column: ]
[categorical_feature: ]
[forcedbins_filename: ]
[precise_float_parser: 0]
[parser_config_file: ]
[objective_seed: 16083]
[num_class: 1]
[is_unbalance: 0]
[scale_pos_weight: 1]
[sigmoid: 1]
[boost_from_average: 1]
[reg_sqrt: 0]
[alpha: 0.9]
[fair_c: 1]
[poisson_max_delta_step: 0.7]
[tweedie_variance_power: 1.5]
[lambdarank_truncation_level: 30]
[lambdarank_norm: 1]
[label_gain: ]
[lambdarank_position_bias_regularization: 0]
[eval_at: ]
[multi_error_top_k: 1]
[auc_mu_weights: ]
[num_machines: 1]
[local_listen_port: 12400]
[time_out: 120]
[machine_list_filename: ]
[machines: ]
[gpu_platform_id: -1]
[gpu_device_id: -1]
[gpu_use_dp: 0]
[num_gpu: 1]

end of parameters

pandas_categorical:[]
